booster[0]
0:[f3<14.8649998] yes=1,no=2,missing=1,gain=4506.49219,cover=46053
	1:[f3<11.5349998] yes=3,no=4,missing=3,gain=673.84375,cover=28599.5
		3:[f3<8.38500023] yes=7,no=8,missing=7,gain=139.53125,cover=14373.25
			7:[f25<16.5050011] yes=15,no=16,missing=15,gain=17.5390625,cover=5974
				15:[f3<7.5] yes=31,no=32,missing=31,gain=5.06933594,cover=3860.75
					31:leaf=-0.317335457,cover=2085
					32:leaf=-0.301418573,cover=1775.75
				16:[f3<7.5] yes=33,no=34,missing=33,gain=2.99169922,cover=2113.25
					33:leaf=-0.299616247,cover=985.75
					34:leaf=-0.285545796,cover=1127.5
			8:[f25<17.2649994] yes=17,no=18,missing=17,gain=22.6191406,cover=8399.25
				17:[f28<14.5] yes=35,no=36,missing=35,gain=10.0126953,cover=5076
					35:leaf=-0.266343325,cover=1150.75
					36:leaf=-0.280803174,cover=3925.25
				18:[f14<0.5] yes=37,no=38,missing=37,gain=3.56982422,cover=3323.25
					37:leaf=-0.265572131,cover=2055
					38:leaf=-0.256488621,cover=1268.25
		4:[f25<18.6450005] yes=9,no=10,missing=9,gain=127.046875,cover=14226.25
			9:[f3<13.3400002] yes=19,no=20,missing=19,gain=39.5527344,cover=8640.5
				19:[f1<0.5] yes=39,no=40,missing=39,gain=10.5410156,cover=4807.75
					39:leaf=-0.24195452,cover=542
					40:leaf=-0.256488621,cover=4265.75
				20:[f28<21.5] yes=41,no=42,missing=41,gain=11.1235352,cover=3832.75
					41:leaf=-0.226732954,cover=1984.25
					42:leaf=-0.241739184,cover=1848.5
			10:[f3<12.8999996] yes=21,no=22,missing=21,gain=34.4013672,cover=5585.75
				21:[f1<0.5] yes=43,no=44,missing=43,gain=3.51953125,cover=1935.5
					43:leaf=-0.214232638,cover=184.75
					44:leaf=-0.226732954,cover=1750.75
				22:[f28<31.5] yes=45,no=46,missing=45,gain=8.05712891,cover=3650.25
					45:leaf=-0.201732337,cover=2512.5
					46:leaf=-0.214232638,cover=1137.75
	2:[f3<18.8850002] yes=5,no=6,missing=5,gain=805.499023,cover=17453.5
		5:[f25<21.7350006] yes=11,no=12,missing=11,gain=187.603516,cover=11571.5
			11:[f1<0.5] yes=23,no=24,missing=23,gain=77.1396484,cover=8069
				23:[f28<30.5] yes=47,no=48,missing=47,gain=15.9665527,cover=2615
					47:leaf=-0.163564652,cover=1838.75
					48:leaf=-0.181190342,cover=776.25
				24:[f28<16.5] yes=49,no=50,missing=49,gain=28.831543,cover=5454
					49:leaf=-0.181190342,cover=1971.75
					50:leaf=-0.201732337,cover=3482.25
			12:[f14<0.5] yes=25,no=26,missing=25,gain=35.9768066,cover=3502.5
				25:[f1<0.5] yes=51,no=52,missing=51,gain=20.2119141,cover=1965
					51:leaf=-0.14643088,cover=745
					52:leaf=-0.163564652,cover=1220
				26:[f4<171.595001] yes=53,no=54,missing=53,gain=2.90960693,cover=1537.5
					53:leaf=-0.14643088,cover=177.25
					54:leaf=-0.134208634,cover=1360.25
		6:[f25<20.7950001] yes=13,no=14,missing=13,gain=208.266846,cover=5882
			13:[f3<22.0249996] yes=27,no=28,missing=27,gain=58.791748,cover=3618.5
				27:[f1<0.5] yes=55,no=56,missing=55,gain=15.2070312,cover=2407
					55:leaf=-0.115497179,cover=1309.5
					56:leaf=-0.134208634,cover=1097.5
				28:[f28<25.5] yes=57,no=58,missing=57,gain=12.2115784,cover=1211.5
					57:leaf=-0.0879019126,cover=726.5
					58:leaf=-0.112108514,cover=485
			14:[f14<0.5] yes=29,no=30,missing=29,gain=75.5488739,cover=2263.5
				29:[f3<22.1049995] yes=59,no=60,missing=59,gain=21.0549316,cover=1281.5
					59:leaf=-0.0879019126,cover=811.75
					60:leaf=-0.0507868379,cover=469.75
				30:[f1<0.5] yes=61,no=62,missing=61,gain=37.8263893,cover=982
					61:leaf=0.0110046491,cover=540.5
					62:leaf=-0.0507868379,cover=441.5
booster[1]
0:[f3<14.3649998] yes=1,no=2,missing=1,gain=3274.62891,cover=45426.5547
	1:[f3<10.1549997] yes=3,no=4,missing=3,gain=450.796875,cover=26777.0723
		3:[f15<50400.875] yes=7,no=8,missing=7,gain=66.1914062,cover=9784.31934
			7:[f3<7.5] yes=15,no=16,missing=15,gain=11.1044922,cover=2854.68506
				15:leaf=-0.24171713,cover=802.264954
				16:leaf=-0.225278512,cover=2052.42017
			8:[f3<7.68499994] yes=17,no=18,missing=17,gain=27.5039062,cover=6929.63379
				17:[f25<10.9650002] yes=31,no=32,missing=31,gain=1.70800781,cover=2821.74243
					31:leaf=-0.278614044,cover=1155.73718
					32:leaf=-0.265202522,cover=1666.00537
				18:[f25<16.2049999] yes=33,no=34,missing=33,gain=8.47265625,cover=4107.89111
					33:leaf=-0.255487472,cover=2478.22705
					34:leaf=-0.24171713,cover=1629.66418
		4:[f15<61358] yes=9,no=10,missing=9,gain=204.873047,cover=16992.752
			9:[f3<12.3199997] yes=19,no=20,missing=19,gain=60.1083984,cover=8866.50781
				19:[f1<0.5] yes=35,no=36,missing=35,gain=13.4335938,cover=3854.07227
					35:leaf=-0.186546788,cover=272.522095
					36:leaf=-0.203105539,cover=3581.55029
				20:[f15<41757.9219] yes=37,no=38,missing=37,gain=16.2211914,cover=5012.43506
					37:leaf=-0.172632277,cover=2157.4585
					38:leaf=-0.185863912,cover=2854.97656
			10:[f25<23.4049988] yes=21,no=22,missing=21,gain=27.9238281,cover=8126.24463
				21:[f1<0.5] yes=39,no=40,missing=39,gain=9.8046875,cover=6993.37451
					39:leaf=-0.214192033,cover=1108.68054
					40:leaf=-0.225278512,cover=5884.69385
				22:[f3<12.3700008] yes=41,no=42,missing=41,gain=1.35656738,cover=1132.87024
					41:leaf=-0.214192033,cover=485.840546
					42:leaf=-0.203105539,cover=647.029724
	2:[f3<18.8450012] yes=5,no=6,missing=5,gain=607.479492,cover=18649.4844
		5:[f15<60502] yes=11,no=12,missing=11,gain=290.458984,cover=12708.3057
			11:[f0<9087.5] yes=23,no=24,missing=23,gain=70.9611816,cover=6676.95166
				23:[f15<32142] yes=43,no=44,missing=43,gain=30.763916,cover=2963.24414
					43:leaf=-0.128846616,cover=991.612122
					44:leaf=-0.147639424,cover=1971.6322
				24:[f3<15.8050003] yes=45,no=46,missing=45,gain=13.1829834,cover=3713.70752
					45:leaf=-0.128846616,cover=1432.18005
					46:leaf=-0.114187762,cover=2281.52759
			12:[f25<20.3549995] yes=25,no=26,missing=25,gain=35.4370117,cover=6031.354
				25:[f1<0.5] yes=47,no=48,missing=47,gain=1.88134766,cover=4326.7793
					47:leaf=-0.165520445,cover=1666.47302
					48:leaf=-0.172632277,cover=2660.30615
				26:[f1<0.5] yes=49,no=50,missing=49,gain=8.28833008,cover=1704.57458
					49:leaf=-0.147639424,cover=718.70697
					50:leaf=-0.16018486,cover=985.867554
		6:[f15<80775] yes=13,no=14,missing=13,gain=155.781372,cover=5941.1792
			13:[f1<0.5] yes=27,no=28,missing=27,gain=112.05426,cover=4055.81885
				27:[f15<51250] yes=51,no=52,missing=51,gain=47.7944794,cover=2340.9314
					51:leaf=-0.00477191946,cover=832.750671
					52:leaf=-0.0555886887,cover=1508.18079
				28:[f25<23.8450012] yes=53,no=54,missing=53,gain=18.8601685,cover=1714.88721
					53:leaf=-0.0881574005,cover=1226.71704
					54:leaf=-0.0628392771,cover=488.170166
			14:[f3<23.3649998] yes=29,no=30,missing=29,gain=15.4779053,cover=1885.36072
				29:[f25<26.8250008] yes=55,no=56,missing=55,gain=2.73132324,cover=1456.45422
					55:leaf=-0.114187762,cover=1346.35376
					56:leaf=-0.101172581,cover=110.100357
				30:[f25<12.1399994] yes=57,no=58,missing=57,gain=4.35773468,cover=428.906525
					57:leaf=-0.101172581,cover=126.443047
					58:leaf=-0.0881574005,cover=302.46347
booster[2]
0:[f3<14.4849997] yes=1,no=2,missing=1,gain=2570.29688,cover=44097.7148
	1:[f3<9.32499981] yes=3,no=4,missing=3,gain=405.019531,cover=25930.8887
		3:[f15<50400.875] yes=7,no=8,missing=7,gain=37.9375,cover=7643.12451
			7:[f3<7.5] yes=15,no=16,missing=15,gain=8.13842773,cover=2178.2334
				15:leaf=-0.216526225,cover=771.00238
				16:[f25<8.61499977] yes=31,no=32,missing=31,gain=0.434204102,cover=1407.23108
					31:leaf=-0.207774907,cover=277.804779
					32:leaf=-0.199023589,cover=1129.42639
			8:[f3<7.67000008] yes=17,no=18,missing=17,gain=14.8476562,cover=5464.89111
				17:[f25<13.0249996] yes=33,no=34,missing=33,gain=0.981933594,cover=2645.00977
					33:leaf=-0.245105177,cover=1387.55786
					34:leaf=-0.233696386,cover=1257.4519
				18:[f25<16.5849991] yes=35,no=36,missing=35,gain=4.00878906,cover=2819.88135
					35:leaf=-0.227655113,cover=1762.92188
					36:leaf=-0.216526225,cover=1056.95935
		4:[f15<45899] yes=9,no=10,missing=9,gain=208.861328,cover=18287.7656
			9:[f0<7362.5] yes=19,no=20,missing=19,gain=17.3857422,cover=5286.63428
				19:[f15<22820] yes=37,no=38,missing=37,gain=10.2248535,cover=2469.43359
					37:leaf=-0.154970184,cover=397.471344
					38:leaf=-0.16747731,cover=2071.9624
				20:[f15<40004] yes=39,no=40,missing=39,gain=0.841552734,cover=2817.20044
					39:leaf=-0.147675872,cover=1887.03418
					40:leaf=-0.154719979,cover=930.166321
			10:[f3<12.3199997] yes=21,no=22,missing=21,gain=66.4726562,cover=13001.1309
				21:[f25<20.9049988] yes=41,no=42,missing=41,gain=11.9267578,cover=6484.58301
					41:leaf=-0.199023589,cover=4999.89746
					42:leaf=-0.187014177,cover=1484.68567
				22:[f15<70996] yes=43,no=44,missing=43,gain=35.5332031,cover=6516.54785
					43:leaf=-0.16747731,cover=3200.14673
					44:leaf=-0.187014177,cover=3316.40137
	2:[f3<19.5] yes=5,no=6,missing=5,gain=436.570801,cover=18166.8262
		5:[f15<74184] yes=11,no=12,missing=11,gain=253.338379,cover=13409.4697
			11:[f1<0.5] yes=23,no=24,missing=23,gain=111.777344,cover=8952.30176
				23:[f25<10.165] yes=45,no=46,missing=45,gain=0.877441406,cover=2518.51855
					45:leaf=-0.10148114,cover=346.055481
					46:leaf=-0.0916084498,cover=2172.46313
				24:[f15<43206] yes=47,no=48,missing=47,gain=59.3283691,cover=6433.78369
					47:leaf=-0.105273783,cover=2835.31348
					48:leaf=-0.126237884,cover=3598.47021
			12:[f25<26.4850006] yes=25,no=26,missing=25,gain=12.4047852,cover=4457.16797
				25:[f1<0.5] yes=49,no=50,missing=49,gain=3.81225586,cover=4095.10889
					49:leaf=-0.138881162,cover=1709.63757
					50:leaf=-0.147675872,cover=2385.47144
				26:[f15<103343.844] yes=51,no=52,missing=51,gain=1.32435608,cover=362.058868
					51:leaf=-0.126237884,cover=265.305847
					52:leaf=-0.136956885,cover=96.7530289
		6:[f25<23.7750015] yes=13,no=14,missing=13,gain=124.605042,cover=4757.35596
			13:[f15<67494.5] yes=27,no=28,missing=27,gain=49.0779419,cover=3510.2041
				27:[f1<0.5] yes=53,no=54,missing=53,gain=34.3439636,cover=1634.86023
					53:leaf=-0.0466705821,cover=925.807312
					54:leaf=-0.0737748146,cover=709.052979
				28:[f3<23.6100006] yes=55,no=56,missing=55,gain=13.545166,cover=1875.34387
					55:leaf=-0.0916084498,cover=1444.67102
					56:leaf=-0.0737748146,cover=430.672913
			14:[f28<25.5] yes=29,no=30,missing=29,gain=32.8395462,cover=1247.15198
				29:[f0<8012.5] yes=57,no=58,missing=57,gain=17.0659084,cover=558.231445
					57:leaf=-0.0124221006,cover=122.289871
					58:leaf=0.0336098187,cover=435.941528
				30:[f3<22.1049995] yes=59,no=60,missing=59,gain=21.3029366,cover=688.920593
					59:leaf=-0.0466705821,cover=380.980682
					60:leaf=-0.0124221006,cover=307.939911
booster[3]
0:[f3<14.1000004] yes=1,no=2,missing=1,gain=2087.57227,cover=42416.5273
	1:[f3<9.32499981] yes=3,no=4,missing=3,gain=298.427734,cover=22888.2324
		3:[f3<7.5] yes=7,no=8,missing=7,gain=30.8125,cover=7146.72168
			7:[f25<16.5349998] yes=15,no=16,missing=15,gain=3.93847656,cover=2614.90112
				15:[f3<6.51499987] yes=31,no=32,missing=31,gain=0.7578125,cover=1768.15686
					31:leaf=-0.22460492,cover=870.30603
					32:leaf=-0.21206069,cover=897.850891
				16:leaf=-0.201674044,cover=846.744324
			8:[f25<16.7649994] yes=17,no=18,missing=17,gain=11.7172852,cover=4531.8208
				17:[f31<303.5] yes=33,no=34,missing=33,gain=2.55419922,cover=2741.89209
					33:leaf=-0.201180324,cover=1792.63
					34:leaf=-0.187760979,cover=949.262024
				18:[f25<24.4150009] yes=35,no=36,missing=35,gain=1.50195312,cover=1789.92847
					35:leaf=-0.184755832,cover=1280.08423
					36:leaf=-0.177019551,cover=509.84433
		4:[f25<20.9249992] yes=9,no=10,missing=9,gain=87.3320312,cover=15741.5107
			9:[f3<12.3999996] yes=19,no=20,missing=19,gain=39.6708984,cover=11427.5742
				19:[f1<0.5] yes=37,no=38,missing=37,gain=10.3540039,cover=6557.87695
					37:leaf=-0.162299439,cover=650.118469
					38:leaf=-0.175417691,cover=5907.75879
				20:[f28<22.5] yes=39,no=40,missing=39,gain=11.8798828,cover=4869.69678
					39:leaf=-0.14954643,cover=2614.72754
					40:leaf=-0.162299439,cover=2254.96899
			10:[f3<12.3199997] yes=21,no=22,missing=21,gain=23.9533691,cover=4313.93701
				21:[f1<0.5] yes=41,no=42,missing=41,gain=4.46875,cover=2178.86035
					41:leaf=-0.140394881,cover=183.739227
					42:leaf=-0.14954643,cover=1995.12109
				22:[f4<121.895004] yes=43,no=44,missing=43,gain=1.41259766,cover=2135.0769
					43:leaf=-0.140394881,cover=144.446289
					44:leaf=-0.131243333,cover=1990.63049
	2:[f1<0.5] yes=5,no=6,missing=5,gain=382.62207,cover=19528.2949
		5:[f25<21.8650017] yes=11,no=12,missing=11,gain=137.025391,cover=7747.81055
			11:[f14<0.5] yes=23,no=24,missing=23,gain=70.3883057,cover=5262.53223
				23:[f3<21.2000008] yes=45,no=46,missing=45,gain=17.1396484,cover=3475.41309
					45:leaf=-0.0883126482,cover=2699.87866
					46:leaf=-0.0717785656,cover=775.534424
				24:[f28<29.5] yes=47,no=48,missing=47,gain=10.0888062,cover=1787.11926
					47:leaf=-0.0552444831,cover=1362.33667
					48:leaf=-0.0717785656,cover=424.782562
			12:[f14<0.5] yes=25,no=26,missing=25,gain=53.9824371,cover=2485.27856
				25:[f33<302] yes=49,no=50,missing=49,gain=12.4927826,cover=1599.18542
					49:leaf=-0.0335338153,cover=879.988953
					50:leaf=-0.0552444831,cover=719.196472
				26:[f28<26.5] yes=51,no=52,missing=51,gain=21.4833736,cover=886.093079
					51:leaf=0.0276006106,cover=471.423187
					52:leaf=-0.0234612431,cover=414.669891
		6:[f25<20.0250015] yes=13,no=14,missing=13,gain=175.226562,cover=11780.4844
			13:[f3<16.5699997] yes=27,no=28,missing=27,gain=51.1855469,cover=7337.1748
				27:[f28<9.5] yes=53,no=54,missing=53,gain=1.65991211,cover=3974.41309
					53:leaf=-0.120539136,cover=445.699127
					54:leaf=-0.131243333,cover=3528.71387
				28:[f28<25.5] yes=55,no=56,missing=55,gain=14.4561768,cover=3362.76172
					55:leaf=-0.108600438,cover=2326.05396
					56:leaf=-0.120539136,cover=1036.70776
			14:[f28<36.5] yes=29,no=30,missing=29,gain=26.7921143,cover=4443.30908
				29:[f4<107.494995] yes=57,no=58,missing=57,gain=6.08349609,cover=3627.1875
					57:leaf=-0.0984565392,cover=262.022003
					58:leaf=-0.0883126482,cover=3365.16553
				30:[f3<19.2099991] yes=59,no=60,missing=59,gain=2.31298828,cover=816.12146
					59:leaf=-0.108600438,cover=692.577026
					60:leaf=-0.0984565392,cover=123.544426
booster[4]
0:[f2<0.5] yes=1,no=2,missing=1,gain=1113.58984,cover=40596.9023
	1:[f5<0.5] yes=3,no=4,missing=3,gain=572.007812,cover=31050.9375
		3:[f6<0.5] yes=7,no=8,missing=7,gain=419.150391,cover=25117.2715
			7:[f15<70006.5] yes=15,no=16,missing=15,gain=158.654297,cover=14497.5127
				15:[f4<148.220001] yes=31,no=32,missing=31,gain=11.4890137,cover=9950.37988
					31:leaf=-0.112323932,cover=1637.13525
					32:leaf=-0.0996025205,cover=8313.24414
				16:[f24<0.5] yes=33,no=34,missing=33,gain=10.0751953,cover=4547.1333
					33:leaf=-0.125045344,cover=4371.04492
					34:leaf=-0.112323932,cover=176.088547
			8:[f15<44942.5] yes=17,no=18,missing=17,gain=102.50293,cover=10619.7588
				17:[f4<165.790009] yes=35,no=36,missing=35,gain=3.17944336,cover=2792.28174
					35:leaf=-0.137782872,cover=663.435181
					36:leaf=-0.125045344,cover=2128.84668
				18:[f15<50390.5391] yes=37,no=38,missing=37,gain=4.26660156,cover=7827.47656
					37:leaf=-0.140002877,cover=1207.45947
					38:leaf=-0.151013076,cover=6620.01709
		4:[f15<59002] yes=9,no=10,missing=9,gain=35.2719727,cover=5933.66553
			9:[f15<35736] yes=19,no=20,missing=19,gain=6.89111328,cover=2247.18115
				19:[f37<203.5] yes=39,no=40,missing=39,gain=0.690155029,cover=651.100159
					39:leaf=-0.160396665,cover=316.688995
					40:leaf=-0.151013076,cover=334.411133
				20:[f4<466.255005] yes=41,no=42,missing=41,gain=2.42822266,cover=1596.08105
					41:leaf=-0.173670501,cover=1342.63489
					42:leaf=-0.160396665,cover=253.446045
			10:[f4<467.850006] yes=21,no=22,missing=21,gain=4.39550781,cover=3686.48438
				21:[f15<89550] yes=43,no=44,missing=43,gain=2.38378906,cover=2130.59644
					43:leaf=-0.190433204,cover=1259.19006
					44:leaf=-0.2048852,cover=871.406311
				22:[f15<88050] yes=45,no=46,missing=45,gain=1.75561523,cover=1555.88806
					45:leaf=-0.177051798,cover=568.360901
					46:leaf=-0.188793942,cover=987.527161
	2:[f15<65740] yes=5,no=6,missing=5,gain=309.762207,cover=9545.96582
		5:[f4<401.724976] yes=11,no=12,missing=11,gain=50.3729095,cover=4365.63525
			11:[f15<40898.5] yes=23,no=24,missing=23,gain=60.0229645,cover=2304.6958
				23:[f16<0.5] yes=47,no=48,missing=47,gain=0.934167862,cover=794.250305
					47:leaf=-0.0319008008,cover=652.901672
					48:leaf=-0.04595007,cover=141.348618
				24:[f24<0.5] yes=49,no=50,missing=49,gain=2.50030518,cover=1510.44543
					49:leaf=-0.0637171417,cover=1488.45312
					50:leaf=-0.0478089713,cover=21.9923382
			12:[f15<51695.2422] yes=25,no=26,missing=25,gain=27.9305592,cover=2060.93945
				25:[f29<0.5] yes=51,no=52,missing=51,gain=13.0723,cover=829.311523
					51:leaf=-0.00963480771,cover=263.965607
					52:leaf=0.0259676147,cover=565.345886
				26:[f4<618.930054] yes=53,no=54,missing=53,gain=7.63739395,cover=1231.62805
					53:leaf=-0.0319008008,cover=877.878052
					54:leaf=-0.00963480771,cover=353.749969
		6:[f4<565.349976] yes=13,no=14,missing=13,gain=52.8712158,cover=5180.33008
			13:[f24<0.5] yes=27,no=28,missing=27,gain=3.5736084,cover=2656.25537
				27:leaf=-0.0996025205,cover=2599.11157
				28:leaf=-0.0867161304,cover=57.1437225
			14:[f15<97089] yes=29,no=30,missing=29,gain=38.3748169,cover=2524.07495
				29:[f29<0.5] yes=57,no=58,missing=57,gain=6.19300842,cover=1282.43835
					57:leaf=-0.0752166361,cover=447.219116
					58:leaf=-0.0637171417,cover=835.219299
				30:[f4<949.464966] yes=59,no=60,missing=59,gain=6.15332031,cover=1241.6366
					59:leaf=-0.0867161304,cover=1060.36279
					60:leaf=-0.0752166361,cover=181.273743
booster[5]
0:[f3<15.6000004] yes=1,no=2,missing=1,gain=1638.02637,cover=38884.5273
	1:[f3<11.5349998] yes=3,no=4,missing=3,gain=396.96875,cover=24812.4609
		3:[f15<50422.5] yes=7,no=8,missing=7,gain=103.886719,cover=10899.2021
			7:[f3<7.89499998] yes=15,no=16,missing=15,gain=14.623291,cover=3495.88794
				15:[f25<20.4449997] yes=31,no=32,missing=31,gain=0.658996582,cover=925.907715
					31:leaf=-0.147417709,cover=685.61261
					32:leaf=-0.13911517,cover=240.29512
				16:leaf=-0.130812645,cover=2569.98022
			8:[f3<7.89499998] yes=17,no=18,missing=17,gain=53.5615234,cover=7403.31445
				17:[f25<8.46500015] yes=35,no=36,missing=35,gain=4.59521484,cover=2315.36646
					35:leaf=-0.199479654,cover=629.540161
					36:leaf=-0.180367365,cover=1685.82642
				18:[f25<16.6450005] yes=37,no=38,missing=37,gain=14.2397461,cover=5087.94775
					37:leaf=-0.162082165,cover=3091.29688
					38:leaf=-0.147417709,cover=1996.65088
		4:[f15<60006] yes=9,no=10,missing=9,gain=162.803711,cover=13913.2588
			9:[f25<12.8450003] yes=19,no=20,missing=19,gain=32.0991211,cover=7404.93311
				19:[f1<0.5] yes=39,no=40,missing=39,gain=7.05981445,cover=2059.3396
					39:leaf=-0.10105478,cover=228.202988
					40:leaf=-0.110290654,cover=1831.13672
				20:[f4<121.875] yes=41,no=42,missing=41,gain=7.1048584,cover=5345.59326
					41:leaf=-0.10105478,cover=473.96756
					42:leaf=-0.0918189064,cover=4871.62598
			10:[f25<21.5849991] yes=21,no=22,missing=21,gain=38.6523438,cover=6508.3252
				21:[f1<0.5] yes=43,no=44,missing=43,gain=4.55712891,cover=5131.01953
					43:leaf=-0.120551646,cover=1069.72217
					44:leaf=-0.130812645,cover=4061.29736
				22:[f3<12.7649994] yes=45,no=46,missing=45,gain=2.27883911,cover=1377.30566
					45:leaf=-0.120551646,cover=368.403381
					46:leaf=-0.110290654,cover=1008.90222
	2:[f15<80045.1016] yes=5,no=6,missing=5,gain=192.623047,cover=14072.0684
		5:[f3<20.9949989] yes=11,no=12,missing=11,gain=136.638245,cover=10111.8047
			11:[f15<43394.5] yes=23,no=24,missing=23,gain=72.048584,cover=8212.50391
				23:[f4<220.424988] yes=47,no=48,missing=47,gain=26.9450836,cover=2804.43237
					47:leaf=-0.0471617319,cover=962.26416
					48:leaf=-0.0271638371,cover=1842.16833
				24:[f1<0.5] yes=49,no=50,missing=49,gain=39.8648071,cover=5408.07178
					49:leaf=-0.0471617319,cover=2304.90576
					50:leaf=-0.0651352555,cover=3103.16602
			12:[f14<0.5] yes=25,no=26,missing=25,gain=28.4867458,cover=1899.30042
				25:[f25<23.4249992] yes=51,no=52,missing=51,gain=11.5168762,cover=972.521973
					51:leaf=-0.0271638371,cover=637.173401
					52:leaf=-0.00132486911,cover=335.348572
				26:[f4<499.419983] yes=53,no=54,missing=53,gain=22.6802673,cover=926.778442
					53:leaf=-0.000865343143,cover=584.758423
					54:leaf=0.0542780496,cover=342.020081
		6:[f3<20.875] yes=13,no=14,missing=13,gain=50.9504395,cover=3960.26318
			13:[f24<0.5] yes=27,no=28,missing=27,gain=5.67077637,cover=2932.63965
				27:[f25<26.4400005] yes=55,no=56,missing=55,gain=1.69287109,cover=2830.36377
					55:leaf=-0.0918189064,cover=2602.99268
					56:leaf=-0.0851479918,cover=227.371155
				28:leaf=-0.0784770772,cover=102.275803
			14:[f36<360] yes=29,no=30,missing=29,gain=2.96562958,cover=1027.62366
				29:[f4<359.97998] yes=59,no=60,missing=59,gain=1.63072205,cover=920.585693
					59:leaf=-0.07180617,cover=85.5220795
					60:leaf=-0.0651352555,cover=835.063599
				30:[f33<233] yes=61,no=62,missing=61,gain=0.409385681,cover=107.037926
					61:leaf=-0.07180617,cover=17.6559849
					62:leaf=-0.0784770772,cover=89.3819351
booster[6]
0:[f3<13.3400002] yes=1,no=2,missing=1,gain=1363.94629,cover=37105.7031
	1:[f15<43962.5195] yes=3,no=4,missing=3,gain=194.498047,cover=16100.666
		3:[f3<9.46999931] yes=7,no=8,missing=7,gain=30.9326172,cover=3762.03418
			7:[f25<23.7249985] yes=15,no=16,missing=15,gain=1.66137695,cover=1096.40247
				15:[f15<16025] yes=31,no=32,missing=31,gain=0.543151855,cover=909.391479
					31:leaf=-0.109072648,cover=37.6582184
					32:leaf=-0.114482306,cover=871.733276
				16:leaf=-0.10366299,cover=187.010941
			8:[f0<2662.5] yes=17,no=18,missing=17,gain=2.53521729,cover=2665.63184
				17:[f15<18564] yes=35,no=36,missing=35,gain=0.862556458,cover=201.228424
					35:leaf=-0.0982533246,cover=37.7660866
					36:leaf=-0.10366299,cover=163.462326
				18:leaf=-0.0928436741,cover=2464.40332
		4:[f3<8.78999996] yes=9,no=10,missing=9,gain=128.327637,cover=12338.6318
			9:[f3<7.40999985] yes=19,no=20,missing=19,gain=13.2021484,cover=3432.44043
				19:[f25<13.0799999] yes=39,no=40,missing=39,gain=4.16308594,cover=1509.53479
					39:leaf=-0.185957029,cover=783.049927
					40:leaf=-0.165901572,cover=726.484863
				20:[f15<71577] yes=41,no=42,missing=41,gain=6.30725098,cover=1922.90552
					41:leaf=-0.144723743,cover=836.385193
					42:leaf=-0.163529649,cover=1086.52039
			10:[f25<16.6450005] yes=21,no=22,missing=21,gain=39.7851562,cover=8906.19141
				21:[f15<70001] yes=43,no=44,missing=43,gain=17.4099121,cover=5026.51562
					43:leaf=-0.124964073,cover=2188.25854
					44:leaf=-0.144400924,cover=2838.25684
				22:[f15<75304.5] yes=45,no=46,missing=45,gain=5.26477051,cover=3879.67627
					45:leaf=-0.114482306,cover=2496.90967
					46:leaf=-0.124964073,cover=1382.76672
	2:[f3<16.5699997] yes=5,no=6,missing=5,gain=320.168457,cover=21005.0371
		5:[f15<60006] yes=11,no=12,missing=11,gain=120.933594,cover=10468.1816
			11:[f25<17.2449989] yes=23,no=24,missing=23,gain=30.3249512,cover=5646.72363
				23:[f1<0.5] yes=47,no=48,missing=47,gain=10.2077637,cover=2527.45239
					47:leaf=-0.0689837635,cover=448.564606
					48:leaf=-0.0779918581,cover=2078.8877
				24:[f0<3525] yes=49,no=50,missing=49,gain=4.49542236,cover=3119.27148
					49:leaf=-0.0689837635,cover=243.39502
					50:leaf=-0.0599756613,cover=2875.87646
			12:[f25<21.5849991] yes=25,no=26,missing=25,gain=16.3956299,cover=4821.45752
				25:[f24<0.5] yes=51,no=52,missing=51,gain=2.33642578,cover=3727.25269
					51:leaf=-0.0928436741,cover=3640.16992
					52:leaf=-0.0854177698,cover=87.0828705
				26:[f36<304.5] yes=53,no=54,missing=53,gain=3.45446777,cover=1094.20496
					53:leaf=-0.0779918581,cover=825.966797
					54:leaf=-0.0854177698,cover=268.238129
		6:[f25<14.6549997] yes=13,no=14,missing=13,gain=137.049438,cover=10536.8564
			13:[f15<42161] yes=27,no=28,missing=27,gain=16.7360229,cover=3649.0686
				27:[f0<6012.5] yes=55,no=56,missing=55,gain=3.409338,cover=692.468018
					55:leaf=-0.0511251055,cover=292.729034
					56:leaf=-0.0422745571,cover=399.738953
				28:[f3<21.1450005] yes=57,no=58,missing=57,gain=5.72052002,cover=2956.60059
					57:leaf=-0.0599756613,cover=2232.09644
					58:leaf=-0.0511251055,cover=724.504089
			14:[f15<61788.0312] yes=29,no=30,missing=29,gain=78.9793854,cover=6887.7876
				29:[f0<15262.5] yes=59,no=60,missing=59,gain=40.4568481,cover=3747.01929
					59:leaf=-0.0197577775,cover=2574.21289
					60:leaf=0.0183811132,cover=1172.8064
				30:[f3<21.2750015] yes=61,no=62,missing=61,gain=26.4254913,cover=3140.76831
					61:leaf=-0.0422745571,cover=2237.23853
					62:leaf=-0.0250466261,cover=903.529663
booster[7]
0:[f1<0.5] yes=1,no=2,missing=1,gain=702.512695,cover=35614.5586
	1:[f25<17.2049999] yes=3,no=4,missing=3,gain=105.919678,cover=9000.72852
		3:[f28<22.5] yes=7,no=8,missing=7,gain=53.6459351,cover=4323.73779
			7:[f29<0.5] yes=15,no=16,missing=15,gain=14.0657959,cover=2036.49805
				15:[f38<0.5] yes=31,no=32,missing=31,gain=0.910667419,cover=613.009338
					31:leaf=-0.0508798733,cover=522.668823
					32:leaf=-0.0441814363,cover=90.3405075
				16:[f28<19.5] yes=33,no=34,missing=33,gain=0.907615244,cover=1423.48877
					33:leaf=-0.037483003,cover=1090.54968
					34:leaf=-0.0441814363,cover=332.939087
			8:[f4<958.859985] yes=17,no=18,missing=17,gain=3.81628418,cover=2287.23975
				17:[f11<0.5] yes=35,no=36,missing=35,gain=1.2701416,cover=2213.69336
					35:leaf=-0.06427674,cover=2160.46118
					36:leaf=-0.0575783029,cover=53.2319794
				18:leaf=-0.0508798733,cover=73.5465698
		4:[f28<27.5] yes=9,no=10,missing=9,gain=48.4211998,cover=4676.99023
			9:[f12<0.5] yes=19,no=20,missing=19,gain=30.808567,cover=2283.99902
				19:[f25<26.8500004] yes=39,no=40,missing=39,gain=8.45617867,cover=1167.85242
					39:leaf=0.00979516003,cover=876.582886
					40:leaf=0.0432543568,cover=291.26947
				20:[f35<313.5] yes=41,no=42,missing=41,gain=8.68179703,cover=1116.14673
					41:leaf=-0.0185895376,cover=849.5672
					42:leaf=-0.000209792008,cover=266.579498
			10:[f29<0.5] yes=21,no=22,missing=21,gain=12.6340103,cover=2392.99121
				21:[f26<28.5] yes=43,no=44,missing=43,gain=0.601676941,cover=908.380493
					43:leaf=-0.037483003,cover=883.767883
					44:leaf=-0.0295549054,cover=24.6126156
				22:[f28<48.5] yes=45,no=46,missing=45,gain=5.23278618,cover=1484.61072
					45:leaf=-0.0185895376,cover=1292.44775
					46:leaf=-0.0295549054,cover=192.162933
	2:[f5<0.5] yes=5,no=6,missing=5,gain=432.644531,cover=26613.8281
		5:[f25<18.1949997] yes=11,no=12,missing=11,gain=216.837402,cover=22054.2266
			11:[f28<21.5] yes=23,no=24,missing=23,gain=56.5827637,cover=12468.1914
				23:[f12<0.5] yes=47,no=48,missing=47,gain=30.5247803,cover=6889.61719
					47:leaf=-0.0805143937,cover=4597.86426
					48:leaf=-0.0979602039,cover=2291.75293
				24:[f8<0.5] yes=49,no=50,missing=49,gain=15.895752,cover=5578.57422
					49:leaf=-0.110727243,cover=4656.84619
					50:leaf=-0.0979602039,cover=921.727966
			12:[f12<0.5] yes=25,no=26,missing=25,gain=48.7724609,cover=9586.03516
				25:[f34<1.5] yes=51,no=52,missing=51,gain=4.25802612,cover=5448.37842
					51:leaf=-0.0723955631,cover=158.698517
					52:leaf=-0.06427674,cover=5289.67969
				26:[f28<25.5] yes=53,no=54,missing=53,gain=6.64465332,cover=4137.65674
					53:leaf=-0.0723955631,cover=1727.03064
					54:leaf=-0.0805143937,cover=2410.62573
		6:[f25<24.4150009] yes=13,no=14,missing=13,gain=19.947998,cover=4559.60254
			13:[f25<13.3850002] yes=27,no=28,missing=27,gain=7.92431641,cover=4099.49219
				27:[f12<0.5] yes=55,no=56,missing=55,gain=6.39624023,cover=2155.28687
					55:leaf=-0.14296025,cover=917.449097
					56:leaf=-0.1594726,cover=1237.83777
				28:[f37<318.5] yes=57,no=58,missing=57,gain=3.03283691,cover=1944.20508
					57:leaf=-0.139751837,cover=1433.16675
					58:leaf=-0.1270625,cover=511.038239
			14:[f32<331.5] yes=29,no=30,missing=29,gain=1.31091309,cover=460.110718
				29:leaf=-0.110727243,cover=301.090454
				30:leaf=-0.1270625,cover=159.020264
booster[8]
0:[f3<13.3400002] yes=1,no=2,missing=1,gain=1010.27783,cover=34252.7812
	1:[f15<50422.5] yes=3,no=4,missing=3,gain=183.032227,cover=14172.8311
		3:[f3<9.625] yes=7,no=8,missing=7,gain=41.9799194,cover=5014.41797
			7:[f4<475.765015] yes=15,no=16,missing=15,gain=2.40588379,cover=1436.03711
				15:[f15<22490] yes=31,no=32,missing=31,gain=1.05389404,cover=1334.8938
					31:leaf=-0.0901814327,cover=104.602646
					32:leaf=-0.0961211398,cover=1230.29114
				16:leaf=-0.0842417255,cover=101.143372
			8:[f15<43848.5] yes=17,no=18,missing=17,gain=5.62957764,cover=3578.3811
				17:[f32<445.5] yes=35,no=36,missing=35,gain=0.686859131,cover=2431.10742
					35:leaf=-0.0723623186,cover=2355.55469
					36:leaf=-0.0783020258,cover=75.5527725
				18:[f4<466.600006] yes=37,no=38,missing=37,gain=3.60858154,cover=1147.27356
					37:leaf=-0.0842417255,cover=915.807129
					38:leaf=-0.0783020258,cover=231.4664
		4:[f3<8.35000038] yes=9,no=10,missing=9,gain=96.8710938,cover=9158.41309
			9:[f3<7.42500019] yes=19,no=20,missing=19,gain=9.58764648,cover=2268.21533
				19:[f25<15.375] yes=39,no=40,missing=39,gain=3.20483398,cover=1071.51245
					39:leaf=-0.166805223,cover=688.397217
					40:leaf=-0.147513047,cover=383.115265
				20:[f15<89550] yes=41,no=42,missing=41,gain=4.57244873,cover=1196.70276
					41:leaf=-0.126615629,cover=692.561584
					42:leaf=-0.147513047,cover=504.141205
			10:[f25<12.3549995] yes=21,no=22,missing=21,gain=26.3964844,cover=6890.19775
				21:[f15<96528.5] yes=43,no=44,missing=43,gain=8.70300293,cover=2453.36255
					43:leaf=-0.111429319,cover=1554.62122
					44:leaf=-0.126615629,cover=898.741455
				22:[f3<10.6300001] yes=45,no=46,missing=45,gain=9.35314941,cover=4436.83496
					45:leaf=-0.109461933,cover=1305.93945
					46:leaf=-0.0961211398,cover=3130.89551
	2:[f15<66014] yes=5,no=6,missing=5,gain=216.222778,cover=20079.9492
		5:[f3<16.5699997] yes=11,no=12,missing=11,gain=119.343964,cover=11773.8945
			11:[f15<33005] yes=23,no=24,missing=23,gain=32.9944153,cover=6006.41455
				23:[f4<165.975006] yes=47,no=48,missing=47,gain=2.50139832,cover=1150.16406
					47:leaf=-0.0366271958,cover=345.505859
					48:leaf=-0.0274827126,cover=804.658203
				24:[f4<355.734985] yes=49,no=50,missing=49,gain=12.2364807,cover=4856.25049
					49:leaf=-0.045771677,cover=2756.43115
					50:leaf=-0.0366271958,cover=2099.81958
			12:[f4<254.980011] yes=25,no=26,missing=25,gain=43.2060661,cover=5767.47998
				25:[f15<30909.5] yes=51,no=52,missing=51,gain=6.74191284,cover=1493.86536
					51:leaf=-0.0143500185,cover=486.238007
					52:leaf=-0.0274827126,cover=1007.62732
				26:[f15<37093] yes=53,no=54,missing=53,gain=51.4759903,cover=4273.61475
					53:leaf=0.0394621193,cover=743.674316
					54:leaf=-0.00979625992,cover=3529.94019
		6:[f3<18.8450012] yes=13,no=14,missing=13,gain=111.618164,cover=8306.05566
			13:[f25<20.4549999] yes=27,no=28,missing=27,gain=11.1225586,cover=5702.84326
				27:[f24<0.5] yes=55,no=56,missing=55,gain=2.94213867,cover=4149.83057
					55:leaf=-0.0723623186,cover=4033.12915
					56:leaf=-0.0657146573,cover=116.701111
				28:[f36<328.5] yes=57,no=58,missing=57,gain=4.58100891,cover=1553.0127
					57:leaf=-0.059066996,cover=1229.66003
					58:leaf=-0.0657146573,cover=323.352722
			14:[f4<274.720001] yes=29,no=30,missing=29,gain=6.00588226,cover=2603.21216
				29:[f28<11.5] yes=59,no=60,missing=59,gain=0.490268707,cover=207.186447
					59:leaf=-0.0524193347,cover=20.0471535
					60:leaf=-0.059066996,cover=187.139282
				30:[f36<360] yes=61,no=62,missing=61,gain=2.44527435,cover=2396.02588
					61:leaf=-0.045771677,cover=2156.3667
					62:leaf=-0.0524193347,cover=239.659027
booster[9]
0:[f3<13.3400002] yes=1,no=2,missing=1,gain=792.535889,cover=33030.8086
	1:[f3<7.89499998] yes=3,no=4,missing=3,gain=155.889404,cover=13300.5967
		3:[f25<16.5349998] yes=7,no=8,missing=7,gain=11.5333252,cover=2221.01392
			7:[f3<6.89999962] yes=15,no=16,missing=15,gain=5.59783936,cover=1434.2854
				15:[f25<7.76500034] yes=31,no=32,missing=31,gain=0.719970703,cover=717.706299
					31:leaf=-0.16244933,cover=256.816315
					32:leaf=-0.146141604,cover=460.890015
				16:[f25<7.06500006] yes=33,no=34,missing=33,gain=1.73147583,cover=716.579102
					33:leaf=-0.140933573,cover=209.552734
					34:leaf=-0.127892569,cover=507.026337
			8:[f3<6.43999958] yes=17,no=18,missing=17,gain=3.97518921,cover=786.728577
				17:leaf=-0.127892569,cover=181.724899
				18:[f28<48.5] yes=37,no=38,missing=37,gain=0.649246216,cover=605.003662
					37:leaf=-0.10705366,cover=569.756897
					38:leaf=-0.117473103,cover=35.246788
		4:[f25<16.6450005] yes=9,no=10,missing=9,gain=54.9445801,cover=11079.582
			9:[f3<10.2649994] yes=19,no=20,missing=19,gain=19.4989014,cover=5915.36719
				19:[f28<16.5] yes=39,no=40,missing=39,gain=5.52734375,cover=1978.9137
					39:leaf=-0.0967979506,cover=588.45459
					40:leaf=-0.10705366,cover=1390.45911
				20:[f28<22.5] yes=41,no=42,missing=41,gain=7.00036621,cover=3936.45337
					41:leaf=-0.0815018117,cover=2242.44678
					42:leaf=-0.0950168073,cover=1694.00647
			10:[f3<11.5349998] yes=21,no=22,missing=21,gain=21.8064575,cover=5164.21533
				21:[f25<25.2249985] yes=43,no=44,missing=43,gain=6.48638916,cover=2566.80005
					43:leaf=-0.0815018117,cover=1934.25146
					44:leaf=-0.0725703314,cover=632.548584
				22:[f28<46.5] yes=45,no=46,missing=45,gain=3.88748169,cover=2597.41528
					45:leaf=-0.063705042,cover=2435.42578
					46:leaf=-0.0725703314,cover=161.989365
	2:[f3<18.8450012] yes=5,no=6,missing=5,gain=185.486938,cover=19730.2129
		5:[f25<21.6749992] yes=11,no=12,missing=11,gain=104.131958,cover=14219.123
			11:[f28<25.5] yes=23,no=24,missing=23,gain=37.1739502,cover=9832.39648
				23:[f25<11.8950005] yes=47,no=48,missing=47,gain=24.9273682,cover=6267.10986
					47:leaf=-0.0558817573,cover=2638.26343
					48:leaf=-0.0428071991,cover=3628.84644
				24:[f24<0.5] yes=49,no=50,missing=49,gain=2.65057373,cover=3565.28638
					49:leaf=-0.063705042,cover=3493.33276
					50:leaf=-0.0558817573,cover=71.9535446
			12:[f28<34.5] yes=25,no=26,missing=25,gain=11.3944092,cover=4386.72705
				25:[f36<360] yes=51,no=52,missing=51,gain=4.39171028,cover=3301.92017
					51:leaf=-0.0286957789,cover=2955.31665
					52:leaf=-0.0357514881,cover=346.603638
				26:[f0<14425] yes=53,no=54,missing=53,gain=2.311203,cover=1084.80652
					53:leaf=-0.0428071991,cover=527.17865
					54:leaf=-0.0357514881,cover=557.62793
		6:[f25<19.0149994] yes=13,no=14,missing=13,gain=48.3121109,cover=5511.08887
			13:[f3<21.0699997] yes=27,no=28,missing=27,gain=19.1125259,cover=2894.3103
				27:[f24<0.5] yes=55,no=56,missing=55,gain=2.16823578,cover=1541.74133
					55:leaf=-0.0286957789,cover=1482.56213
					56:leaf=-0.0190942492,cover=59.1792145
				28:[f28<27.5] yes=57,no=58,missing=57,gain=6.83566761,cover=1352.56897
					57:leaf=-0.00949272048,cover=919.38501
					58:leaf=-0.0190942492,cover=433.18396
			14:[f28<27.5] yes=29,no=30,missing=29,gain=28.1531162,cover=2616.77856
				29:[f33<87.5] yes=59,no=60,missing=59,gain=12.8734512,cover=1406.5437
					59:leaf=0.065944314,cover=175.782715
					60:leaf=0.0167785622,cover=1230.76099
				30:[f3<22.1300011] yes=61,no=62,missing=61,gain=7.23694038,cover=1210.23486
					61:leaf=-0.00949272048,cover=766.811707
					62:leaf=0.00673640659,cover=443.423187
booster[10]
0:[f3<12.3199997] yes=1,no=2,missing=1,gain=647.022217,cover=32008.0938
	1:[f15<61068] yes=3,no=4,missing=3,gain=127.405762,cover=9641.36035
		3:[f3<8.38500023] yes=7,no=8,missing=7,gain=41.5518799,cover=4757.479
			7:[f24<0.5] yes=15,no=16,missing=15,gain=2.37289429,cover=1228.24744
				15:[f25<24.4249992] yes=31,no=32,missing=31,gain=1.00796509,cover=1200.55835
					31:leaf=-0.0865351707,cover=1040.18896
					32:leaf=-0.0800061449,cover=160.369385
				16:leaf=-0.0734771267,cover=27.6890659
			8:[f0<7062.5] yes=17,no=18,missing=17,gain=8.19540405,cover=3529.23145
				17:[f23<0.5] yes=33,no=34,missing=33,gain=5.00260925,cover=1300.70837
					33:leaf=-0.0734771267,cover=1035.2677
					34:leaf=-0.0669481084,cover=265.440765
				18:[f36<360] yes=35,no=36,missing=35,gain=0.902572632,cover=2228.52295
					35:leaf=-0.0604190864,cover=1944.17566
					36:leaf=-0.0669481084,cover=284.347382
		4:[f3<7.67000008] yes=9,no=10,missing=9,gain=50.9753418,cover=4883.88184
			9:[f25<10.7449999] yes=19,no=20,missing=19,gain=5.54620361,cover=975.598755
				19:[f37<313.5] yes=37,no=38,missing=37,gain=0.777282715,cover=386.230042
					37:leaf=-0.164416507,cover=275.902863
					38:leaf=-0.143774763,cover=110.327179
				20:[f28<44.5] yes=39,no=40,missing=39,gain=1.89425659,cover=589.368652
					39:leaf=-0.124616861,cover=515.567749
					40:leaf=-0.143774763,cover=73.8009491
			10:[f25<13.7650003] yes=21,no=22,missing=21,gain=11.3199463,cover=3908.28296
				21:[f15<100985] yes=41,no=42,missing=41,gain=9.47393799,cover=1837.23169
					41:leaf=-0.0979114771,cover=1132.97351
					42:leaf=-0.119205579,cover=704.258179
				22:[f32<332.5] yes=43,no=44,missing=43,gain=4.17724609,cover=2071.05127
					43:leaf=-0.0865351707,cover=1302.88574
					44:leaf=-0.0979114771,cover=768.165649
	2:[f3<16.5699997] yes=5,no=6,missing=5,gain=190.2901,cover=22366.7344
		5:[f15<49730] yes=11,no=12,missing=11,gain=124.53418,cover=12323.7715
			11:[f0<4812.5] yes=23,no=24,missing=23,gain=14.5419006,cover=4393.61475
				23:[f15<18998] yes=45,no=46,missing=45,gain=2.92842865,cover=825.873108
					45:leaf=-0.0394242182,cover=97.7145538
					46:leaf=-0.0464225076,cover=728.158569
				24:[f25<10.2849998] yes=47,no=48,missing=47,gain=3.51475072,cover=3567.74146
					47:leaf=-0.0394242182,cover=550.682922
					48:leaf=-0.0324259326,cover=3017.05859
			12:[f25<23.4049988] yes=25,no=26,missing=25,gain=33.2409668,cover=7930.15625
				25:[f24<0.5] yes=49,no=50,missing=49,gain=5.76904297,cover=6394.82617
					49:leaf=-0.0604190864,cover=6270.79443
					50:leaf=-0.053420797,cover=124.031738
				26:[f28<51.5] yes=51,no=52,missing=51,gain=1.4646759,cover=1535.33032
					51:leaf=-0.0464225076,cover=1428.31042
					52:leaf=-0.053420797,cover=107.01989
		6:[f24<0.5] yes=13,no=14,missing=13,gain=68.6452026,cover=10042.9629
			13:[f15<42416] yes=27,no=28,missing=27,gain=71.33284,cover=9749.45898
				27:[f0<6012.5] yes=53,no=54,missing=53,gain=28.7035408,cover=2211.25464
					53:leaf=-0.00958341453,cover=732.546143
					54:leaf=0.0222648904,cover=1478.70862
				28:[f0<15812.5] yes=55,no=56,missing=55,gain=56.1344604,cover=7538.20459
					55:leaf=-0.0324259326,cover=3129.82397
					56:leaf=-0.0119279344,cover=4408.38037
			14:[f28<22.5] yes=29,no=30,missing=29,gain=9.77827454,cover=293.503265
				29:[f25<12.9500008] yes=57,no=58,missing=57,gain=8.33731079,cover=160.948471
					57:leaf=0.0611246154,cover=86.8235626
					58:leaf=0.134501815,cover=74.1249008
				30:[f26<19.5] yes=59,no=60,missing=59,gain=5.02839231,cover=132.55481
					59:leaf=0.0226353072,cover=116.153687
					60:leaf=0.0611246154,cover=16.4011211
booster[11]
0:[f2<0.5] yes=1,no=2,missing=1,gain=328.863403,cover=31041.0312
	1:[f15<45016] yes=3,no=4,missing=3,gain=292.529785,cover=22556.5293
		3:[f0<3587.5] yes=7,no=8,missing=7,gain=13.4357452,cover=7529.14209
			7:[f15<27123] yes=15,no=16,missing=15,gain=5.50920868,cover=1043.09387
				15:leaf=-0.0422121361,cover=382.515625
				16:leaf=-0.0506700836,cover=660.578247
			8:[f34<1.5] yes=17,no=18,missing=17,gain=5.16462708,cover=6486.04834
				17:[f24<0.5] yes=35,no=36,missing=35,gain=0.418571472,cover=264.201935
					35:leaf=-0.0422121361,cover=254.079269
					36:leaf=-0.0379831642,cover=10.1226454
				18:[f15<42164.3125] yes=37,no=38,missing=37,gain=1.47751617,cover=6221.84668
					37:leaf=-0.0337541923,cover=5205.04639
					38:leaf=-0.0379831642,cover=1016.79987
		4:[f15<75002.3984] yes=9,no=10,missing=9,gain=74.1555176,cover=15027.3867
			9:[f0<14087.5] yes=19,no=20,missing=19,gain=52.0345459,cover=8602.11621
				19:[f8<0.5] yes=39,no=40,missing=39,gain=11.7497559,cover=6057.58057
					39:leaf=-0.0693339854,cover=5031.729
					40:leaf=-0.0594816208,cover=1025.85156
				20:[f36<360] yes=41,no=42,missing=41,gain=1.49222565,cover=2544.53564
					41:leaf=-0.0506700836,cover=2252.56763
					42:leaf=-0.0594816208,cover=291.968018
			10:[f0<23087.5] yes=21,no=22,missing=21,gain=22.3477783,cover=6425.271
				21:[f12<0.5] yes=43,no=44,missing=43,gain=12.246582,cover=4892.82129
					43:leaf=-0.0783562064,cover=1962.69543
					44:leaf=-0.0944532603,cover=2930.12598
				22:[f36<360] yes=45,no=46,missing=45,gain=3.66551208,cover=1532.44946
					45:leaf=-0.0693339854,cover=1356.73743
					46:leaf=-0.0783562064,cover=175.711945
	2:[f15<74170.8438] yes=5,no=6,missing=5,gain=115.74736,cover=8484.50098
		5:[f29<0.5] yes=11,no=12,missing=11,gain=47.9381409,cover=4855.43164
			11:[f14<0.5] yes=23,no=24,missing=23,gain=9.44986343,cover=1616.32703
				23:[f36<135.5] yes=47,no=48,missing=47,gain=1.21157455,cover=993.831787
					47:leaf=-0.00760139991,cover=372.729889
					48:leaf=-0.0152704585,cover=621.101868
				24:[f41<0.5] yes=49,no=50,missing=49,gain=2.80171561,cover=622.4953
					49:leaf=6.76583295e-05,cover=409.815674
					50:leaf=-0.00760139991,cover=212.679596
			12:[f24<0.5] yes=25,no=26,missing=25,gain=30.4959564,cover=3239.10474
				25:[f15<42008] yes=51,no=52,missing=51,gain=25.3844624,cover=3167.61084
					51:leaf=0.0413847789,cover=704.206848
					52:leaf=0.00474705454,cover=2463.40381
				26:[f15<52900] yes=53,no=54,missing=53,gain=7.3932457,cover=71.494072
					53:leaf=0.174256697,cover=38.991703
					54:leaf=0.0687518567,cover=32.5023651
		6:[f14<0.5] yes=13,no=14,missing=13,gain=21.8455353,cover=3629.06958
			13:[f35<317.5] yes=27,no=28,missing=27,gain=3.68289185,cover=2718.74487
				27:[f24<0.5] yes=55,no=56,missing=55,gain=1.44447327,cover=2086.6897
					55:leaf=-0.0337541923,cover=2035.92725
					56:leaf=-0.0291332584,cover=50.7623863
				28:[f29<0.5] yes=57,no=58,missing=57,gain=1.31822872,cover=632.055115
					57:leaf=-0.0291332584,cover=232.800781
					58:leaf=-0.0245123245,cover=399.254333
			14:[f0<17037.5] yes=29,no=30,missing=29,gain=3.38079882,cover=910.324707
				29:[f33<218.5] yes=59,no=60,missing=59,gain=0.645368576,cover=241.64003
					59:leaf=-0.0198913906,cover=49.2207642
					60:leaf=-0.0245123245,cover=192.419266
				30:[f28<48.5] yes=61,no=62,missing=61,gain=0.529607773,cover=668.684692
					61:leaf=-0.0152704585,cover=634.217896
					62:leaf=-0.0198913906,cover=34.4667587
booster[12]
0:[f3<11.5349998] yes=1,no=2,missing=1,gain=474.341187,cover=30250.0137
	1:[f3<7.89499998] yes=3,no=4,missing=3,gain=78.0196533,cover=6764.76465
		3:[f15<57293] yes=7,no=8,missing=7,gain=21.7697144,cover=1758.82104
			7:[f3<6.43999958] yes=15,no=16,missing=15,gain=3.75604248,cover=700.611084
				15:[f33<134.5] yes=31,no=32,missing=31,gain=0.572944641,cover=174.094055
					31:leaf=-0.0948689803,cover=35.5304375
					32:leaf=-0.103972435,cover=138.563614
				16:leaf=-0.0857655257,cover=526.517029
			8:[f25<8.35499954] yes=17,no=18,missing=17,gain=9.42980957,cover=1058.21008
				17:[f31<207.5] yes=35,no=36,missing=35,gain=2.74992371,cover=272.319336
					35:leaf=-0.168656707,cover=137.248138
					36:leaf=-0.131194219,cover=135.071198
				18:[f3<6.43999958] yes=37,no=38,missing=37,gain=5.30963135,cover=785.890686
					37:leaf=-0.131194219,cover=206.660324
					38:leaf=-0.103972435,cover=579.230408
		4:[f15<50429.5] yes=9,no=10,missing=9,gain=46.6695557,cover=5005.94336
			9:[f42<11.5] yes=19,no=20,missing=19,gain=1.99086761,cover=1821.11816
				19:[f15<43962.5195] yes=39,no=40,missing=39,gain=1.92835999,cover=1694.78577
					39:leaf=-0.0501816459,cover=1162.12952
					40:leaf=-0.0571006611,cover=532.656189
				20:leaf=-0.06401968,cover=126.332413
			10:[f25<20.5950012] yes=21,no=22,missing=21,gain=16.6046143,cover=3184.82544
				21:[f24<0.5] yes=43,no=44,missing=43,gain=5.12518311,cover=2444.56079
					43:leaf=-0.0857655257,cover=2400.75391
					44:leaf=-0.0746020675,cover=43.8066788
				22:[f28<49.5] yes=45,no=46,missing=45,gain=1.29620361,cover=740.264709
					45:leaf=-0.06401968,cover=683.498901
					46:leaf=-0.0746020675,cover=56.7657852
	2:[f15<36072.1406] yes=5,no=6,missing=5,gain=157.000122,cover=23485.25
		5:[f0<8712.5] yes=11,no=12,missing=11,gain=61.6703796,cover=3628.24951
			11:[f15<23198] yes=23,no=24,missing=23,gain=22.8419247,cover=2342.75122
				23:[f4<93.4850006] yes=47,no=48,missing=47,gain=4.38952827,cover=605.404724
					47:leaf=0.00171402842,cover=125.955696
					48:leaf=0.0147194508,cover=479.449005
				24:[f3<18.2449989] yes=49,no=50,missing=49,gain=7.34270668,cover=1737.34656
					49:leaf=-0.011291394,cover=1360.61963
					50:leaf=0.00171402842,cover=376.726929
			12:[f15<28424] yes=25,no=26,missing=25,gain=20.9378395,cover=1285.49829
				25:[f4<376.38501] yes=51,no=52,missing=51,gain=8.39515686,cover=227.095963
					51:leaf=0.070726946,cover=194.794403
					52:leaf=0.164544508,cover=32.3015671
				26:[f42<6.5] yes=53,no=54,missing=53,gain=12.6804829,cover=1058.40234
					53:leaf=0.0473102294,cover=515.93811
					54:leaf=0.0147194508,cover=542.464233
		6:[f0<14437.5] yes=13,no=14,missing=13,gain=153.308594,cover=19857
			13:[f25<18.2550011] yes=27,no=28,missing=27,gain=52.34021,cover=9849.37988
				27:[f3<17.8699989] yes=55,no=56,missing=55,gain=8.24554443,cover=5675.28564
					55:leaf=-0.0501816459,cover=4495.84814
					56:leaf=-0.0404240079,cover=1179.43762
				28:[f14<0.5] yes=57,no=58,missing=57,gain=12.2649231,cover=4174.09473
					57:leaf=-0.0404240079,cover=2284.573
					58:leaf=-0.0306663681,cover=1889.52161
			14:[f15<90230] yes=29,no=30,missing=29,gain=97.1971741,cover=10007.6191
				29:[f36<360] yes=59,no=60,missing=59,gain=8.93764114,cover=6806.0415
					59:leaf=-0.011291394,cover=6074.73193
					60:leaf=-0.020978881,cover=731.309692
				30:[f3<21.1450005] yes=61,no=62,missing=61,gain=5.94073486,cover=3201.57788
					61:leaf=-0.0306663681,cover=2651.85059
					62:leaf=-0.020978881,cover=549.727356
booster[13]
0:[f3<12.3199997] yes=1,no=2,missing=1,gain=367.161255,cover=29578.6934
	1:[f3<7.89499998] yes=3,no=4,missing=3,gain=91.5065918,cover=8280.74023
		3:[f15<57502] yes=7,no=8,missing=7,gain=20.15625,cover=1622.8269
			7:[f3<6.51499987] yes=15,no=16,missing=15,gain=3.71960449,cover=663.144043
				15:[f4<316.440002] yes=31,no=32,missing=31,gain=0.76758194,cover=178.32402
					31:leaf=-0.0944924355,cover=136.457932
					32:leaf=-0.0848944709,cover=41.8660927
				16:[f25<14.7749996] yes=33,no=34,missing=33,gain=0.546859741,cover=484.820007
					33:leaf=-0.0848944709,cover=229.738602
					34:leaf=-0.0752965137,cover=255.081406
			8:[f25<8.35499954] yes=17,no=18,missing=17,gain=10.3331909,cover=959.682861
				17:[f31<179] yes=35,no=36,missing=35,gain=1.93008423,cover=239.951874
					35:leaf=-0.165561914,cover=97.9713287
					36:leaf=-0.129321873,cover=141.980545
				18:[f3<6.43999958] yes=37,no=38,missing=37,gain=4.28109741,cover=719.730957
					37:leaf=-0.123946182,cover=185.728546
					38:leaf=-0.0949048847,cover=534.002441
		4:[f15<60998] yes=9,no=10,missing=9,gain=58.2581177,cover=6657.91357
			9:[f15<44467.5] yes=19,no=20,missing=19,gain=6.65335083,cover=3459.41577
				19:leaf=-0.0404685624,cover=1772.03442
				20:[f26<9.5] yes=41,no=42,missing=41,gain=6.17991638,cover=1687.38147
					41:leaf=-0.0549759679,cover=792.684631
					42:leaf=-0.0458351411,cover=894.696838
			10:[f25<20.9850006] yes=21,no=22,missing=21,gain=11.833252,cover=3198.49756
				21:[f35<408.5] yes=43,no=44,missing=43,gain=4.09857178,cover=2535.53394
					43:leaf=-0.0752965137,cover=2314.82837
					44:leaf=-0.0649996325,cover=220.705551
				22:[f28<45.5] yes=45,no=46,missing=45,gain=2.25999451,cover=662.963684
					45:leaf=-0.0549759679,cover=567.884766
					46:leaf=-0.0649996325,cover=95.0789108
	2:[f25<13.1849995] yes=5,no=6,missing=5,gain=123.718445,cover=21297.9531
		5:[f28<19.5] yes=11,no=12,missing=11,gain=27.038208,cover=6370.44824
			11:[f3<15.5749998] yes=23,no=24,missing=23,gain=6.73667145,cover=3288.67578
				23:[f15<38817] yes=47,no=48,missing=47,gain=2.02302551,cover=1435.14563
					47:leaf=-0.0288939904,cover=374.906219
					48:leaf=-0.0327521823,cover=1060.2395
				24:[f29<0.5] yes=49,no=50,missing=49,gain=1.95474625,cover=1853.53003
					49:leaf=-0.0288939904,cover=458.406128
					50:leaf=-0.0250357985,cover=1395.1239
			12:[f3<20.8250008] yes=25,no=26,missing=25,gain=2.18972778,cover=3081.77271
				25:[f15<31668] yes=51,no=52,missing=51,gain=0.667297363,cover=2698.427
					51:leaf=-0.0366103686,cover=91.896698
					52:leaf=-0.0404685624,cover=2606.53027
				26:[f14<0.5] yes=53,no=54,missing=53,gain=0.903312683,cover=383.345795
					53:leaf=-0.0366103686,cover=245.090805
					54:leaf=-0.0327521823,cover=138.25499
		6:[f14<0.5] yes=13,no=14,missing=13,gain=84.2976761,cover=14927.5059
			13:[f3<18.8450012] yes=27,no=28,missing=27,gain=25.5559387,cover=8350.05957
				27:[f15<49757.5] yes=55,no=56,missing=55,gain=8.8913269,cover=6097.29443
					55:leaf=-0.0171853565,cover=1782.55945
					56:leaf=-0.0250357985,cover=4314.73486
				28:[f41<0.5] yes=57,no=58,missing=57,gain=5.75717354,cover=2252.76514
					57:leaf=-0.00933491625,cover=1754.51868
					58:leaf=-0.0171853565,cover=498.246552
			14:[f3<19.4150009] yes=29,no=30,missing=29,gain=51.3678894,cover=6577.4458
				29:[f15<40000.5] yes=59,no=60,missing=59,gain=34.8337555,cover=5164.87402
					59:leaf=0.0139942812,cover=1788.14502
					60:leaf=-0.00933491625,cover=3376.72876
				30:[f3<23.3649998] yes=61,no=62,missing=61,gain=13.1025696,cover=1412.57214
					61:leaf=0.0222875047,cover=1030.5697
					62:leaf=0.0592144094,cover=382.002502
booster[14]
0:[f5<0.5] yes=1,no=2,missing=1,gain=214.941162,cover=28942.0488
	1:[f24<0.5] yes=3,no=4,missing=3,gain=165.05307,cover=26175.4766
		3:[f25<25.1049995] yes=7,no=8,missing=7,gain=156.182617,cover=25629.2051
			7:[f1<0.5] yes=15,no=16,missing=15,gain=96.7007446,cover=21013.9336
				15:[f29<0.5] yes=31,no=32,missing=31,gain=32.0896988,cover=6467.15967
					31:leaf=-0.0251869094,cover=2116.60547
					32:leaf=-0.0126895811,cover=4350.5542
				16:[f14<0.5] yes=33,no=34,missing=33,gain=68.5645752,cover=14546.7734
					33:leaf=-0.0467282794,cover=7329.08252
					34:leaf=-0.0257408209,cover=7217.69043
			8:[f14<0.5] yes=17,no=18,missing=17,gain=47.0581207,cover=4615.27246
				17:[f0<15737.5] yes=35,no=36,missing=35,gain=9.66007423,cover=2601.86865
					35:leaf=-0.0126895811,cover=1484.77429
					36:leaf=0.00348212989,cover=1117.09424
				18:[f42<8.5] yes=37,no=38,missing=37,gain=9.01591492,cover=2013.40369
					37:leaf=0.0234943256,cover=1294.11133
					38:leaf=0.00648595672,cover=719.292297
		4:[f0<6387.5] yes=9,no=10,missing=9,gain=14.568718,cover=546.271973
			9:[f36<56] yes=19,no=20,missing=19,gain=3.13747787,cover=96.3784409
				19:leaf=0.0536917672,cover=11.1479616
				20:[f1<0.5] yes=41,no=42,missing=41,gain=1.26702785,cover=85.2304764
					41:leaf=0.0385930464,cover=6.19161272
					42:leaf=0.0234943256,cover=79.0388641
			10:[f28<24.5] yes=21,no=22,missing=21,gain=9.7895813,cover=449.893524
				21:[f25<6.63500023] yes=43,no=44,missing=43,gain=11.0963745,cover=268.68631
					43:leaf=0.07912568,cover=68.7176514
					44:leaf=0.129123345,cover=199.968658
				22:[f26<19.5] yes=45,no=46,missing=45,gain=2.81721115,cover=181.207199
					45:leaf=0.0536917672,cover=159.817764
					46:leaf=0.07912568,cover=21.3894253
	2:[f25<16.5349998] yes=5,no=6,missing=5,gain=22.9776917,cover=2766.57178
		5:[f12<0.5] yes=11,no=12,missing=11,gain=8.57867432,cover=1651.84058
			11:[f19<0.5] yes=23,no=24,missing=23,gain=2.33520508,cover=721.491516
				23:[f32<409.5] yes=47,no=48,missing=47,gain=0.914825439,cover=550.553528
					47:leaf=-0.068571195,cover=490.734741
					48:leaf=-0.0756900087,cover=59.8187675
				24:[f4<309.025024] yes=49,no=50,missing=49,gain=0.494636536,cover=170.938034
					49:leaf=-0.0828088298,cover=86.1758652
					50:leaf=-0.0756900087,cover=84.7621689
			12:[f25<7.80500031] yes=25,no=26,missing=25,gain=6.85263062,cover=930.348999
				25:[f31<227.5] yes=51,no=52,missing=51,gain=3.49984741,cover=287.488556
					51:leaf=-0.135650173,cover=158.329529
					52:leaf=-0.101397477,cover=129.159027
				26:[f28<35.5] yes=53,no=54,missing=53,gain=2.49919128,cover=642.860413
					53:leaf=-0.0828088298,cover=506.02832
					54:leaf=-0.101397477,cover=136.832108
		6:[f37<84.5] yes=13,no=14,missing=13,gain=5.88002777,cover=1114.73132
			13:[f25<28.0299988] yes=27,no=28,missing=27,gain=2.07073593,cover=352.172455
				27:leaf=-0.068571195,cover=311.953308
				28:leaf=-0.0576497354,cover=40.2191391
			14:[f28<37.5] yes=29,no=30,missing=29,gain=1.93922043,cover=762.558899
				29:leaf=-0.0467282794,cover=604.548523
				30:leaf=-0.0576497354,cover=158.010376
booster[15]
0:[f5<0.5] yes=1,no=2,missing=1,gain=155.754822,cover=28462.7715
	1:[f6<0.5] yes=3,no=4,missing=3,gain=107.545441,cover=25846.6133
		3:[f14<0.5] yes=7,no=8,missing=7,gain=71.1063309,cover=18721.3711
			7:[f41<0.5] yes=15,no=16,missing=15,gain=35.5104675,cover=10228.3018
				15:[f4<356.640015] yes=29,no=30,missing=29,gain=17.6416473,cover=7799.74854
					29:leaf=-0.017712472,cover=2871.79663
					30:leaf=-0.0104003353,cover=4927.95166
				16:[f24<0.5] yes=31,no=32,missing=31,gain=0.973388672,cover=2428.55298
					31:leaf=-0.0236661993,cover=2368.18066
					32:leaf=-0.017712472,cover=60.3724213
			8:[f25<27.3549995] yes=17,no=18,missing=17,gain=48.1614761,cover=8493.07031
				17:[f42<7.5] yes=33,no=34,missing=33,gain=17.2562714,cover=7382.94434
					33:leaf=0.00252729864,cover=4361.05615
					34:leaf=-0.0104003353,cover=3021.88818
				18:[f28<22.5] yes=35,no=36,missing=35,gain=9.39447021,cover=1110.1261
					35:leaf=0.0507215522,cover=492.15332
					36:leaf=0.01915925,cover=617.972717
		4:[f25<18.2550011] yes=9,no=10,missing=9,gain=22.8249817,cover=7125.2417
			9:[f24<0.5] yes=19,no=20,missing=19,gain=4.93981934,cover=4154.62695
				19:[f35<306.5] yes=37,no=38,missing=37,gain=1.35998535,cover=4084.53906
					37:leaf=-0.0399486572,cover=3126.3999
					38:leaf=-0.0359063596,cover=958.13916
				20:leaf=-0.031864062,cover=70.0878067
			10:[f14<0.5] yes=21,no=22,missing=21,gain=8.07539749,cover=2970.61499
				21:[f35<416.5] yes=41,no=42,missing=41,gain=1.36616516,cover=1695.72583
					41:leaf=-0.031864062,cover=1553.39771
					42:leaf=-0.0277651306,cover=142.328171
				22:[f34<6.5] yes=43,no=44,missing=43,gain=0.756414413,cover=1274.88904
					43:leaf=-0.0277651306,cover=48.5990067
					44:leaf=-0.0236661993,cover=1226.29004
	2:[f25<23.2049999] yes=5,no=6,missing=5,gain=17.3111267,cover=2616.15771
		5:[f12<0.5] yes=11,no=12,missing=11,gain=9.76947021,cover=2235.43823
			11:[f19<0.5] yes=23,no=24,missing=23,gain=2.95057678,cover=990.5401
				23:[f28<18.5] yes=45,no=46,missing=45,gain=0.834739685,cover=745.535889
					45:leaf=-0.0539215021,cover=334.253204
					46:leaf=-0.0602438785,cover=411.282715
				24:[f37<364.5] yes=47,no=48,missing=47,gain=0.676776886,cover=245.004166
					47:leaf=-0.0665662512,cover=192.470367
					48:leaf=-0.0602438785,cover=52.533802
			12:[f25<7.19499969] yes=25,no=26,missing=25,gain=6.94140625,cover=1244.89819
				25:[f4<311.494995] yes=49,no=50,missing=49,gain=3.31135559,cover=229.892395
					49:leaf=-0.126119182,cover=116.468597
					50:leaf=-0.088369444,cover=113.42379
				26:[f35<319.5] yes=51,no=52,missing=51,gain=3.22848511,cover=1015.00574
					51:leaf=-0.0792892426,cover=774.64917
					52:leaf=-0.0665662512,cover=240.356598
		6:[f37<8.5] yes=13,no=14,missing=13,gain=1.17951488,cover=380.719604
			13:leaf=-0.0539215021,cover=10.26756
			14:[f26<6.5] yes=27,no=28,missing=27,gain=0.520122409,cover=370.452026
				27:leaf=-0.0469350778,cover=25.1005955
				28:leaf=-0.0399486572,cover=345.35144
booster[16]
0:[f3<15.7849998] yes=1,no=2,missing=1,gain=203.120819,cover=28090.3965
	1:[f15<70133.5] yes=3,no=4,missing=3,gain=151.159485,cover=16479.709
		3:[f15<40932.1992] yes=7,no=8,missing=7,gain=35.6483459,cover=10718.8184
			7:[f3<7.56500006] yes=15,no=16,missing=15,gain=2.78189278,cover=3850.2439
				15:leaf=-0.0233919453,cover=187.331787
				16:[f0<3612.5] yes=33,no=34,missing=33,gain=1.36417389,cover=3662.91211
					33:leaf=-0.0202079061,cover=519.952515
					34:leaf=-0.017023867,cover=3142.95972
			8:[f0<14137.5] yes=17,no=18,missing=17,gain=40.6865082,cover=6868.57422
				17:[f25<26.7750015] yes=35,no=36,missing=35,gain=5.47070312,cover=4712.46631
					35:leaf=-0.0368658602,cover=4187.62598
					36:leaf=-0.0301289037,cover=524.840271
				18:[f32<430.5] yes=37,no=38,missing=37,gain=2.29256058,cover=2156.10815
					37:leaf=-0.0233919453,cover=2061.28223
					38:leaf=-0.0301289037,cover=94.8259125
		4:[f3<7.63999987] yes=9,no=10,missing=9,gain=40.6329346,cover=5760.89111
			9:[f25<7.49499989] yes=19,no=20,missing=19,gain=6.2664032,cover=473.800598
				19:[f31<181.5] yes=39,no=40,missing=39,gain=0.422370911,cover=100.548325
					39:leaf=-0.159574553,cover=41.5540123
					40:leaf=-0.123906337,cover=58.9943123
				20:[f3<6.91499996] yes=41,no=42,missing=41,gain=3.5660553,cover=373.252289
					41:leaf=-0.105991267,cover=213.982697
					42:leaf=-0.0756958872,cover=159.269592
			10:[f25<13.2849998] yes=21,no=22,missing=21,gain=23.1468811,cover=5287.09033
				21:[f42<4.5] yes=43,no=44,missing=43,gain=10.4693909,cover=2243.67285
					43:leaf=-0.0513829701,cover=755.501709
					44:leaf=-0.0714323968,cover=1488.17114
				22:[f42<7.5] yes=45,no=46,missing=45,gain=8.42402649,cover=3043.41772
					45:leaf=-0.0368658602,cover=1799.69055
					46:leaf=-0.0513829701,cover=1243.72705
	2:[f15<81721.5] yes=5,no=6,missing=5,gain=50.540966,cover=11610.6875
		5:[f0<16062.5] yes=11,no=12,missing=11,gain=31.4669781,cover=8569.23633
			11:[f15<40003.1016] yes=23,no=24,missing=23,gain=28.9472828,cover=5707.58447
				23:[f25<9.90999985] yes=47,no=48,missing=47,gain=4.28989887,cover=2288.9458
					47:leaf=0.000943044783,cover=332.135712
					48:leaf=0.00814227667,cover=1956.81018
				24:[f25<24.1949997] yes=49,no=50,missing=49,gain=1.99033165,cover=3418.63892
					49:leaf=-0.00625618733,cover=2634.42603
					50:leaf=0.000943044783,cover=784.21283
			12:[f3<21.2750015] yes=25,no=26,missing=25,gain=12.5283661,cover=2861.65186
				25:[f15<59606.5] yes=51,no=52,missing=51,gain=11.0259447,cover=2039.09521
					51:leaf=0.0243595317,cover=913.470337
					52:leaf=0.00814227667,cover=1125.62488
				26:[f0<23562.5] yes=53,no=54,missing=53,gain=6.52829361,cover=822.556519
					53:leaf=0.0244846456,cover=498.127686
					54:leaf=0.0555896126,cover=324.428864
		6:[f3<22.1300011] yes=13,no=14,missing=13,gain=9.48722839,cover=3041.45068
			13:[f35<420.5] yes=27,no=28,missing=27,gain=1.33459473,cover=2459.48975
				27:[f34<358.5] yes=55,no=56,missing=55,gain=0.451057434,cover=2334.54883
					55:leaf=-0.017023867,cover=2244.3208
					56:leaf=-0.0143319471,cover=90.2278976
				28:leaf=-0.0116400272,cover=124.940948
			14:[f36<360] yes=29,no=30,missing=29,gain=1.11011147,cover=581.96106
				29:leaf=-0.00625618733,cover=528.01825
				30:leaf=-0.0116400272,cover=53.9427872
booster[17]
0:[f24<0.5] yes=1,no=2,missing=1,gain=129.04425,cover=27667.5527
	1:[f25<10.8050003] yes=3,no=4,missing=3,gain=129.705902,cover=27073.1426
		3:[f3<7.88500023] yes=7,no=8,missing=7,gain=42.2698364,cover=5832.48633
			7:[f42<2.5] yes=15,no=16,missing=15,gain=2.52322388,cover=395.314178
				15:[f3<6.51499987] yes=31,no=32,missing=31,gain=0.884572983,cover=56.6213036
					31:leaf=-0.0825792924,cover=18.2322311
					32:leaf=-0.0652830079,cover=38.3890724
				16:[f25<7.06500006] yes=33,no=34,missing=33,gain=2.61930084,cover=338.692871
					33:leaf=-0.114941508,cover=174.985443
					34:leaf=-0.0831716284,cover=163.707428
			8:[f12<0.5] yes=17,no=18,missing=17,gain=21.9391479,cover=5437.17188
				17:[f4<266.075012] yes=35,no=36,missing=35,gain=9.94444275,cover=3038.49097
					35:leaf=-0.0377423391,cover=1240.12317
					36:leaf=-0.0260566846,cover=1798.3678
				18:[f41<0.5] yes=37,no=38,missing=37,gain=21.087738,cover=2398.68115
					37:leaf=-0.0378578492,cover=1700.86609
					38:leaf=-0.0652830079,cover=697.815063
		4:[f3<14.1000004] yes=9,no=10,missing=9,gain=93.8045273,cover=21240.6562
			9:[f25<24.5050011] yes=19,no=20,missing=19,gain=23.7867432,cover=8662.13672
				19:[f1<0.5] yes=39,no=40,missing=39,gain=5.52912903,cover=6858.51758
					39:leaf=-0.0199516453,cover=769.828613
					40:leaf=-0.0260566846,cover=6088.68896
				20:[f28<44.5] yes=41,no=42,missing=41,gain=2.73995924,cover=1803.6189
					41:leaf=-0.013846606,cover=1627.29944
					42:leaf=-0.0199516453,cover=176.319489
			10:[f28<27.5] yes=21,no=22,missing=21,gain=54.9820633,cover=12578.5195
				21:[f3<20.9949989] yes=43,no=44,missing=43,gain=24.5626373,cover=7610.76562
					43:leaf=0.00235350733,cover=6362.08984
					44:leaf=0.0221647974,cover=1248.67603
				22:[f25<26.5149994] yes=45,no=46,missing=45,gain=10.4524002,cover=4967.75342
					45:leaf=-0.013846606,cover=3752.52661
					46:leaf=-0.00349753094,cover=1215.22681
	2:[f0<4637.5] yes=5,no=6,missing=5,gain=11.4494247,cover=594.411133
		5:[f3<21.7900009] yes=11,no=12,missing=11,gain=0.988147497,cover=57.720726
			11:leaf=0.0221647974,cover=50.875061
			12:leaf=0.0466381647,cover=6.84566784
		6:[f26<20.5] yes=13,no=14,missing=13,gain=5.56016541,cover=536.690369
			13:[f28<25.5] yes=27,no=28,missing=27,gain=5.81036377,cover=518.533203
				27:[f25<6.13500023] yes=51,no=52,missing=51,gain=5.82312775,cover=347.770111
					51:leaf=0.0635503754,cover=83.7977753
					52:leaf=0.0956247225,cover=263.972351
				28:[f36<181] yes=53,no=54,missing=53,gain=2.05735397,cover=170.763092
					53:leaf=0.0635503754,cover=81.2723999
					54:leaf=0.0466381647,cover=89.4906921
			14:[f4<725.679993] yes=29,no=30,missing=29,gain=2.88887215,cover=18.1571789
				29:[f42<2.5] yes=55,no=56,missing=55,gain=0.909751654,cover=11.4465275
					55:leaf=0.182420462,cover=3.09004927
					56:leaf=0.115032062,cover=8.35647869
				30:[f35<315.5] yes=57,no=58,missing=57,gain=1.51087189,cover=6.7106514
					57:leaf=0.182420462,cover=4.26839352
					58:leaf=0.362871975,cover=2.44225764
booster[18]
0:[f15<60009] yes=1,no=2,missing=1,gain=137.428513,cover=27406.9512
	1:[f0<14587.5] yes=3,no=4,missing=3,gain=75.1984634,cover=14631.4639
		3:[f15<36687] yes=7,no=8,missing=7,gain=84.4900055,cover=11081.5459
			7:[f4<164.975006] yes=15,no=16,missing=15,gain=10.5029812,cover=4288.49658
				15:[f15<19488.8008] yes=31,no=32,missing=31,gain=3.29925299,cover=1228.70691
					31:leaf=-0.000246070063,cover=262.261871
					32:leaf=-0.00509876339,cover=966.445068
				16:[f3<9.32499981] yes=33,no=34,missing=33,gain=1.34917641,cover=3059.78979
					33:leaf=-0.000246070063,cover=209.001266
					34:leaf=0.0046066232,cover=2850.78833
			8:[f25<26.7550011] yes=17,no=18,missing=17,gain=6.44816589,cover=6793.04883
				17:[f24<0.5] yes=35,no=36,missing=35,gain=2.65510559,cover=5844.86084
					35:leaf=-0.01480415,cover=5737.62646
					36:leaf=-0.00995145738,cover=107.234032
				18:[f16<0.5] yes=37,no=38,missing=37,gain=1.56818724,cover=948.188232
					37:leaf=-0.00509876339,cover=707.878296
					38:leaf=-0.00995145738,cover=240.309891
		4:[f37<454.5] yes=9,no=10,missing=9,gain=15.9651413,cover=3549.91797
			9:[f15<50186] yes=19,no=20,missing=19,gain=15.5815125,cover=3454.71729
				19:[f36<171.5] yes=39,no=40,missing=39,gain=9.74629593,cover=1816.92969
					39:leaf=0.0410864018,cover=849.491455
					40:leaf=0.0163330622,cover=967.438293
				20:[f0<23037.5] yes=41,no=42,missing=41,gain=4.44207382,cover=1637.7876
					41:leaf=0.0046066232,cover=1265.53418
					42:leaf=0.0163330622,cover=372.253418
			10:[f4<505.52002] yes=21,no=22,missing=21,gain=11.3489132,cover=95.2007523
				21:[f0<19350] yes=43,no=44,missing=43,gain=0.458193779,cover=35.044693
					43:leaf=0.0521037951,cover=29.9679241
					44:leaf=0.0950273499,cover=5.07676983
				22:[f26<11.5] yes=45,no=46,missing=45,gain=3.84395981,cover=60.1560555
					45:leaf=0.0952213332,cover=33.8462791
					46:leaf=0.187420979,cover=26.3097763
	2:[f3<10.375] yes=5,no=6,missing=5,gain=81.7697754,cover=12775.4863
		5:[f3<7.5] yes=11,no=12,missing=11,gain=16.2279663,cover=1838.53748
			11:[f4<554.309998] yes=23,no=24,missing=23,gain=5.53734589,cover=400.733734
				23:[f25<15.8850002] yes=47,no=48,missing=47,gain=4.02767944,cover=299.861664
					47:leaf=-0.119055361,cover=200.316223
					48:leaf=-0.0872495547,cover=99.5454407
				24:leaf=-0.0710157678,cover=100.872055
			12:[f25<12.6049995] yes=25,no=26,missing=25,gain=7.39233398,cover=1437.80371
				25:[f15<100658.195] yes=51,no=52,missing=51,gain=4.7377243,cover=580.846924
					51:leaf=-0.0539529659,cover=348.269836
					52:leaf=-0.0710157678,cover=232.577057
				26:[f42<7.5] yes=53,no=54,missing=53,gain=1.76945496,cover=856.956848
					53:leaf=-0.040701244,cover=509.478455
					54:leaf=-0.05308301,cover=347.478394
		6:[f41<0.5] yes=13,no=14,missing=13,gain=39.086731,cover=10936.9492
			13:[f4<293.744995] yes=27,no=28,missing=27,gain=21.8899879,cover=7660.05957
				27:[f1<0.5] yes=55,no=56,missing=55,gain=0.404289246,cover=1407.56226
					55:leaf=-0.0203183927,cover=285.501434
					56:leaf=-0.0258326363,cover=1122.06079
				28:[f15<110002] yes=57,no=58,missing=57,gain=8.73326874,cover=6252.49707
					57:leaf=-0.01480415,cover=4801.32227
					58:leaf=-0.0203183927,cover=1451.17493
			14:[f14<0.5] yes=29,no=30,missing=29,gain=29.5821381,cover=3276.88989
				29:[f4<898.76001] yes=59,no=60,missing=59,gain=2.57299805,cover=1838.73743
					59:leaf=-0.040701244,cover=1592.06189
					60:leaf=-0.0332669392,cover=246.675552
				30:[f33<392.5] yes=61,no=62,missing=61,gain=1.80452514,cover=1438.15247
					61:leaf=-0.0258326363,cover=1320.83777
					62:leaf=-0.0332669392,cover=117.314674
booster[19]
0:[f15<32662.5] yes=1,no=2,missing=1,gain=108.304482,cover=27142.1973
	1:[f4<273.089996] yes=3,no=4,missing=3,gain=39.8248215,cover=2981.11743
		3:[f15<22882] yes=7,no=8,missing=7,gain=16.6561241,cover=2015.83801
			7:[f32<332.5] yes=15,no=16,missing=15,gain=2.76073456,cover=661.635254
				15:[f3<7.38500023] yes=31,no=32,missing=31,gain=0.432619095,cover=429.636566
					31:leaf=0.0205518324,cover=12.1841116
					32:leaf=0.0266999267,cover=417.452454
				16:[f0<6037.5] yes=33,no=34,missing=33,gain=1.16810608,cover=231.998688
					33:leaf=0.0144037362,cover=198.321075
					34:leaf=0.0205518324,cover=33.6776123
			8:[f1<0.5] yes=17,no=18,missing=17,gain=5.44438791,cover=1354.20276
				17:leaf=0.0144037362,cover=124.063873
				18:[f3<18.2449989] yes=37,no=38,missing=37,gain=0.754620671,cover=1230.13892
					37:leaf=0.00210754364,cover=1032.38794
					38:leaf=0.00825563911,cover=197.750992
		4:[f15<28286] yes=9,no=10,missing=9,gain=11.741127,cover=965.279419
			9:[f31<458.5] yes=19,no=20,missing=19,gain=9.74385834,cover=392.222931
				19:[f36<123.5] yes=39,no=40,missing=39,gain=5.43720245,cover=389.898773
					39:leaf=0.0998026431,cover=110.644775
					40:leaf=0.0547310486,cover=279.253998
				20:leaf=0.363027483,cover=2.32415867
			10:[f34<254.5] yes=21,no=22,missing=21,gain=4.17793846,cover=573.056458
				21:[f0<10162.5] yes=41,no=42,missing=41,gain=1.20170498,cover=393.980743
					41:leaf=0.0266999267,cover=216.117889
					42:leaf=0.0389770381,cover=177.862854
				22:[f14<0.5] yes=43,no=44,missing=43,gain=1.17841148,cover=179.075699
					43:leaf=0.0389770381,cover=77.1118088
					44:leaf=0.0512541495,cover=101.963898
	2:[f1<0.5] yes=5,no=6,missing=5,gain=98.341568,cover=24161.0801
		5:[f30<0.5] yes=11,no=12,missing=11,gain=40.0663567,cover=7765.84277
			11:[f15<98815.5] yes=23,no=24,missing=23,gain=6.21491718,cover=5101.13965
				23:[f32<408] yes=45,no=46,missing=45,gain=1.06458282,cover=4078.2854
					45:leaf=0.00210754364,cover=3477.63062
					46:leaf=-0.00115292799,cover=600.654724
				24:[f14<0.5] yes=47,no=48,missing=47,gain=0.995060444,cover=1022.85425
					47:leaf=-0.00441339985,cover=793.410645
					48:leaf=-0.00115292799,cover=229.443665
			12:[f14<0.5] yes=25,no=26,missing=25,gain=4.36353302,cover=2664.70288
				25:[f34<347] yes=49,no=50,missing=49,gain=0.746353149,cover=1793.44177
					49:leaf=-0.0109343436,cover=1738.37341
					50:leaf=-0.0076738717,cover=55.0684204
				26:[f32<427] yes=51,no=52,missing=51,gain=1.18348026,cover=871.261108
					51:leaf=-0.00441339985,cover=811.494019
					52:leaf=-0.0076738717,cover=59.7671242
		6:[f3<7.5] yes=13,no=14,missing=13,gain=58.7236328,cover=16395.2383
			13:[f0<18712.5] yes=27,no=28,missing=27,gain=6.33128357,cover=658.091187
				27:[f15<57293] yes=53,no=54,missing=53,gain=6.07759094,cover=549.533813
					53:leaf=-0.0633208379,cover=241.978622
					54:leaf=-0.0963929072,cover=307.555176
				28:[f15<172300] yes=55,no=56,missing=55,gain=0.872282982,cover=108.557381
					55:leaf=-0.0464174524,cover=97.4960098
					56:leaf=-0.0633208379,cover=11.0613699
			14:[f4<248.910004] yes=29,no=30,missing=29,gain=40.0984192,cover=15737.1465
				29:[f4<86.6100006] yes=57,no=58,missing=57,gain=11.0501862,cover=4236.25732
					57:leaf=-0.0464174524,cover=505.456238
					58:leaf=-0.030796919,cover=3730.80103
				30:[f15<71002] yes=59,no=60,missing=59,gain=42.2883682,cover=11500.8896
					59:leaf=-0.0109343436,cover=6956.41455
					60:leaf=-0.024947457,cover=4544.4751
booster[20]
0:[f24<0.5] yes=1,no=2,missing=1,gain=85.1654816,cover=26902.8262
	1:[f25<8.99499989] yes=3,no=4,missing=3,gain=84.9385681,cover=26303.75
		3:[f12<0.5] yes=7,no=8,missing=7,gain=28.7682648,cover=3918.00024
			7:[f3<15.5749998] yes=15,no=16,missing=15,gain=5.4805603,cover=2214.03174
				15:[f15<61180] yes=29,no=30,missing=29,gain=4.81918335,cover=1342.63916
					29:leaf=-0.0262111723,cover=805.203613
					30:leaf=-0.0362368859,cover=537.435608
				16:[f22<0.5] yes=31,no=32,missing=31,gain=0.657477379,cover=871.392639
					31:leaf=-0.0207444765,cover=832.526245
					32:leaf=-0.0262111723,cover=38.8663635
			8:[f32<403.5] yes=17,no=18,missing=17,gain=15.9951782,cover=1703.96851
				17:[f3<10.1549997] yes=33,no=34,missing=33,gain=9.58079529,cover=1413.24548
					33:leaf=-0.0653738603,cover=278.206787
					34:leaf=-0.0362489372,cover=1135.0387
				18:[f15<120500] yes=35,no=36,missing=35,gain=6.3438797,cover=290.722931
					35:leaf=-0.0740669742,cover=231.899048
					36:leaf=-0.137495562,cover=58.8238869
		4:[f15<42447] yes=9,no=10,missing=9,gain=70.3086395,cover=22385.75
			9:[f0<8712.5] yes=19,no=20,missing=19,gain=28.6543427,cover=5831.29688
				19:[f15<25035.5] yes=37,no=38,missing=37,gain=12.8189306,cover=3091.13184
					37:leaf=0.00963766407,cover=900.932739
					38:leaf=-0.00195233326,cover=2190.19922
				20:[f42<8.5] yes=39,no=40,missing=39,gain=6.84652328,cover=2740.16479
					39:leaf=0.0212276615,cover=1822.17114
					40:leaf=0.00963766407,cover=917.993713
			10:[f0<15062.5] yes=21,no=22,missing=21,gain=67.496315,cover=16554.4531
				21:[f25<24.4350014] yes=41,no=42,missing=41,gain=14.3958893,cover=8636.44141
					41:leaf=-0.0207444765,cover=6927.39062
					42:leaf=-0.0113484049,cover=1709.05127
				22:[f15<90230] yes=43,no=44,missing=43,gain=26.1521893,cover=7918.01074
					43:leaf=-0.00195233326,cover=5355.10889
					44:leaf=-0.0113484049,cover=2562.9021
	2:[f15<110100] yes=5,no=6,missing=5,gain=12.9622269,cover=599.076721
		5:[f0<8375] yes=11,no=12,missing=11,gain=11.3293839,cover=491.816071
			11:[f1<0.5] yes=23,no=24,missing=23,gain=1.73784661,cover=148.611298
				23:leaf=0.0643985048,cover=11.3307562
				24:[f31<428.5] yes=47,no=48,missing=47,gain=0.724268436,cover=137.280548
					47:leaf=0.04383488,cover=130.292923
					48:leaf=0.0541166961,cover=6.98761606
			12:[f15<28450] yes=25,no=26,missing=25,gain=6.81944275,cover=343.204773
				25:[f35<158.5] yes=49,no=50,missing=49,gain=3.67921638,cover=8.79472446
					49:leaf=0.153914943,cover=4.3207221
					50:leaf=0.336784095,cover=4.47400188
				26:[f0<24762.5] yes=51,no=52,missing=51,gain=7.06932831,cover=334.410065
					51:leaf=0.0679186955,cover=269.32019
					52:leaf=0.131010473,cover=65.0898666
		6:[f35<417] yes=13,no=14,missing=13,gain=1.57170987,cover=107.260681
			13:[f31<381] yes=27,no=28,missing=27,gain=0.598193169,cover=100.241783
				27:leaf=0.0212276615,cover=82.3095245
				28:leaf=0.0325312726,cover=17.9322586
			14:leaf=0.04383488,cover=7.01889563
booster[21]
0:[f15<90224] yes=1,no=2,missing=1,gain=74.9359055,cover=26723.0117
	1:[f0<15037.5] yes=3,no=4,missing=3,gain=64.5252838,cover=21745.043
		3:[f15<40003.1016] yes=7,no=8,missing=7,gain=58.2591934,cover=15272.2969
			7:[f0<6037.5] yes=15,no=16,missing=15,gain=10.2510958,cover=5790.65332
				15:[f15<21359.4004] yes=31,no=32,missing=31,gain=3.59473705,cover=2302.45508
					31:leaf=-0.00398989487,cover=488.357819
					32:leaf=-0.0079102926,cover=1814.09717
				16:[f37<4] yes=33,no=34,missing=33,gain=0.730272353,cover=3488.19824
					33:leaf=-0.00398989487,cover=55.5704803
					34:leaf=-6.94964183e-05,cover=3432.62793
			8:[f25<21.4249992] yes=17,no=18,missing=17,gain=12.4798965,cover=9481.64355
				17:[f24<0.5] yes=35,no=36,missing=35,gain=2.08056641,cover=6666.82617
					35:leaf=-0.0157510899,cover=6516.52246
					36:leaf=-0.0118306912,cover=150.303848
				18:[f16<0.5] yes=37,no=38,missing=37,gain=2.10600114,cover=2814.81689
					37:leaf=-0.0079102926,cover=1865.22351
					38:leaf=-0.0118306912,cover=949.593384
		4:[f24<0.5] yes=9,no=10,missing=9,gain=22.7510071,cover=6472.74609
			9:[f32<331.5] yes=19,no=20,missing=19,gain=18.325264,cover=6331.28418
				19:[f31<372] yes=39,no=40,missing=39,gain=17.959137,cover=4165.39453
					39:leaf=0.0110184792,cover=3603.52344
					40:leaf=0.0429591462,cover=561.871033
				20:[f15<50253.0391] yes=41,no=42,missing=41,gain=3.48666692,cover=2165.88965
					41:leaf=0.00768592022,cover=475.870697
					42:leaf=-6.94964183e-05,cover=1690.01892
			10:[f0<20750] yes=21,no=22,missing=21,gain=5.7414875,cover=141.46199
				21:[f33<76.5] yes=43,no=44,missing=43,gain=1.62132502,cover=68.7285538
					43:leaf=0.0767563209,cover=6.18759775
					44:leaf=0.0429591462,cover=62.5409584
				22:[f28<11.5] yes=45,no=46,missing=45,gain=6.25641441,cover=72.733429
					45:leaf=0.258211225,cover=6.7896843
					46:leaf=0.0917203575,cover=65.9437408
	2:[f28<25.5] yes=5,no=6,missing=5,gain=20.935257,cover=4977.96875
		5:[f5<0.5] yes=11,no=12,missing=11,gain=5.05322933,cover=1914.76123
			11:[f6<0.5] yes=23,no=24,missing=23,gain=1.64371419,cover=1731.1803
				23:leaf=-0.0157510899,cover=1296.53809
				24:[f37<327] yes=49,no=50,missing=49,gain=0.821476936,cover=434.642242
					49:leaf=-0.020849742,cover=330.972382
					50:leaf=-0.0183004159,cover=103.669876
			12:leaf=-0.0259483941,cover=183.580872
		6:[f25<16.0950012] yes=13,no=14,missing=13,gain=18.0742798,cover=3063.20752
			13:[f0<14462.5] yes=27,no=28,missing=27,gain=12.4629517,cover=1538.85254
				27:[f25<1.89499998] yes=55,no=56,missing=55,gain=2.66759491,cover=468.244751
					55:leaf=-0.161140263,cover=9.25311375
					56:leaf=-0.0704020634,cover=458.991638
				28:[f42<8.5] yes=57,no=58,missing=57,gain=4.21695709,cover=1070.60779
					57:leaf=-0.0376489125,cover=721.956299
					58:leaf=-0.0558427721,cover=348.651428
			14:[f36<360] yes=29,no=30,missing=29,gain=4.13140678,cover=1524.35498
				29:[f4<250.309998] yes=59,no=60,missing=59,gain=0.981243134,cover=1370.00562
					59:leaf=-0.0317986496,cover=123.15007
					60:leaf=-0.0259483941,cover=1246.85559
				30:leaf=-0.0376489125,cover=154.349365
booster[22]
0:[f3<10.6300001] yes=1,no=2,missing=1,gain=79.1576843,cover=26591.293
	1:[f15<55271.5586] yes=3,no=4,missing=3,gain=24.0750809,cover=3508.79639
		3:[f3<7.5] yes=7,no=8,missing=7,gain=5.30507565,cover=1570.43713
			7:[f35<396.5] yes=15,no=16,missing=15,gain=0.924539566,cover=305.333893
				15:leaf=-0.0303730145,cover=267.039795
				16:leaf=-0.0237549637,cover=38.2940979
			8:[f34<7.5] yes=17,no=18,missing=17,gain=1.91536999,cover=1265.10327
				17:leaf=-0.0237549637,cover=119.927055
				18:[f4<217.494995] yes=37,no=38,missing=37,gain=0.450340748,cover=1145.17615
					37:leaf=-0.0204459373,cover=435.942627
					38:leaf=-0.0171369128,cover=709.233582
		4:[f3<7.42500019] yes=9,no=10,missing=9,gain=14.320488,cover=1938.35938
			9:[f4<551.359985] yes=19,no=20,missing=19,gain=6.51545715,cover=353.224945
				19:[f25<20.9249992] yes=39,no=40,missing=39,gain=2.65782928,cover=263.723541
					39:leaf=-0.0999875292,cover=221.834137
					40:leaf=-0.0730039328,cover=41.8893967
				20:leaf=-0.0556335524,cover=89.5014114
			10:[f30<0.5] yes=21,no=22,missing=21,gain=3.92532349,cover=1585.1344
				21:[f35<110.5] yes=43,no=44,missing=43,gain=1.56419754,cover=1098.41455
					43:leaf=-0.0401928984,cover=296.907166
					44:leaf=-0.0303730145,cover=801.507385
				22:[f25<16.6450005] yes=45,no=46,missing=45,gain=5.77686691,cover=486.719818
					45:leaf=-0.0556335524,cover=272.97226
					46:leaf=-0.0401928984,cover=213.747589
	2:[f15<70712] yes=5,no=6,missing=5,gain=48.057869,cover=23082.4961
		5:[f0<14587.5] yes=11,no=12,missing=11,gain=33.4988403,cover=15270.4199
			11:[f15<35879.3984] yes=23,no=24,missing=23,gain=31.394001,cover=10593.3369
				23:[f4<166.514999] yes=47,no=48,missing=47,gain=4.56120777,cover=3446.95825
					47:leaf=-0.000287218252,cover=965.066467
					48:leaf=0.00549229095,cover=2481.8916
				24:[f39<0.5] yes=49,no=50,missing=49,gain=4.86988068,cover=7146.37842
					49:leaf=-0.00606672745,cover=5697.15625
					50:leaf=-0.000287218252,cover=1449.22192
			12:[f15<51695.2422] yes=25,no=26,missing=25,gain=10.4876022,cover=4677.0835
				25:[f42<8.5] yes=51,no=52,missing=51,gain=7.3724823,cover=1817.93018
					51:leaf=0.0328056403,cover=1194.11804
					52:leaf=0.0159788877,cover=623.812073
				26:[f39<0.5] yes=53,no=54,missing=53,gain=8.6428566,cover=2859.15332
					53:leaf=0.00549229095,cover=2289.07568
					54:leaf=0.0159788877,cover=570.077576
		6:[f3<17.2750015] yes=13,no=14,missing=13,gain=29.3897667,cover=7812.07666
			13:[f42<2.5] yes=27,no=28,missing=27,gain=4.29880524,cover=4786.15576
				27:leaf=-0.0116018197,cover=814.571838
				28:[f25<25.0649986] yes=57,no=58,missing=57,gain=1.22825623,cover=3971.58374
					57:leaf=-0.0171369128,cover=3529.96851
					58:leaf=-0.0143693658,cover=441.615265
			14:[f30<0.5] yes=29,no=30,missing=29,gain=3.90188837,cover=3025.9209
				29:[f15<162500] yes=59,no=60,missing=59,gain=0.623443604,cover=2175.13501
					59:leaf=-0.00606672745,cover=1980.69629
					60:leaf=-0.00883427355,cover=194.438797
				30:[f4<947.594971] yes=61,no=62,missing=61,gain=1.06705379,cover=850.785889
					61:leaf=-0.0116018197,cover=728.190125
					62:leaf=-0.00883427355,cover=122.595734
booster[23]
0:[f32<449.5] yes=1,no=2,missing=1,gain=62.1599617,cover=26434.9336
	1:[f1<0.5] yes=3,no=4,missing=3,gain=54.9507523,cover=25870.873
		3:[f29<0.5] yes=7,no=8,missing=7,gain=37.7833061,cover=7753.95459
			7:[f14<0.5] yes=15,no=16,missing=15,gain=6.65587187,cover=2615.32227
				15:[f34<347] yes=31,no=32,missing=31,gain=1.1498127,cover=1755.51843
					31:leaf=-0.00130961614,cover=1696.84863
					32:leaf=0.00318861706,cover=58.6697693
				16:[f33<427] yes=33,no=34,missing=33,gain=0.519382954,cover=859.803772
					33:leaf=0.00768685061,cover=831.525452
					34:leaf=0.00318861706,cover=28.2783318
			8:[f35<414.5] yes=17,no=18,missing=17,gain=15.0885658,cover=5138.63281
				17:[f15<42008] yes=35,no=36,missing=35,gain=14.7210884,cover=4745.92139
					35:leaf=0.0313708596,cover=629.591614
					36:leaf=0.0101374369,cover=4116.32959
				18:[f4<579.420044] yes=37,no=38,missing=37,gain=4.95306778,cover=392.711212
					37:leaf=0.0359537713,cover=274.594025
					38:leaf=0.0778440014,cover=118.117195
		4:[f34<252.5] yes=9,no=10,missing=9,gain=56.0267448,cover=18116.918
			9:[f15<66154] yes=19,no=20,missing=19,gain=21.9505386,cover=11950.4307
				19:[f35<94.5] yes=39,no=40,missing=39,gain=10.5853043,cover=7971.82715
					39:leaf=-0.0196131058,cover=1268.16443
					40:leaf=-0.00916865841,cover=6703.6626
				20:[f42<7.5] yes=41,no=42,missing=41,gain=16.1498489,cover=3978.60376
					41:leaf=-0.0196131058,cover=2166.93433
					42:leaf=-0.0332815014,cover=1811.66943
			10:[f3<12.4549999] yes=21,no=22,missing=21,gain=7.77642393,cover=6166.48828
				21:[f14<0.5] yes=43,no=44,missing=43,gain=2.06510448,cover=1869.52234
					43:leaf=-0.00916865841,cover=1135.23523
					44:leaf=-0.00523913745,cover=734.287109
				22:[f4<128.354996] yes=45,no=46,missing=45,gain=3.15584564,cover=4296.96582
					45:leaf=-0.00523913745,cover=391.759644
					46:leaf=-0.00130961614,cover=3905.20605
	2:[f42<5.5] yes=5,no=6,missing=5,gain=14.7410431,cover=564.058899
		5:[f12<0.5] yes=11,no=12,missing=11,gain=3.08791924,cover=329.567963
			11:[f34<198.5] yes=23,no=24,missing=23,gain=1.77897453,cover=210.897339
				23:leaf=-0.0476881266,cover=20.9549465
				24:leaf=-0.0332815014,cover=189.942398
			12:[f29<0.5] yes=25,no=26,missing=25,gain=2.20718765,cover=118.670601
				25:leaf=-0.0664162263,cover=48.2879181
				26:leaf=-0.0476881266,cover=70.3826828
		6:[f35<132] yes=13,no=14,missing=13,gain=37.1606064,cover=234.490967
			13:[f42<7.5] yes=27,no=28,missing=27,gain=6.82527924,cover=127.298088
				27:[f17<0.5] yes=55,no=56,missing=55,gain=1.03239059,cover=64.2738113
					55:leaf=-0.150889337,cover=37.5259857
					56:leaf=-0.11608763,cover=26.7478237
				28:leaf=-0.206607953,cover=63.0242767
			14:[f15<98140] yes=29,no=30,missing=29,gain=0.439811707,cover=107.192886
				29:leaf=-0.0664162263,cover=91.815361
				30:[f3<17.8649998] yes=57,no=58,missing=57,gain=1.02929449,cover=15.3775263
					57:leaf=-0.11608763,cover=10.9203901
					58:leaf=-0.0826010406,cover=4.45713663
booster[24]
0:[f14<0.5] yes=1,no=2,missing=1,gain=46.7298431,cover=26282.1172
	1:[f41<0.5] yes=3,no=4,missing=3,gain=75.2106857,cover=14491.1016
		3:[f15<100058] yes=7,no=8,missing=7,gain=25.9237289,cover=11043.0498
			7:[f0<8687.5] yes=15,no=16,missing=15,gain=14.658968,cover=9190.83398
				15:[f2<0.5] yes=31,no=32,missing=31,gain=1.90208626,cover=2547.3606
					31:leaf=-0.0117086694,cover=2413.177
					32:leaf=-0.00801788457,cover=134.18364
				16:[f32<332] yes=33,no=34,missing=33,gain=2.02883434,cover=6643.47314
					33:leaf=-0.00432709977,cover=4979.14209
					34:leaf=-0.00801788457,cover=1664.33093
			8:[f28<25.5] yes=17,no=18,missing=17,gain=2.77509308,cover=1852.21631
				17:[f35<103.5] yes=35,no=36,missing=35,gain=1.03790247,cover=568.939026
					35:leaf=-0.0153994542,cover=177.014603
					36:leaf=-0.0117086694,cover=391.924438
				18:[f25<19.1150017] yes=37,no=38,missing=37,gain=0.821380615,cover=1283.27722
					37:leaf=-0.019090239,cover=846.81366
					38:leaf=-0.0153994542,cover=436.463623
		4:[f29<0.5] yes=9,no=10,missing=9,gain=30.9764404,cover=3448.05151
			9:[f25<20.2049999] yes=19,no=20,missing=19,gain=12.4221115,cover=1021.5899
				19:[f26<5.5] yes=39,no=40,missing=39,gain=7.49518585,cover=664.697876
					39:leaf=-0.13296932,cover=54.868763
					40:leaf=-0.0670330301,cover=609.829163
				20:[f36<360] yes=41,no=42,missing=41,gain=2.997262,cover=356.891998
					41:leaf=-0.0406787992,cover=284.577026
					42:leaf=-0.0566731133,cover=72.3149719
			10:[f32<408] yes=21,no=22,missing=21,gain=15.3135452,cover=2426.46167
				21:[f33<412.5] yes=43,no=44,missing=43,gain=1.92810535,cover=1538.55493
					43:leaf=-0.019090239,cover=1492.61768
					44:leaf=-0.0298845172,cover=45.9372597
				22:[f25<22.4650002] yes=45,no=46,missing=45,gain=4.22024536,cover=887.906738
					45:leaf=-0.0406787992,cover=694.443115
					46:leaf=-0.0298845172,cover=193.463608
	2:[f25<24.6650009] yes=5,no=6,missing=5,gain=32.5655632,cover=11791.0146
		5:[f0<19412.5] yes=11,no=12,missing=11,gain=25.502018,cover=9523.95703
			11:[f15<31830] yes=23,no=24,missing=23,gain=13.1668205,cover=7913.8623
				23:[f34<1.5] yes=47,no=48,missing=47,gain=0.863266468,cover=1360.97717
					47:leaf=-0.000776741537,cover=135.251801
					48:leaf=0.0027736167,cover=1225.72534
				24:[f35<419.5] yes=49,no=50,missing=49,gain=3.12614822,cover=6552.88525
					49:leaf=-0.00432709977,cover=6102.42285
					50:leaf=-0.000776741537,cover=450.462311
			12:[f32<427.5] yes=25,no=26,missing=25,gain=2.29004669,cover=1610.0946
				25:leaf=0.00987433363,cover=1519.80188
				26:leaf=0.0027736167,cover=90.2927094
		6:[f34<253] yes=13,no=14,missing=13,gain=14.0639687,cover=2267.05811
			13:[f0<10112.5] yes=27,no=28,missing=27,gain=4.92301655,cover=1332.93347
				27:[f33<86.5] yes=55,no=56,missing=55,gain=0.622875452,cover=631.6875
					55:leaf=0.0167421009,cover=111.03875
					56:leaf=0.00987433363,cover=520.648804
				28:[f35<118.5] yes=57,no=58,missing=57,gain=2.07013893,cover=701.245911
					57:leaf=0.0167421009,cover=148.821533
					58:leaf=0.0236098692,cover=552.424377
			14:[f28<12.5] yes=29,no=30,missing=29,gain=7.83045197,cover=934.124573
				29:[f4<203.110001] yes=59,no=60,missing=59,gain=5.71342278,cover=92.5374451
					59:leaf=0.0580306537,cover=29.8198414
					60:leaf=0.118426137,cover=62.7176018
				30:[f25<33.2150002] yes=61,no=62,missing=61,gain=4.67848778,cover=841.587158
					61:leaf=0.0263410211,cover=706.378479
					62:leaf=0.0580306537,cover=135.208633
booster[25]
0:[f24<0.5] yes=1,no=2,missing=1,gain=54.4236832,cover=26187.6641
	1:[f25<24.1949997] yes=3,no=4,missing=3,gain=49.3026123,cover=25572.2188
		3:[f3<10.5] yes=7,no=8,missing=7,gain=42.6497803,cover=20029.6758
			7:[f3<6.43999958] yes=15,no=16,missing=15,gain=23.5611191,cover=2761.81079
				15:[f4<554.309998] yes=31,no=32,missing=31,gain=3.85843277,cover=217.745468
					31:leaf=-0.0928960368,cover=189.242889
					32:leaf=-0.0531644523,cover=28.5025768
				16:[f15<57610] yes=33,no=34,missing=33,gain=12.9175797,cover=2544.06543
					33:leaf=-0.0172621757,cover=1161.61157
					34:leaf=-0.0361089744,cover=1382.45374
			8:[f28<30.5] yes=17,no=18,missing=17,gain=32.7690048,cover=17267.8652
				17:[f25<9.00500011] yes=35,no=36,missing=35,gain=16.8654823,cover=13044.7754
					35:leaf=-0.00944194198,cover=2620.47339
					36:leaf=5.83838773e-05,cover=10424.3018
				18:[f0<15025] yes=37,no=38,missing=37,gain=3.74079132,cover=4223.08984
					37:leaf=-0.0172621757,cover=2067.67749
					38:leaf=-0.010161194,cover=2155.41235
		4:[f0<8437.5] yes=9,no=10,missing=9,gain=13.4705648,cover=5542.54395
			9:[f34<236.5] yes=19,no=20,missing=19,gain=2.26707578,cover=1499.81628
				19:[f15<23076] yes=39,no=40,missing=39,gain=0.421142906,cover=855.408203
					39:leaf=0.00367584662,cover=103.154854
					40:leaf=5.83838773e-05,cover=752.253357
				20:[f4<122.714996] yes=41,no=42,missing=41,gain=1.07364202,cover=644.40802
					41:leaf=0.00367584662,cover=123.832802
					42:leaf=0.00729330955,cover=520.575195
			10:[f32<331.5] yes=21,no=22,missing=21,gain=11.7386723,cover=4042.72754
				21:[f41<0.5] yes=43,no=44,missing=43,gain=2.99903488,cover=2687.71582
					43:leaf=0.0205169767,cover=2239.34326
					44:leaf=0.0139051434,cover=448.372498
				22:[f28<17.5] yes=45,no=46,missing=45,gain=2.99130177,cover=1355.01172
					45:leaf=0.0139051434,cover=222.637772
					46:leaf=0.00729330955,cover=1132.3739
	2:[f0<4637.5] yes=5,no=6,missing=5,gain=5.98999405,cover=615.445068
		5:[f3<21.2150002] yes=11,no=12,missing=11,gain=0.639548659,cover=54.850853
			11:leaf=0.0205169767,cover=47.979435
			12:leaf=0.0365572609,cover=6.87141562
		6:[f39<0.5] yes=13,no=14,missing=13,gain=5.05606461,cover=560.594177
			13:[f29<0.5] yes=27,no=28,missing=27,gain=3.28355408,cover=455.432037
				27:leaf=0.0365572609,cover=70.7991714
				28:[f15<110100] yes=53,no=54,missing=53,gain=1.91825867,cover=384.632874
					53:leaf=0.0624081157,cover=315.375702
					54:leaf=0.0456091128,cover=69.2571793
			14:[f15<60500] yes=29,no=30,missing=29,gain=3.7153244,cover=105.162163
				29:[f32<136] yes=55,no=56,missing=55,gain=7.64266205,cover=42.0905495
					55:leaf=0.256436169,cover=9.46411419
					56:leaf=0.0957424492,cover=32.6264381
				30:[f3<19.6899986] yes=57,no=58,missing=57,gain=1.9042592,cover=63.0716095
					57:leaf=0.0654659495,cover=44.0359154
					58:leaf=0.0957424492,cover=19.035696
booster[26]
0:[f15<32948] yes=1,no=2,missing=1,gain=39.7918663,cover=26122.2754
	1:[f4<273.089996] yes=3,no=4,missing=3,gain=17.035408,cover=2995.14478
		3:[f15<23198] yes=7,no=8,missing=7,gain=10.1274891,cover=2007.96179
			7:[f4<68.7400055] yes=15,no=16,missing=15,gain=1.38699913,cover=719.062988
				15:leaf=0.0119097931,cover=89.9901886
				16:leaf=0.0194460452,cover=629.072815
			8:[f1<0.5] yes=17,no=18,missing=17,gain=3.3084166,cover=1288.8988
				17:leaf=0.0119097931,cover=123.390167
				18:[f26<14.5] yes=37,no=38,missing=37,gain=0.519416332,cover=1165.50854
					37:leaf=0.0043735411,cover=1067.3512
					38:leaf=0.00814166665,cover=98.1573792
		4:[f15<28280.5] yes=9,no=10,missing=9,gain=8.12877274,cover=987.183105
			9:[f31<458.5] yes=19,no=20,missing=19,gain=4.60984039,cover=399.275024
				19:[f23<0.5] yes=39,no=40,missing=39,gain=4.08145523,cover=396.794983
					39:leaf=0.0438175015,cover=354.977509
					40:leaf=0.100037746,cover=41.8174934
				20:leaf=0.248753592,cover=2.48003697
			10:[f26<8.5] yes=21,no=22,missing=21,gain=2.89974594,cover=587.90802
				21:[f34<266.5] yes=41,no=42,missing=41,gain=0.878338099,cover=277.585693
					41:leaf=0.0194460452,cover=212.513443
					42:leaf=0.0277019348,cover=65.0722427
				22:[f4<324.025024] yes=43,no=44,missing=43,gain=1.3834343,cover=310.322357
					43:leaf=0.0277019348,cover=100.146652
					44:leaf=0.0360729843,cover=210.175705
	2:[f4<434.820007] yes=5,no=6,missing=5,gain=37.2538452,cover=23127.1309
		5:[f25<13.2650003] yes=11,no=12,missing=11,gain=37.1592178,cover=12560.6123
			11:[f29<0.5] yes=23,no=24,missing=23,gain=20.4763336,cover=4247.49902
				23:[f14<0.5] yes=45,no=46,missing=45,gain=13.2595749,cover=1058.83374
					45:leaf=-0.0642067716,cover=565.440857
					46:leaf=-0.0321167223,cover=493.392883
				24:[f28<19.5] yes=47,no=48,missing=47,gain=8.7220993,cover=3188.66528
					47:leaf=-0.0154866464,cover=1776.88013
					48:leaf=-0.0295926016,cover=1411.78528
			12:[f28<31.5] yes=25,no=26,missing=25,gain=11.0429773,cover=8313.11328
				25:[f42<8.5] yes=49,no=50,missing=49,gain=3.83998942,cover=6086.80371
					49:leaf=-0.00546156988,cover=4042.82031
					50:leaf=-0.0104741082,cover=2043.9834
				26:[f25<23.375] yes=51,no=52,missing=51,gain=2.31662369,cover=2226.30957
					51:leaf=-0.0154866464,cover=1302.94592
					52:leaf=-0.0104741082,cover=923.363647
		6:[f15<101091.141] yes=13,no=14,missing=13,gain=20.2728424,cover=10566.5176
			13:[f41<0.5] yes=27,no=28,missing=27,gain=5.5087204,cover=8156.49951
				27:[f16<0.5] yes=53,no=54,missing=53,gain=1.45385647,cover=5847.7666
					53:leaf=0.0043735411,cover=4852.96631
					54:leaf=0.00191476347,cover=994.800232
				28:[f14<0.5] yes=55,no=56,missing=55,gain=2.77474308,cover=2308.73291
					55:leaf=-0.00054401427,cover=1150.2467
					56:leaf=0.00191476347,cover=1158.48608
			14:[f42<3.5] yes=29,no=30,missing=29,gain=1.97756577,cover=2410.01831
				29:[f25<8.70499992] yes=57,no=58,missing=57,gain=0.610133588,cover=589.731689
					57:leaf=-0.00300279213,cover=123.421844
					58:leaf=-0.00054401427,cover=466.309814
				30:[f10<0.5] yes=59,no=60,missing=59,gain=0.689847946,cover=1820.28674
					59:leaf=-0.00546156988,cover=1670.75391
					60:leaf=-0.00300279213,cover=149.532776
booster[27]
0:[f32<449.5] yes=1,no=2,missing=1,gain=44.6637115,cover=26017.375
	1:[f3<22.0249996] yes=3,no=4,missing=3,gain=32.4278679,cover=25482.6113
		3:[f15<40003.1016] yes=7,no=8,missing=7,gain=28.7033291,cover=23664.6777
			7:[f0<7187.5] yes=15,no=16,missing=15,gain=14.2546597,cover=5703.33887
				15:[f15<22806.3594] yes=31,no=32,missing=31,gain=3.88907504,cover=2584.8103
					31:leaf=0.00424690079,cover=585.414001
					32:leaf=0.000144417965,cover=1999.39624
				16:[f42<9.5] yes=33,no=34,missing=33,gain=1.44886017,cover=3118.52856
					33:leaf=0.00834938325,cover=2317.15308
					34:leaf=0.00424690079,cover=801.375488
			8:[f26<6.5] yes=17,no=18,missing=17,gain=25.1524372,cover=17961.3379
				17:[f28<8.5] yes=35,no=36,missing=35,gain=13.8753929,cover=2412.2522
					35:leaf=-0.0136181582,cover=429.021149
					36:leaf=-0.026598487,cover=1983.23096
				18:[f28<25.5] yes=37,no=38,missing=37,gain=27.3069286,cover=15549.0869
					37:leaf=0.000144417965,cover=7321.78467
					38:leaf=-0.0113943154,cover=8227.30176
		4:[f29<0.5] yes=9,no=10,missing=9,gain=11.5455093,cover=1817.93457
			9:[f3<24.2900009] yes=19,no=20,missing=19,gain=1.30054975,cover=569.81665
				19:[f32<51] yes=39,no=40,missing=39,gain=0.439573526,cover=335.902618
					39:leaf=0.0137726078,cover=44.3477135
					40:leaf=0.00834938325,cover=291.554901
				20:[f36<335.5] yes=41,no=42,missing=41,gain=0.780845165,cover=233.914032
					41:leaf=0.0191958323,cover=187.547394
					42:leaf=0.0137726078,cover=46.3666306
			10:[f4<1267.95496] yes=21,no=22,missing=21,gain=8.99236679,cover=1248.11792
				21:[f25<34.5] yes=43,no=44,missing=43,gain=6.94626999,cover=1235.04053
					43:leaf=0.0266336631,cover=1213.77502
					44:leaf=0.0970172584,cover=21.2654457
				22:[f31<300.5] yes=45,no=46,missing=45,gain=3.54070473,cover=13.0774126
					45:leaf=0.0970172584,cover=8.28485298
					46:leaf=0.272406101,cover=4.79255915
	2:[f35<132] yes=5,no=6,missing=5,gain=16.6533241,cover=534.763733
		5:[f42<5.5] yes=11,no=12,missing=11,gain=41.5891724,cover=384.055603
			11:[f28<55.5] yes=23,no=24,missing=23,gain=2.33911324,cover=268.276581
				23:[f25<10.7450008] yes=47,no=48,missing=47,gain=1.24069643,cover=263.236023
					47:leaf=-0.0762964264,cover=52.8585396
					48:leaf=-0.0495865159,cover=210.377502
				24:leaf=-0.10455709,cover=5.04055023
			12:[f42<7.5] yes=25,no=26,missing=25,gain=4.60868835,cover=115.779007
				25:[f15<44538] yes=49,no=50,missing=49,gain=1.39852905,cover=59.115612
					49:leaf=-0.10455709,cover=13.4543619
					50:leaf=-0.143344685,cover=45.6612511
				26:leaf=-0.195668206,cover=56.6633911
		6:[f15<98500] yes=13,no=14,missing=13,gain=1.62311983,cover=150.708115
			13:leaf=-0.026598487,cover=131.576843
			14:leaf=-0.0495865159,cover=19.1312618
booster[28]
0:[f24<0.5] yes=1,no=2,missing=1,gain=33.658783,cover=25907.5879
	1:[f15<100139.039] yes=3,no=4,missing=3,gain=32.8658142,cover=25291.1152
		3:[f1<0.5] yes=7,no=8,missing=7,gain=23.6871758,cover=22070.8184
			7:[f29<0.5] yes=15,no=16,missing=15,gain=27.2754021,cover=6431.11182
				15:[f36<135.5] yes=31,no=32,missing=31,gain=4.29768085,cover=2178.31982
					31:leaf=0.00983693171,cover=750.741394
					32:leaf=0.00223115063,cover=1427.57849
				16:[f36<313.5] yes=33,no=34,missing=33,gain=4.43665695,cover=4252.79199
					33:leaf=0.0174427107,cover=3264.47534
					34:leaf=0.00983693171,cover=988.316772
			8:[f25<23.5349998] yes=17,no=18,missing=17,gain=19.7833157,cover=15639.707
				17:[f15<35000.4922] yes=35,no=36,missing=35,gain=14.4969749,cover=11687.3594
					35:leaf=-0.00275539188,cover=2442.42188
					36:leaf=-0.00953403674,cover=9244.9375
				18:[f4<161.980011] yes=37,no=38,missing=37,gain=3.1145618,cover=3952.34741
					37:leaf=-0.00275539188,cover=526.863159
					38:leaf=0.00223115063,cover=3425.48413
		4:[f42<4.5] yes=9,no=10,missing=9,gain=18.2959023,cover=3220.29639
			9:[f25<8.71500015] yes=19,no=20,missing=19,gain=1.68360376,cover=1033.9292
				19:[f39<0.5] yes=39,no=40,missing=39,gain=0.849933147,cover=225.615875
					39:leaf=-0.0191163663,cover=166.847748
					40:leaf=-0.0143252006,cover=58.7681274
				20:[f28<57.5] yes=41,no=42,missing=41,gain=0.723155975,cover=808.313293
					41:leaf=-0.00953403674,cover=773.197144
					42:leaf=-0.0143252006,cover=35.1161385
			10:[f32<449.5] yes=21,no=22,missing=21,gain=11.0424042,cover=2186.36719
				21:[f19<0.5] yes=43,no=44,missing=43,gain=9.44006348,cover=2143.93652
					43:leaf=-0.0215831101,cover=1750.40247
					44:leaf=-0.0507737175,cover=393.534088
				22:[f28<24.5] yes=45,no=46,missing=45,gain=2.3115654,cover=42.4305229
					45:leaf=-0.0703756064,cover=15.2741499
					46:leaf=-0.144286513,cover=27.1563721
	2:[f26<19.5] yes=5,no=6,missing=5,gain=7.2958374,cover=616.472961
		5:[f0<4637.5] yes=11,no=12,missing=11,gain=5.54381561,cover=589.4953
			11:[f15<19600] yes=23,no=24,missing=23,gain=0.408067942,cover=55.0340767
				23:leaf=0.0295217466,cover=5.62598228
				24:leaf=0.0174427107,cover=49.4080963
			12:[f26<8.5] yes=25,no=26,missing=25,gain=3.32653427,cover=534.461243
				25:[f1<0.5] yes=49,no=50,missing=49,gain=1.48156643,cover=256.522827
					49:leaf=0.0420607254,cover=76.0576782
					50:leaf=0.0295217466,cover=180.465134
				26:[f15<73796] yes=51,no=52,missing=51,gain=4.0606041,cover=277.938446
					51:leaf=0.0773422346,cover=130.213837
					52:leaf=0.0420607254,cover=147.724594
		6:[f28<43.5] yes=13,no=14,missing=13,gain=2.33818436,cover=26.9776478
			13:[f29<0.5] yes=27,no=28,missing=27,gain=1.58683968,cover=15.2272978
				27:leaf=0.12278568,cover=2.60180831
				28:leaf=0.205615342,cover=12.6254892
			14:[f36<167] yes=29,no=30,missing=29,gain=0.408110738,cover=11.75035
				29:leaf=0.12278568,cover=4.80337954
				30:leaf=0.0780978203,cover=6.94697046
booster[29]
0:[f32<449.5] yes=1,no=2,missing=1,gain=27.2538719,cover=25806.7539
	1:[f42<6.5] yes=3,no=4,missing=3,gain=25.0396709,cover=25303.1465
		3:[f39<0.5] yes=7,no=8,missing=7,gain=19.2238941,cover=12137.4834
			7:[f3<17.4599991] yes=15,no=16,missing=15,gain=12.7468653,cover=9629.31543
				15:[f15<36000.0156] yes=31,no=32,missing=31,gain=4.57059193,cover=6725.9043
					31:leaf=0.00492781447,cover=1219.72595
					32:leaf=-0.000205857868,cover=5506.17822
				16:[f28<27.5] yes=33,no=34,missing=33,gain=5.07381821,cover=2903.41138
					33:leaf=0.0100614876,cover=1855.91406
					34:leaf=0.00492781447,cover=1047.49731
			8:[f25<13.4549999] yes=17,no=18,missing=17,gain=10.8424187,cover=2508.16748
				17:[f4<431.585022] yes=35,no=36,missing=35,gain=2.50200033,cover=906.47937
					35:leaf=0.0100614876,cover=547.304932
					36:leaf=0.018804308,cover=359.174408
				18:[f31<385.5] yes=37,no=38,missing=37,gain=14.2354355,cover=1601.68811
					37:leaf=0.018804308,cover=1137.29736
					38:leaf=0.0527258068,cover=464.390778
		4:[f28<46.5] yes=9,no=10,missing=9,gain=18.9471874,cover=13165.6641
			9:[f26<9.5] yes=19,no=20,missing=19,gain=14.1147346,cover=12506.1543
				19:[f28<14.5] yes=39,no=40,missing=39,gain=12.0450039,cover=5755.02246
					39:leaf=-0.00518424623,cover=2384.54785
					40:leaf=-0.012101532,cover=3370.47437
				20:[f15<102504] yes=41,no=42,missing=41,gain=3.7871418,cover=6751.13232
					41:leaf=-0.000205857868,cover=5807.73682
					42:leaf=-0.00518424623,cover=943.395508
			10:[f4<848.315002] yes=21,no=22,missing=21,gain=1.10007858,cover=659.509033
				21:leaf=-0.0204039756,cover=572.718689
				22:[f36<244] yes=45,no=46,missing=45,gain=0.437442183,cover=86.7903442
					45:leaf=-0.012101532,cover=55.9695625
					46:leaf=-0.0162527543,cover=30.8207817
	2:[f42<3.5] yes=5,no=6,missing=5,gain=17.0060368,cover=503.60672
		5:[f3<11.5949993] yes=11,no=12,missing=11,gain=2.697402,cover=195.061752
			11:leaf=-0.0440929681,cover=45.760273
			12:[f28<55.5] yes=25,no=26,missing=25,gain=0.526415348,cover=149.301483
				25:leaf=-0.0204039756,cover=145.768036
				26:leaf=-0.0322484709,cover=3.53344727
		6:[f41<0.5] yes=13,no=14,missing=13,gain=11.8002129,cover=308.544952
			13:[f15<79190] yes=27,no=28,missing=27,gain=1.36695766,cover=95.9292221
				27:leaf=-0.0440929681,cover=75.2126465
				28:leaf=-0.0687078312,cover=20.7165718
			14:[f42<7.5] yes=29,no=30,missing=29,gain=7.59757996,cover=212.615738
				29:[f12<0.5] yes=57,no=58,missing=57,gain=5.08382607,cover=150.535522
					57:leaf=-0.0687078312,cover=98.3429184
					58:leaf=-0.107661448,cover=52.1925964
				30:[f31<34] yes=59,no=60,missing=59,gain=7.5411644,cover=62.0802193
					59:leaf=-0.187177718,cover=48.2246819
					60:leaf=-0.107661448,cover=13.8555346
booster[30]
0:[f0<2012.5] yes=1,no=2,missing=1,gain=28.4389114,cover=25863.9277
	1:[f29<0.5] yes=3,no=4,missing=3,gain=9.67931366,cover=553.604065
		3:[f4<61.6299973] yes=7,no=8,missing=7,gain=2.49727058,cover=105.860046
			7:[f25<15.0150003] yes=15,no=16,missing=15,gain=1.76242447,cover=62.3863297
				15:leaf=-0.143958032,cover=25.2474251
				16:[f42<5.5] yes=33,no=34,missing=33,gain=0.863060951,cover=37.1389046
					33:leaf=-0.0826451331,cover=12.4199142
					34:leaf=-0.11330159,cover=24.7189922
			8:[f31<256.5] yes=17,no=18,missing=17,gain=0.633946419,cover=43.4737129
				17:leaf=-0.0826451331,cover=23.0477104
