booster[0]
0:[f3<14.0299997] yes=1,no=2,missing=1,gain=2370.9375,cover=166136.5
	1:[f31<0.5] yes=3,no=4,missing=3,gain=383.28125,cover=101249.75
		3:[f3<11.54] yes=7,no=8,missing=7,gain=48.890625,cover=53366.75
			7:leaf=-0.410449892,cover=33552.5
			8:leaf=-0.396873057,cover=19814.25
		4:[f3<10.1549997] yes=9,no=10,missing=9,gain=166.546875,cover=47883
			9:leaf=-0.394530535,cover=19549
			10:leaf=-0.369230032,cover=28334
	2:[f31<0.5] yes=5,no=6,missing=5,gain=676.125,cover=64886.75
		5:[f3<18.6499996] yes=11,no=12,missing=11,gain=164.648438,cover=27171
			11:leaf=-0.376990885,cover=20010.5
			12:leaf=-0.339753747,cover=7160.5
		6:[f3<18.5799999] yes=13,no=14,missing=13,gain=386.203125,cover=37715.75
			13:leaf=-0.337655067,cover=26532.25
			14:leaf=-0.291250288,cover=11183.5
booster[1]
0:[f3<14.0299997] yes=1,no=2,missing=1,gain=1763.40625,cover=160351
	1:[f38<101.5] yes=3,no=4,missing=3,gain=512.828125,cover=97410.9062
		3:[f15<0.674940407] yes=7,no=8,missing=7,gain=92.6171875,cover=9235.16797
			7:leaf=-0.252463132,cover=3857.68359
			8:leaf=-0.295258254,cover=5377.48438
		4:[f38<276.5] yes=9,no=10,missing=9,gain=126.65625,cover=88175.7422
			9:leaf=-0.321829438,cover=47395.3594
			10:leaf=-0.337856144,cover=40780.3828
	2:[f38<224.5] yes=5,no=6,missing=5,gain=975.789062,cover=62940.0977
		5:[f38<101.5] yes=11,no=12,missing=11,gain=344.378906,cover=24505.502
			11:leaf=-0.20549418,cover=6478.64844
			12:leaf=-0.261732161,cover=18026.8535
		6:[f39<43.5] yes=13,no=14,missing=13,gain=243.59375,cover=38434.5938
			13:leaf=-0.25216496,cover=4135.69629
			14:leaf=-0.306029081,cover=34298.8984
booster[2]
0:[f3<14.0299997] yes=1,no=2,missing=1,gain=1663.53125,cover=148065.797
	1:[f38<101.5] yes=3,no=4,missing=3,gain=441.578125,cover=89132.6484
		3:[f3<9.99499989] yes=7,no=8,missing=7,gain=97.0996094,cover=8584.87305
			7:leaf=-0.264605165,cover=3554.91943
			8:leaf=-0.219227374,cover=5029.95312
		4:[f31<0.5] yes=9,no=10,missing=9,gain=139.25,cover=80547.7734
			9:leaf=-0.295697689,cover=45152.2812
			10:leaf=-0.27808702,cover=35395.4961
	2:[f38<224.5] yes=5,no=6,missing=5,gain=773.9375,cover=58933.1445
		5:[f31<0.5] yes=11,no=12,missing=11,gain=265.787109,cover=23180.2754
			11:leaf=-0.240709022,cover=7451.7124
			12:leaf=-0.192749873,cover=15728.5635
		6:[f3<19.1949997] yes=13,no=14,missing=13,gain=242.53125,cover=35752.8672
			13:leaf=-0.266574979,cover=27592.3164
			14:leaf=-0.225474671,cover=8160.5498
booster[3]
0:[f3<14.6599998] yes=1,no=2,missing=1,gain=1665.60938,cover=133597.625
	1:[f38<211.5] yes=3,no=4,missing=3,gain=517.390625,cover=87672.0859
		3:[f32<0.5] yes=7,no=8,missing=7,gain=250.832031,cover=27049.4375
			7:leaf=-0.213148668,cover=17370.7891
			8:leaf=-0.255191773,cover=9678.64844
		4:[f38<373.5] yes=9,no=10,missing=9,gain=128.390625,cover=60622.6484
			9:leaf=-0.264276296,cover=59541.6289
			10:leaf=-0.191254452,cover=1081.02039
	2:[f38<276.5] yes=5,no=6,missing=5,gain=697.996094,cover=45925.5391
		5:[f38<101.5] yes=11,no=12,missing=11,gain=356.921875,cover=30017.4375
			11:leaf=-0.132549912,cover=4862.87793
			12:leaf=-0.194406137,cover=25154.5605
		6:[f38<373.5] yes=13,no=14,missing=13,gain=281.126953,cover=15908.1025
			13:leaf=-0.244718492,cover=15154.0967
			14:leaf=-0.113869853,cover=754.006531
booster[4]
0:[f38<224.5] yes=1,no=2,missing=1,gain=1247.90625,cover=119164.742
	1:[f31<0.5] yes=3,no=4,missing=3,gain=548.222656,cover=44118.7539
		3:[f40<251.5] yes=7,no=8,missing=7,gain=105.194336,cover=15248.0244
			7:leaf=-0.223287329,cover=12939.3086
			8:leaf=-0.174668163,cover=2308.71582
		4:[f5<0.5] yes=9,no=10,missing=9,gain=346.173828,cover=28870.7305
			9:leaf=-0.157242268,cover=24463.4297
			10:leaf=-0.22086589,cover=4407.30127
	2:[f39<43.5] yes=5,no=6,missing=5,gain=398.648438,cover=75045.9844
		5:[f38<254.5] yes=11,no=12,missing=11,gain=111.569824,cover=6549.96631
			11:leaf=-0.139418602,cover=2125.84497
			12:leaf=-0.197801024,cover=4424.12109
		6:[f38<373.5] yes=13,no=14,missing=13,gain=312.726562,cover=68496.0234
			13:leaf=-0.234526411,cover=67567.7656
			14:leaf=-0.112325139,cover=928.258545
booster[5]
0:[f3<14.0299997] yes=1,no=2,missing=1,gain=2113.22656,cover=105623
	1:[f38<101.5] yes=3,no=4,missing=3,gain=528.851562,cover=61484.0039
		3:[f15<0.6799106] yes=7,no=8,missing=7,gain=110.599854,cover=6401.88525
			7:leaf=-0.134227857,cover=3414.78516
			8:leaf=-0.189376608,cover=2987.09985
		4:[f3<9.99499989] yes=9,no=10,missing=9,gain=212.78125,cover=55082.1172
			9:leaf=-0.238392696,cover=23747.5605
			10:leaf=-0.212118134,cover=31334.5586
	2:[f38<276.5] yes=5,no=6,missing=5,gain=717.871094,cover=44139
		5:[f3<18.5799999] yes=11,no=12,missing=11,gain=463.125,cover=29477.3066
			11:leaf=-0.155329838,cover=20611.2891
			12:leaf=-0.0982357562,cover=8866.01855
		6:[f41<39] yes=13,no=14,missing=13,gain=333.022461,cover=14661.6914
			13:leaf=-0.119535893,cover=2190.26074
			14:leaf=-0.207911626,cover=12471.4307
booster[6]
0:[f31<0.5] yes=1,no=2,missing=1,gain=1453.86328,cover=93655.1328
	1:[f38<276.5] yes=3,no=4,missing=3,gain=271.011719,cover=43167.5273
		3:[f5<0.5] yes=7,no=8,missing=7,gain=171.638672,cover=23621.7266
			7:leaf=-0.179250419,cover=19588.4531
			8:leaf=-0.226656616,cover=4033.27319
		4:[f41<39] yes=9,no=10,missing=9,gain=178.755859,cover=19545.8027
			9:leaf=-0.154921278,cover=1660.54871
			10:leaf=-0.22674112,cover=17885.2539
	2:[f38<101.5] yes=5,no=6,missing=5,gain=752.541016,cover=50487.6055
		5:[f1<0.5] yes=11,no=12,missing=11,gain=290.7229,cover=8780.80176
			11:leaf=-0.0308723673,cover=2300.45679
			12:leaf=-0.117290765,cover=6480.34521
		6:[f38<273.5] yes=13,no=14,missing=13,gain=349.707031,cover=41706.8047
			13:leaf=-0.147468507,cover=26550.9746
			14:leaf=-0.187253326,cover=15155.8301
booster[7]
0:[f3<14.0299997] yes=1,no=2,missing=1,gain=2423.46094,cover=83130.6094
	1:[f31<0.5] yes=3,no=4,missing=3,gain=487.167969,cover=46911.3906
		3:[f3<11.54] yes=7,no=8,missing=7,gain=97.65625,cover=23290.207
			7:leaf=-0.221169144,cover=14448.8145
			8:leaf=-0.193165287,cover=8841.39258
		4:[f3<10.1549997] yes=9,no=10,missing=9,gain=249.25293,cover=23621.1855
			9:leaf=-0.194511235,cover=9336.50977
			10:leaf=-0.150585681,cover=14284.6748
	2:[f3<20.9949989] yes=5,no=6,missing=5,gain=632.764648,cover=36219.2188
		5:[f31<0.5] yes=11,no=12,missing=11,gain=460.826172,cover=31387.498
			11:leaf=-0.159137294,cover=12498.2646
			12:leaf=-0.107435301,cover=18889.2344
		6:[f3<26.4150009] yes=13,no=14,missing=13,gain=115.072403,cover=4831.72217
			13:leaf=-0.0413591601,cover=4697.04004
			14:leaf=-0.236447975,cover=134.682037
booster[8]
0:[f3<12.7049999] yes=1,no=2,missing=1,gain=2312.38281,cover=74147.0703
	1:[f38<100.5] yes=3,no=4,missing=3,gain=481.625,cover=31899.6367
		3:[f15<0.66667676] yes=7,no=8,missing=7,gain=108.233032,cover=3786.88013
			7:leaf=-0.0570926294,cover=1046.34045
			8:leaf=-0.136110395,cover=2740.53955
		4:[f31<0.5] yes=9,no=10,missing=9,gain=156.761719,cover=28112.7578
			9:leaf=-0.208204374,cover=15076.2725
			10:leaf=-0.176853627,cover=13036.4844
	2:[f38<275.5] yes=5,no=6,missing=5,gain=885.202148,cover=42247.4297
		5:[f3<18.2700005] yes=11,no=12,missing=11,gain=508.005859,cover=28714.6523
			11:leaf=-0.106331646,cover=20677.9648
			12:leaf=-0.044461742,cover=8036.68848
		6:[f38<373.5] yes=13,no=14,missing=13,gain=441.033203,cover=13532.7764
			13:leaf=-0.162748173,cover=12810.8271
			14:leaf=0.0049773436,cover=721.949646
booster[9]
0:[f31<0.5] yes=1,no=2,missing=1,gain=1444.17969,cover=66609.9922
	1:[f46<6.5] yes=3,no=4,missing=3,gain=266.640625,cover=28661.3789
		3:[f5<0.5] yes=7,no=8,missing=7,gain=202.546387,cover=10904.9844
			7:leaf=-0.123700134,cover=9029.7793
			8:leaf=-0.199174836,cover=1875.20508
		4:[f41<39.5] yes=9,no=10,missing=9,gain=131.612305,cover=17756.3926
			9:leaf=-0.117961399,cover=1457.81055
			10:leaf=-0.183604881,cover=16298.583
	2:[f5<0.5] yes=5,no=6,missing=5,gain=446.296875,cover=37948.6133
		5:[f15<0.687930286] yes=11,no=12,missing=11,gain=302.69873,cover=33548.043
			11:leaf=-0.0777596161,cover=22019.0059
			12:leaf=-0.119532801,cover=11529.0381
		6:[f15<0.674072981] yes=13,no=14,missing=13,gain=83.3515625,cover=4400.57031
			13:leaf=-0.118441172,cover=1306.10999
			14:leaf=-0.181551442,cover=3094.46045
booster[10]
0:[f3<14.0299997] yes=1,no=2,missing=1,gain=2345.50977,cover=60321.0703
	1:[f38<211.5] yes=3,no=4,missing=3,gain=808.5,cover=31800.2578
		3:[f3<10.1549997] yes=7,no=8,missing=7,gain=263.411133,cover=10831.3174
			7:leaf=-0.1465763,cover=4168.53418
			8:leaf=-0.0796288699,cover=6662.7832
		4:[f38<373.5] yes=9,no=10,missing=9,gain=178.155273,cover=20968.9395
			9:leaf=-0.178464115,cover=20538.373
			10:leaf=-0.0426385589,cover=430.567291
	2:[f38<211.5] yes=5,no=6,missing=5,gain=644.023926,cover=28520.8145
		5:[f40<252.5] yes=11,no=12,missing=11,gain=294.870972,cover=11377.5146
			11:leaf=-0.0526755154,cover=7982.55469
			12:leaf=0.0207834709,cover=3394.95996
		6:[f39<383] yes=13,no=14,missing=13,gain=429.645752,cover=17143.2988
			13:leaf=-0.0840676799,cover=15501.8027
			14:leaf=-0.196400136,cover=1641.49658
booster[11]
0:[f3<12.7049999] yes=1,no=2,missing=1,gain=2147.68164,cover=55110.2891
	1:[f38<100.5] yes=3,no=4,missing=3,gain=524.848633,cover=21561.3086
		3:[f26<0.5] yes=7,no=8,missing=7,gain=92.9428101,cover=2905.97583
			7:leaf=-0.0734240636,cover=2836.90625
			8:leaf=0.170140922,cover=69.0694733
		4:[f38<276.5] yes=9,no=10,missing=9,gain=202.744141,cover=18655.332
			9:leaf=-0.143473372,cover=10350.457
			10:leaf=-0.187335253,cover=8304.875
	2:[f38<275.5] yes=5,no=6,missing=5,gain=776.617676,cover=33548.9805
		5:[f3<18.5799999] yes=11,no=12,missing=11,gain=423.6073,cover=23525.082
			11:leaf=-0.0619149432,cover=17211.8965
			12:leaf=0.0013166815,cover=6313.18555
		6:[f41<39] yes=13,no=14,missing=13,gain=525.978271,cover=10023.8984
			13:leaf=-0.00482195476,cover=1605.40039
			14:leaf=-0.135237649,cover=8418.49805
booster[12]
0:[f3<12.7049999] yes=1,no=2,missing=1,gain=1770.80859,cover=50810.5312
	1:[f32<0.5] yes=3,no=4,missing=3,gain=511.144531,cover=18955.9922
		3:[f15<0.671365798] yes=7,no=8,missing=7,gain=200.942871,cover=10286.5234
			7:leaf=-0.0617923178,cover=3142.89209
			8:leaf=-0.125178859,cover=7143.63184
		4:[f3<8.38500023] yes=9,no=10,missing=9,gain=72.0878906,cover=8669.46875
			9:leaf=-0.199607447,cover=3208.22485
			10:leaf=-0.159986898,cover=5461.24463
	2:[f32<0.5] yes=5,no=6,missing=5,gain=625.713867,cover=31854.5391
		5:[f3<20.9949989] yes=11,no=12,missing=11,gain=292.15979,cover=19971.6777
			11:leaf=-0.0440134667,cover=17322.8652
			12:leaf=0.0304356832,cover=2648.81128
		6:[f3<18.6499996] yes=13,no=14,missing=13,gain=243.289551,cover=11882.8613
			13:leaf=-0.111321442,cover=9061.57227
			14:leaf=-0.0410876498,cover=2821.28955
booster[13]
0:[f3<11.5349998] yes=1,no=2,missing=1,gain=1586.25928,cover=47288.582
	1:[f38<211.5] yes=3,no=4,missing=3,gain=388.552246,cover=12464.0557
		3:[f15<0.670361042] yes=7,no=8,missing=7,gain=145.015259,cover=4512.34375
			7:leaf=-0.0315172113,cover=1334.87427
			8:leaf=-0.113555469,cover=3177.46948
		4:[f38<373.5] yes=9,no=10,missing=9,gain=97.6835938,cover=7951.71191
			9:leaf=-0.169402808,cover=7787.72705
			10:leaf=-0.00652170787,cover=163.985123
	2:[f38<101.5] yes=5,no=6,missing=5,gain=839.940186,cover=34824.5234
		5:[f35<324] yes=11,no=12,missing=11,gain=186.873657,cover=4866.02881
			11:leaf=0.0503965616,cover=3820.07056
			12:leaf=-0.0491775088,cover=1045.95837
		6:[f39<43.5] yes=13,no=14,missing=13,gain=578.544434,cover=29958.4961
			13:leaf=0.0238816943,cover=2912.21973
			14:leaf=-0.0740584731,cover=27046.2773
booster[14]
0:[f3<15.6149998] yes=1,no=2,missing=1,gain=1387.3855,cover=44395.5781
	1:[f38<224.5] yes=3,no=4,missing=3,gain=818.132324,cover=27662.1094
		3:[f39<298.5] yes=7,no=8,missing=7,gain=365.834656,cover=12007.7871
			7:leaf=-0.0165701006,cover=6336.28516
			8:leaf=-0.0895724967,cover=5671.50195
		4:[f3<9.99499989] yes=9,no=10,missing=9,gain=304.564941,cover=15654.3223
			9:leaf=-0.16921784,cover=4522.21289
			10:leaf=-0.104929402,cover=11132.1094
	2:[f7<0.5] yes=5,no=6,missing=5,gain=321.613495,cover=16733.4668
		5:[f3<18.5799999] yes=11,no=12,missing=11,gain=376.142822,cover=14920.4043
			11:leaf=-0.0614760555,cover=6951.97168
			12:leaf=0.00498027029,cover=7968.43311
		6:[f27<17.1749992] yes=13,no=14,missing=13,gain=60.8055878,cover=1813.06299
			13:leaf=0.0258427672,cover=838.28595
			14:leaf=0.102558836,cover=974.777039
booster[15]
0:[f3<11.5349998] yes=1,no=2,missing=1,gain=1100.8894,cover=42015.8516
	1:[f32<0.5] yes=3,no=4,missing=3,gain=401.761719,cover=9990.40625
		3:[f26<0.5] yes=7,no=8,missing=7,gain=143.823669,cover=5603.65625
			7:leaf=-0.0809793845,cover=5530.14844
			8:leaf=0.211204767,cover=73.507637
		4:[f3<7.89499998] yes=9,no=10,missing=9,gain=43.0515137,cover=4386.75
			9:leaf=-0.188898385,cover=1603.47998
			10:leaf=-0.145660192,cover=2783.27002
	2:[f32<0.5] yes=5,no=6,missing=5,gain=530.100891,cover=32025.4434
		5:[f15<0.67928493] yes=11,no=12,missing=11,gain=253.799744,cover=20574.5273
			11:leaf=0.00731441984,cover=10800.1143
			12:leaf=-0.0391226225,cover=9774.41309
		6:[f46<6.5] yes=13,no=14,missing=13,gain=338.281738,cover=11450.916
			13:leaf=-0.0270935837,cover=4612.90234
			14:leaf=-0.100269914,cover=6838.01367
booster[16]
0:[f38<276.5] yes=1,no=2,missing=1,gain=1102.34619,cover=40142.8008
	1:[f39<298.5] yes=3,no=4,missing=3,gain=933.327515,cover=28350.709
		3:[f15<0.682553947] yes=7,no=8,missing=7,gain=442.548676,cover=16930.1836
			7:leaf=0.0376169644,cover=9628.58105
			8:leaf=-0.0305424314,cover=7301.60303
		4:[f38<119] yes=9,no=10,missing=9,gain=679.255615,cover=11420.5254
			9:leaf=-0.0026048345,cover=4228.41895
			10:leaf=-0.10805919,cover=7192.10596
	2:[f38<344.5] yes=5,no=6,missing=5,gain=793.801025,cover=11792.0928
		5:[f41<39] yes=11,no=12,missing=11,gain=823.46875,cover=10432.5166
			11:leaf=0.0290820897,cover=1424.54761
			12:leaf=-0.141741037,cover=9007.96875
		6:[f39<132.5] yes=13,no=14,missing=13,gain=161.004242,cover=1359.57654
			13:leaf=-0.000349957991,cover=898.29425
			14:leaf=0.151301503,cover=461.282257
booster[17]
0:[f3<15.6149998] yes=1,no=2,missing=1,gain=959.082153,cover=38625.0078
	1:[f31<0.5] yes=3,no=4,missing=3,gain=503.200684,cover=23053.3184
		3:[f3<10.0699997] yes=7,no=8,missing=7,gain=227.783203,cover=8776.60547
			7:leaf=-0.157957196,cover=2474.88525
			8:leaf=-0.0831725299,cover=6301.71973
		4:[f15<0.672405064] yes=9,no=10,missing=9,gain=263.12616,cover=14276.7129
			9:leaf=-0.00545190927,cover=5599.30078
			10:leaf=-0.0635099858,cover=8677.41211
	2:[f39<424.5] yes=5,no=6,missing=5,gain=258.524689,cover=15571.6885
		5:[f40<39.5] yes=11,no=12,missing=11,gain=191.999176,cover=15016.915
			11:leaf=-0.0662643239,cover=1400.83167
			12:leaf=0.0148898503,cover=13616.083
		6:[f35<327.5] yes=13,no=14,missing=13,gain=74.0257721,cover=554.77417
			13:leaf=0.0586905889,cover=72.2727737
			14:leaf=-0.167180762,cover=482.501373
booster[18]
0:[f38<276.5] yes=1,no=2,missing=1,gain=817.936707,cover=37357.6719
	1:[f39<424.5] yes=3,no=4,missing=3,gain=675.915161,cover=26973.7754
		3:[f40<39.5] yes=7,no=8,missing=7,gain=459.936676,cover=25632.1426
			7:leaf=-0.0844276473,cover=2804.39185
			8:leaf=0.00516065443,cover=22827.752
		4:[f37<102] yes=9,no=10,missing=9,gain=50.0843506,cover=1341.63342
			9:leaf=-0.176688418,cover=1075.76611
			10:leaf=-0.0750781447,cover=265.867279
	2:[f37<363] yes=5,no=6,missing=5,gain=653.776733,cover=10383.8936
		5:[f39<408] yes=11,no=12,missing=11,gain=420.377533,cover=5632.12158
			11:leaf=-0.03541952,cover=5623.27686
			12:leaf=1.33020854,cover=8.84512043
		6:[f38<354] yes=13,no=14,missing=13,gain=813.765869,cover=4751.77197
			13:leaf=-0.165590957,cover=4318.01123
			14:leaf=0.134186476,cover=433.760834
booster[19]
0:[f3<9.99499989] yes=1,no=2,missing=1,gain=763.316284,cover=36380.75
	1:[f38<276.5] yes=3,no=4,missing=3,gain=135.832886,cover=4982.48193
		3:[f3<7.2750001] yes=7,no=8,missing=7,gain=100.837738,cover=3386.64404
			7:leaf=-0.134263471,cover=981.454163
			8:leaf=-0.0548245646,cover=2405.1897
		4:[f38<379] yes=9,no=10,missing=9,gain=56.3334961,cover=1595.83789
			9:leaf=-0.160984144,cover=1513.03967
			10:leaf=0.0157095641,cover=82.7982101
	2:[f38<53] yes=5,no=6,missing=5,gain=427.022614,cover=31398.2676
		5:[f37<12] yes=11,no=12,missing=11,gain=169.130829,cover=2829.64917
			11:leaf=-0.206632569,cover=96.4687653
			12:leaf=0.073352471,cover=2733.18042
		6:[f46<6.5] yes=13,no=14,missing=13,gain=443.555054,cover=28568.6191
			13:leaf=0.0077304244,cover=12732.8105
			14:leaf=-0.044612281,cover=15835.8086
booster[20]
0:[f3<15.6149998] yes=1,no=2,missing=1,gain=595.07666,cover=35566.3828
	1:[f38<276.5] yes=3,no=4,missing=3,gain=445.52948,cover=20491.5508
		3:[f39<299.5] yes=7,no=8,missing=7,gain=329.242432,cover=14829.8262
			7:leaf=-0.000757868227,cover=9227.54492
			8:leaf=-0.0649242252,cover=5602.28076
		4:[f41<39] yes=9,no=10,missing=9,gain=281.246094,cover=5661.72412
			9:leaf=0.014508198,cover=881.473816
			10:leaf=-0.113830902,cover=4780.25049
	2:[f3<20.9949989] yes=5,no=6,missing=5,gain=162.99353,cover=15074.833
		5:[f9<0.5] yes=11,no=12,missing=11,gain=275.641541,cover=11611.3613
			11:leaf=0.018244952,cover=8496.68555
			12:leaf=-0.0543581769,cover=3114.67578
		6:[f3<26.4150009] yes=13,no=14,missing=13,gain=86.9531097,cover=3463.4707
			13:leaf=0.054853335,cover=3401.6416
			14:leaf=-0.19312346,cover=61.829052
booster[21]
0:[f3<8.78999996] yes=1,no=2,missing=1,gain=531.095215,cover=34906.2422
	1:[f15<0.666098475] yes=3,no=4,missing=3,gain=87.8196411,cover=2793.74463
		3:[f5<0.5] yes=7,no=8,missing=7,gain=38.8675194,cover=518.007935
			7:leaf=-0.179320082,cover=63.1317711
			8:leaf=-0.00567477383,cover=454.87616
		4:[f3<7.40999985] yes=9,no=10,missing=9,gain=38.1930542,cover=2275.73682
			9:leaf=-0.152183667,cover=1033.18274
			10:leaf=-0.0976343304,cover=1242.55408
	2:[f36<449.5] yes=5,no=6,missing=5,gain=347.992981,cover=32112.498
		5:[f15<0.690483391] yes=11,no=12,missing=11,gain=335.154205,cover=31002.3086
			11:leaf=0.00727897556,cover=22762.3926
			12:leaf=-0.041863624,cover=8239.91602
		6:[f36<450.5] yes=13,no=14,missing=13,gain=117.821625,cover=1110.18896
			13:leaf=-0.147105068,cover=1001.53448
			14:leaf=0.0812051147,cover=108.654457
booster[22]
0:[f3<9.99499989] yes=1,no=2,missing=1,gain=394.190063,cover=34386.7695
	1:[f32<0.5] yes=3,no=4,missing=3,gain=138.650574,cover=4046.98389
		3:[f25<0.5] yes=7,no=8,missing=7,gain=83.4919205,cover=2481.71973
			7:leaf=-0.0576078705,cover=2231.87622
			8:leaf=0.0694758296,cover=249.843552
		4:[f46<4.5] yes=9,no=10,missing=9,gain=40.7442017,cover=1565.26404
			9:leaf=-0.0607697368,cover=346.775391
			10:leaf=-0.142141104,cover=1218.48865
	2:[f46<9.5] yes=5,no=6,missing=5,gain=295.923523,cover=30339.7852
		5:[f39<424.5] yes=11,no=12,missing=11,gain=193.146301,cover=21595.7637
			11:leaf=0.010544966,cover=20913.625
			12:leaf=-0.102278672,cover=682.137878
		6:[f32<0.5] yes=13,no=14,missing=13,gain=183.066223,cover=8744.02051
			13:leaf=-0.0155637013,cover=5539.10156
			14:leaf=-0.0782604739,cover=3204.91919
booster[23]
0:[f38<224.5] yes=1,no=2,missing=1,gain=386.051849,cover=33936.6562
	1:[f40<15.5] yes=3,no=4,missing=3,gain=303.827759,cover=17116.2773
		3:[f35<92.5] yes=7,no=8,missing=7,gain=203.455505,cover=907.896667
			7:leaf=0.064440906,cover=225.573608
			8:leaf=-0.164026737,cover=682.323059
		4:[f37<185.5] yes=9,no=10,missing=9,gain=292.902191,cover=16208.3799
			9:leaf=-0.0156702232,cover=6929.87646
			10:leaf=0.0410629064,cover=9278.50391
	2:[f39<381.5] yes=5,no=6,missing=5,gain=599.614868,cover=16820.3789
		5:[f40<360] yes=11,no=12,missing=11,gain=318.245514,cover=15267.3359
			11:leaf=-0.0109998053,cover=13548.5225
			12:leaf=-0.106351085,cover=1718.81299
		6:[f41<393] yes=13,no=14,missing=13,gain=157.654724,cover=1553.04431
			13:leaf=-0.165326834,cover=1534.3396
			14:leaf=0.43013525,cover=18.7046738
booster[24]
0:[f15<0.683065474] yes=1,no=2,missing=1,gain=335.410431,cover=33600.4727
	1:[f38<273.5] yes=3,no=4,missing=3,gain=215.399368,cover=19798.0586
		3:[f38<270.5] yes=7,no=8,missing=7,gain=274.630859,cover=15000.8232
			7:leaf=0.0166019872,cover=14838.6816
			8:leaf=0.289000154,cover=162.141434
		4:[f38<344.5] yes=9,no=10,missing=9,gain=308.147766,cover=4797.23584
			9:leaf=-0.0536359362,cover=4069.72583
			10:leaf=0.09381859,cover=727.510132
	2:[f3<18.8450012] yes=5,no=6,missing=5,gain=292.792358,cover=13802.4131
		5:[f46<4.5] yes=11,no=12,missing=11,gain=146.19873,cover=10739.8057
			11:leaf=-0.0136903329,cover=3164.04932
			12:leaf=-0.0671343505,cover=7575.75684
		6:[f15<0.699345946] yes=13,no=14,missing=13,gain=43.9379463,cover=3062.60718
			13:leaf=0.0400875434,cover=1994.32397
			14:leaf=-0.0123736877,cover=1068.2832
booster[25]
0:[f3<8.38500023] yes=1,no=2,missing=1,gain=310.758362,cover=33272.8242
	1:[f38<211.5] yes=3,no=4,missing=3,gain=72.1363831,cover=2087.9209
		3:[f41<447] yes=7,no=8,missing=7,gain=48.0500755,cover=993.65741
			7:leaf=-0.052099932,cover=965.014343
			8:leaf=0.217910439,cover=28.6430759
		4:[f3<7.5] yes=9,no=10,missing=9,gain=26.6725159,cover=1094.26343
			9:leaf=-0.154742971,cover=543.639343
			10:leaf=-0.0891892612,cover=550.624023
	2:[f46<6.5] yes=5,no=6,missing=5,gain=258.204987,cover=31184.9043
		5:[f15<0.663270593] yes=11,no=12,missing=11,gain=100.801491,cover=14154.5361
			11:leaf=0.0519624576,cover=3164.02539
			12:leaf=0.00967191812,cover=10990.5107
		6:[f38<276.5] yes=13,no=14,missing=13,gain=295.813904,cover=17030.3672
			13:leaf=-0.00413167151,cover=13170.1152
			14:leaf=-0.0698532611,cover=3860.25195
booster[26]
0:[f38<58] yes=1,no=2,missing=1,gain=278.595703,cover=33039.4062
	1:[f37<12] yes=3,no=4,missing=3,gain=121.982651,cover=3724.48291
		3:[f46<5.5] yes=7,no=8,missing=7,gain=0.646141052,cover=85.8509521
			7:leaf=-0.160308719,cover=32.5574303
			8:leaf=-0.217054844,cover=53.2935219
		4:[f38<27.5] yes=9,no=10,missing=9,gain=67.640564,cover=3638.63184
			9:leaf=0.0829874575,cover=1712.88098
			10:leaf=0.0259415265,cover=1925.75098
	2:[f39<299.5] yes=5,no=6,missing=5,gain=380.585754,cover=29314.9238
		5:[f35<398] yes=11,no=12,missing=11,gain=404.285095,cover=21502.0859
			11:leaf=0.011950193,cover=18631.1367
			12:leaf=-0.0722116381,cover=2870.94922
		6:[f39<330.5] yes=13,no=14,missing=13,gain=354.612885,cover=7812.8374
			13:leaf=-0.113548264,cover=2743.63574
			14:leaf=-0.0203619078,cover=5069.20117
booster[27]
0:[f3<17.0100002] yes=1,no=2,missing=1,gain=295.825439,cover=32824.3438
	1:[f26<0.5] yes=3,no=4,missing=3,gain=223.150253,cover=21643.9688
		3:[f15<0.665464759] yes=7,no=8,missing=7,gain=205.508865,cover=21351.4258
			7:leaf=0.0123518137,cover=5576.9917
			8:leaf=-0.0342778005,cover=15774.4346
		4:[f31<0.5] yes=9,no=10,missing=9,gain=44.9665222,cover=292.543732
			9:leaf=-0.0405475423,cover=41.0593567
			10:leaf=0.194173098,cover=251.484375
	2:[f27<35.0550003] yes=5,no=6,missing=5,gain=88.2928009,cover=11180.373
		5:[f15<0.699688852] yes=11,no=12,missing=11,gain=84.6380615,cover=10870.9463
			11:leaf=0.0329609476,cover=9284.24707
			12:leaf=-0.0192118287,cover=1586.69897
		6:[f3<25.2799988] yes=13,no=14,missing=13,gain=12.7763176,cover=309.427277
			13:leaf=-0.0962656662,cover=297.250702
			14:leaf=0.115268752,cover=12.1765766
booster[28]
0:[f40<39.5] yes=1,no=2,missing=1,gain=228.037338,cover=32648.9062
	1:[f35<97.5] yes=3,no=4,missing=3,gain=260.054993,cover=2772.6582
		3:[f36<32.5] yes=7,no=8,missing=7,gain=86.7953033,cover=404.648895
			7:leaf=-0.0109798275,cover=187.075745
			8:leaf=0.182716772,cover=217.573166
		4:[f38<153.5] yes=9,no=10,missing=9,gain=274.988281,cover=2368.00928
			9:leaf=-0.000592218828,cover=949.189148
			10:leaf=-0.145763204,cover=1418.82019
	2:[f40<53] yes=5,no=6,missing=5,gain=450.067688,cover=29876.248
		5:[f38<245] yes=11,no=12,missing=11,gain=249.968842,cover=1085.8761
			11:leaf=0.0619644448,cover=721.51239
			12:leaf=0.274059922,cover=364.363708
		6:[f38<275.5] yes=13,no=14,missing=13,gain=254.139038,cover=28790.373
			13:leaf=0.00735672889,cover=21986.8496
			14:leaf=-0.0388191231,cover=6803.52393
booster[29]
0:[f39<424.5] yes=1,no=2,missing=1,gain=232.592926,cover=32592.709
	1:[f38<373.5] yes=3,no=4,missing=3,gain=219.250748,cover=31666.1406
		3:[f38<300] yes=7,no=8,missing=7,gain=291.071899,cover=30968.2969
			7:leaf=0.00515786186,cover=26281.623
			8:leaf=-0.0513215922,cover=4686.67432
		4:[f35<381.5] yes=9,no=10,missing=9,gain=131.330765,cover=697.843445
			9:leaf=0.169536233,cover=511.118286
			10:leaf=-0.0348571949,cover=186.725143
	2:[f35<327.5] yes=5,no=6,missing=5,gain=131.942276,cover=926.56781
		5:[f36<267] yes=11,no=12,missing=11,gain=50.2033005,cover=183.554688
			11:leaf=0.322411001,cover=24.6650562
			12:leaf=0.00762724923,cover=158.889618
		6:[f39<446.5] yes=13,no=14,missing=13,gain=24.5891113,cover=743.013123
			13:leaf=-0.158529818,cover=669.791626
			14:leaf=-0.0306229908,cover=73.2215042
booster[30]
0:[f46<3.5] yes=1,no=2,missing=1,gain=212.887238,cover=32419.8184
	1:[f3<17.1650009] yes=3,no=4,missing=3,gain=52.3909302,cover=6818.11572
		3:[f3<7.5] yes=7,no=8,missing=7,gain=27.5387745,cover=4608.08691
			7:leaf=-0.0654698908,cover=171.622055
			8:leaf=0.0195440538,cover=4436.46484
		4:[f38<271] yes=9,no=10,missing=9,gain=43.1823273,cover=2210.02905
			9:leaf=0.0381799228,cover=1637.99512
			10:leaf=0.104822896,cover=572.033875
	2:[f36<449.5] yes=5,no=6,missing=5,gain=229.555084,cover=25601.7031
		5:[f39<424.5] yes=11,no=12,missing=11,gain=183.838669,cover=24925.9316
			11:leaf=-0.00624789624,cover=24264.0625
			12:leaf=-0.11770048,cover=661.86792
		6:[f45<0.5] yes=13,no=14,missing=13,gain=79.3806763,cover=675.772278
			13:leaf=0.0494489558,cover=90.172142
			14:leaf=-0.160505027,cover=585.600159
booster[31]
0:[f15<0.695071459] yes=1,no=2,missing=1,gain=195.992737,cover=32316.9551
	1:[f35<421] yes=3,no=4,missing=3,gain=169.78273,cover=26143.6172
		3:[f35<398] yes=7,no=8,missing=7,gain=517.551392,cover=25207.6348
			7:leaf=0.00961044896,cover=23800.9922
			8:leaf=-0.120687537,cover=1406.64294
		4:[f39<113.5] yes=9,no=10,missing=9,gain=133.142975,cover=935.98175
			9:leaf=0.0822296739,cover=920.511292
			10:leaf=0.681614518,cover=15.4704485
	2:[f3<8.88999939] yes=5,no=6,missing=5,gain=76.945282,cover=6173.3374
		5:[f38<55] yes=11,no=12,missing=11,gain=7.93295288,cover=540.404663
			11:leaf=-0.0316366889,cover=50.7358398
			12:leaf=-0.119115762,cover=489.668793
		6:[f3<17.8699989] yes=13,no=14,missing=13,gain=50.873848,cover=5632.93262
			13:leaf=-0.0420684144,cover=3846.73022
			14:leaf=0.000571149285,cover=1786.20251
booster[32]
0:[f26<0.5] yes=1,no=2,missing=1,gain=199.633774,cover=32215.0527
	1:[f41<45.5] yes=3,no=4,missing=3,gain=174.788864,cover=31565.7188
		3:[f40<260.5] yes=7,no=8,missing=7,gain=176.896973,cover=3533.37061
			7:leaf=0.0802351534,cover=2006.01721
			8:leaf=-0.0140546188,cover=1527.35352
		4:[f41<52.5] yes=9,no=10,missing=9,gain=315.337158,cover=28032.3477
			9:leaf=-0.110732399,cover=1286.26709
			10:leaf=-0.00493078399,cover=26746.082
	2:[f41<4.5] yes=5,no=6,missing=5,gain=26.2659149,cover=649.333679
		5:[f3<12.8199997] yes=11,no=12,missing=11,gain=7.31007004,cover=7.92456818
			11:leaf=0.712678313,cover=2.79945636
			12:leaf=0.242921188,cover=5.12511158
		6:[f4<296.035004] yes=13,no=14,missing=13,gain=22.4910126,cover=641.409119
			13:leaf=0.0496420674,cover=202.916779
			14:leaf=0.134036705,cover=438.49231
booster[33]
0:[f46<7.5] yes=1,no=2,missing=1,gain=182.14978,cover=32191.5879
	1:[f14<0.5] yes=3,no=4,missing=3,gain=116.206329,cover=18036.5059
		3:[f38<73.5] yes=7,no=8,missing=7,gain=62.9519577,cover=10129.0195
			7:leaf=0.042803131,cover=1229.28699
			8:leaf=-0.00758703239,cover=8899.73242
		4:[f27<16.6150017] yes=9,no=10,missing=9,gain=45.9168396,cover=7907.48584
			9:leaf=0.0149833448,cover=3619.47559
			10:leaf=0.0469238907,cover=4288.01025
	2:[f38<224.5] yes=5,no=6,missing=5,gain=136.011871,cover=14155.083
		5:[f41<442.5] yes=11,no=12,missing=11,gain=73.7875977,cover=7943.33008
			11:leaf=-0.0045016557,cover=7597.26855
			12:leaf=0.0939487889,cover=346.061371
		6:[f38<233.5] yes=13,no=14,missing=13,gain=270.69455,cover=6211.75244
			13:leaf=-0.16995354,cover=639.927856
			14:leaf=-0.0266567189,cover=5571.82471
booster[34]
0:[f17<0.5] yes=1,no=2,missing=1,gain=143.89212,cover=32136.0547
	1:[f15<0.698973596] yes=3,no=4,missing=3,gain=113.99971,cover=21412.416
		3:[f27<34.9850006] yes=7,no=8,missing=7,gain=106.697937,cover=18658.2461
			7:leaf=0.0171867907,cover=18313.3457
			8:leaf=-0.0998725668,cover=344.90094
		4:[f11<0.5] yes=9,no=10,missing=9,gain=22.800766,cover=2754.16919
			9:leaf=-0.0334055685,cover=2690.99292
			10:leaf=0.0925845131,cover=63.1763878
	2:[f46<7.5] yes=5,no=6,missing=5,gain=66.7558212,cover=10723.6377
		5:[f41<340.5] yes=11,no=12,missing=11,gain=38.4754066,cover=6133.69922
			11:leaf=0.00288628438,cover=4708.82422
			12:leaf=-0.0362622999,cover=1424.875
		6:[f41<454.5] yes=13,no=14,missing=13,gain=48.8046722,cover=4589.93896
			13:leaf=-0.0425852202,cover=4498.4707
			14:leaf=0.110714503,cover=91.4682541
booster[35]
0:[f40<3] yes=1,no=2,missing=1,gain=166.448853,cover=32129.6348
	1:[f46<3.5] yes=3,no=4,missing=3,gain=8.20205688,cover=226.23175
		3:[f3<20.2399998] yes=7,no=8,missing=7,gain=4.2525835,cover=57.1097183
			7:leaf=-0.127992585,cover=50.7713509
			8:leaf=0.0470302254,cover=6.33836746
		4:[f27<2.80499983] yes=9,no=10,missing=9,gain=0.845733643,cover=169.12204
			9:leaf=-0.00625264598,cover=1.01196146
			10:leaf=-0.204084635,cover=168.110077
	2:[f29<0.5] yes=5,no=6,missing=5,gain=153.584839,cover=31903.4043
		5:[f3<7.5] yes=11,no=12,missing=11,gain=155.491318,cover=27245.2559
			11:leaf=-0.0844717696,cover=807.123718
			12:leaf=0.00850693788,cover=26438.1309
		6:[f38<1.5] yes=13,no=14,missing=13,gain=75.9290009,cover=4658.14844
			13:leaf=0.183267877,cover=67.3249054
			14:leaf=-0.0385179035,cover=4590.82373
booster[36]
0:[f40<3] yes=1,no=2,missing=1,gain=132.106445,cover=32078.1934
	1:[f46<4.5] yes=3,no=4,missing=3,gain=8.56072998,cover=193.870651
		3:[f27<3.46000004] yes=7,no=8,missing=7,gain=4.21796227,cover=68.4163589
			7:leaf=0.198895767,cover=1.01071489
			8:leaf=-0.117782719,cover=67.4056473
		4:[f3<26.4150009] yes=9,no=10,missing=9,gain=0.673881531,cover=125.454285
			9:leaf=-0.206588924,cover=124.313721
			10:leaf=-0.0227618162,cover=1.14056468
	2:[f37<95] yes=5,no=6,missing=5,gain=135.245132,cover=31884.3223
		5:[f37<87.5] yes=11,no=12,missing=11,gain=224.386642,cover=4799.9917
			11:leaf=-0.0102736717,cover=3881.29614
			12:leaf=-0.124982372,cover=918.695557
		6:[f37<140.5] yes=13,no=14,missing=13,gain=337.355804,cover=27084.3301
			13:leaf=0.105208486,cover=1409.12878
			14:leaf=0.000313336001,cover=25675.2031
booster[37]
0:[f38<344.5] yes=1,no=2,missing=1,gain=140.635696,cover=32033.7734
	1:[f38<301] yes=3,no=4,missing=3,gain=224.528168,cover=30733.0605
		3:[f38<296.5] yes=7,no=8,missing=7,gain=170.659546,cover=26856.9707
			7:leaf=0.00115046813,cover=26553.1426
			8:leaf=0.158276036,cover=303.828491
		4:[f41<39] yes=9,no=10,missing=9,gain=678.810669,cover=3876.0896
			9:leaf=0.0792993456,cover=1204.1394
			10:leaf=-0.109464414,cover=2671.9502
	2:[f43<0.5] yes=5,no=6,missing=5,gain=129.595093,cover=1300.71167
		5:[f40<281.5] yes=11,no=12,missing=11,gain=98.2649155,cover=888.954651
			11:leaf=-0.0232997034,cover=629.422302
			12:leaf=0.129152566,cover=259.532349
		6:[f27<14.5450001] yes=13,no=14,missing=13,gain=29.8540039,cover=411.75705
			13:leaf=0.0980399624,cover=179.265533
			14:leaf=0.212297648,cover=232.491531
booster[38]
0:[f3<20.0699997] yes=1,no=2,missing=1,gain=116.268295,cover=31998.7227
	1:[f38<187.5] yes=3,no=4,missing=3,gain=119.594734,cover=27344.3008
		3:[f36<353.5] yes=7,no=8,missing=7,gain=164.750931,cover=10547.3232
			7:leaf=-0.000712792273,cover=8621.66992
			8:leaf=0.066823639,cover=1925.65344
		4:[f37<93.5] yes=9,no=10,missing=9,gain=247.667236,cover=16796.9785
			9:leaf=-0.0901075527,cover=1791.17383
			10:leaf=-0.00798212457,cover=15005.8037
	2:[f0<5487.5] yes=5,no=6,missing=5,gain=57.8759766,cover=4654.4209
		5:[f4<63.8950005] yes=11,no=12,missing=11,gain=13.4985867,cover=483.181122
			11:leaf=-0.129292563,cover=61.2262878
			12:leaf=-0.0250040311,cover=421.954834
		6:[f3<26.4150009] yes=13,no=14,missing=13,gain=42.8815613,cover=4171.23975
			13:leaf=0.0399112292,cover=4131.51611
			14:leaf=-0.175485358,cover=39.723484
booster[39]
0:[f3<7.5] yes=1,no=2,missing=1,gain=115.389778,cover=31957.8125
	1:[f38<73.5] yes=3,no=4,missing=3,gain=26.8706512,cover=786.584778
		3:[f15<0.682347655] yes=7,no=8,missing=7,gain=10.4008083,cover=169.934921
			7:leaf=0.0306911543,cover=112.318512
			8:leaf=-0.0776528418,cover=57.6164131
		4:[f25<0.5] yes=9,no=10,missing=9,gain=23.8021088,cover=616.649841
			9:leaf=-0.112069324,cover=568.025879
			10:leaf=0.0394372232,cover=48.6239853
	2:[f40<39.5] yes=5,no=6,missing=5,gain=105.627342,cover=31171.2285
		5:[f35<207.5] yes=11,no=12,missing=11,gain=174.481201,cover=2452.1084
			11:leaf=-0.00765930489,cover=1819.90613
			12:leaf=-0.134916827,cover=632.202332
		6:[f40<53] yes=13,no=14,missing=13,gain=144.857224,cover=28719.1191
			13:leaf=0.0742669478,cover=1244.8114
			14:leaf=0.00147144438,cover=27474.3086
booster[40]
0:[f46<9.5] yes=1,no=2,missing=1,gain=118.177872,cover=31942.0273
	1:[f15<0.67947042] yes=3,no=4,missing=3,gain=78.4601898,cover=23163.5312
		3:[f40<3] yes=7,no=8,missing=7,gain=57.8912125,cover=12628.8564
			7:leaf=-0.160788462,cover=77.191658
			8:leaf=0.0194443837,cover=12551.665
		4:[f46<2.5] yes=9,no=10,missing=9,gain=52.907753,cover=10534.6758
			9:leaf=0.0232837666,cover=2133.39307
			10:leaf=-0.0135299433,cover=8401.28223
	2:[f36<449.5] yes=5,no=6,missing=5,gain=80.655571,cover=8778.49512
		5:[f36<436.5] yes=11,no=12,missing=11,gain=58.9089508,cover=8601.65918
			11:leaf=-0.0202390142,cover=8499.32031
			12:leaf=0.138375014,cover=102.338913
		6:[f36<451.5] yes=13,no=14,missing=13,gain=28.0094376,cover=176.835892
			13:leaf=-0.210230976,cover=129.631546
			14:leaf=-0.0220629629,cover=47.2043381
booster[41]
0:[f39<300.5] yes=1,no=2,missing=1,gain=101.700035,cover=31883.5898
	1:[f38<273] yes=3,no=4,missing=3,gain=124.287926,cover=22861.6973
		3:[f36<23.5] yes=7,no=8,missing=7,gain=160.995056,cover=16579.248
			7:leaf=-0.0425821617,cover=1832.31567
			8:leaf=0.0230276641,cover=14746.9326
		4:[f37<370.5] yes=9,no=10,missing=9,gain=337.750092,cover=6282.44824
			9:leaf=0.0177396424,cover=4009.70654
			10:leaf=-0.0829966515,cover=2272.74146
	2:[f40<109.5] yes=5,no=6,missing=5,gain=542.58429,cover=9021.89453
		5:[f42<0.5] yes=11,no=12,missing=11,gain=223.568481,cover=2223.42529
			11:leaf=-0.145537689,cover=1712.58069
			12:leaf=0.0118197314,cover=510.844604
		6:[f36<237.5] yes=13,no=14,missing=13,gain=436.151093,cover=6798.46875
			13:leaf=0.0477907285,cover=4452.53809
			14:leaf=-0.0634379238,cover=2345.93091
booster[42]
0:[f26<0.5] yes=1,no=2,missing=1,gain=95.7692871,cover=31833.6855
	1:[f27<16.4850006] yes=3,no=4,missing=3,gain=88.8847427,cover=31117.6113
		3:[f15<0.659559548] yes=7,no=8,missing=7,gain=57.8980255,cover=13405.6543
			7:leaf=0.017073242,cover=2002.64709
			8:leaf=-0.0214143302,cover=11403.0068
		4:[f27<35.0049973] yes=9,no=10,missing=9,gain=78.8694,cover=17711.957
			9:leaf=0.00930681266,cover=17187.4297
			10:leaf=-0.0728095472,cover=524.527527
	2:[f0<4125] yes=5,no=6,missing=5,gain=17.5129929,cover=716.075073
		5:[f28<19.5] yes=11,no=12,missing=11,gain=8.33432198,cover=59.2115364
			11:leaf=-0.047728464,cover=58.1655006
			12:leaf=0.38157776,cover=1.04603612
		6:[f15<0.702977657] yes=13,no=14,missing=13,gain=19.6529007,cover=656.863525
			13:leaf=0.101782456,cover=529.98761
			14:leaf=0.0102259787,cover=126.875923
booster[43]
0:[f37<54.5] yes=1,no=2,missing=1,gain=85.3943939,cover=31780.4902
	1:[f37<49.5] yes=3,no=4,missing=3,gain=151.942719,cover=1295.10608
		3:[f37<12] yes=7,no=8,missing=7,gain=46.0568199,cover=745.782654
			7:leaf=-0.175882205,cover=54.4469376
			8:leaf=0.0218938515,cover=691.335754
		4:[f38<181.5] yes=9,no=10,missing=9,gain=77.8846893,cover=549.323425
			9:leaf=0.00932970829,cover=122.504341
			10:leaf=-0.179421678,cover=426.819092
	2:[f39<32.5] yes=5,no=6,missing=5,gain=91.5746307,cover=30485.3848
		5:[f38<114] yes=11,no=12,missing=11,gain=37.8278885,cover=1141.24329
			11:leaf=0.00019188103,cover=339.989075
			12:leaf=0.0832974836,cover=801.254211
		6:[f41<316.5] yes=13,no=14,missing=13,gain=126.127014,cover=29344.1406
			13:leaf=0.00625149952,cover=21942.7344
			14:leaf=-0.025267208,cover=7401.40771
booster[44]
0:[f3<17.0100002] yes=1,no=2,missing=1,gain=88.5066376,cover=31756.0938
	1:[f46<9.5] yes=3,no=4,missing=3,gain=80.2634964,cover=20432.8965
		3:[f9<0.5] yes=7,no=8,missing=7,gain=51.7446632,cover=14847.1689
			7:leaf=-0.00141252892,cover=14739.9473
			8:leaf=0.143496528,cover=107.221176
		4:[f38<101.5] yes=9,no=10,missing=9,gain=58.7506027,cover=5585.72803
			9:leaf=0.0091501344,cover=1300.43469
			10:leaf=-0.0415112488,cover=4285.29346
	2:[f9<0.5] yes=5,no=6,missing=5,gain=75.3967285,cover=11323.1973
		5:[f0<6062.5] yes=11,no=12,missing=11,gain=83.6324463,cover=7150.54541
			11:leaf=-0.0256083515,cover=1089.20862
			12:leaf=0.0372146778,cover=6061.33643
		6:[f3<19.2150002] yes=13,no=14,missing=13,gain=129.948486,cover=4172.65186
			13:leaf=-0.0729594156,cover=1007.18109
			14:leaf=0.0131144812,cover=3165.47095
booster[45]
0:[f40<3] yes=1,no=2,missing=1,gain=85.2296982,cover=31701.2109
	1:[f46<4.5] yes=3,no=4,missing=3,gain=9.08667755,cover=145.439529
		3:[f27<28.5349998] yes=7,no=8,missing=7,gain=6.85356903,cover=53.9164352
			7:leaf=-0.125655577,cover=42.7979965
			8:leaf=0.0540254638,cover=11.1184378
		4:[f3<24.6149998] yes=9,no=10,missing=9,gain=0.910202026,cover=91.5230942
			9:leaf=-0.202650994,cover=88.7742386
			10:leaf=-0.0546739399,cover=2.74885464
	2:[f35<421] yes=5,no=6,missing=5,gain=74.0405579,cover=31555.7715
		5:[f35<398] yes=11,no=12,missing=11,gain=312.808197,cover=30373.2656
			11:leaf=0.00354964612,cover=28990.6484
			12:leaf=-0.0980717838,cover=1382.61658
		6:[f36<405] yes=13,no=14,missing=13,gain=64.8734818,cover=1182.5061
			13:leaf=0.0835047364,cover=837.64856
			14:leaf=-0.0240185894,cover=344.857513
booster[46]
0:[f14<0.5] yes=1,no=2,missing=1,gain=76.4698715,cover=31676.8848
	1:[f37<360.5] yes=3,no=4,missing=3,gain=57.2270813,cover=17644.7324
		3:[f37<188.5] yes=7,no=8,missing=7,gain=89.0035782,cover=12653.4746
			7:leaf=-0.0188849811,cover=6680.43066
			8:leaf=0.0161905959,cover=5973.04346
		4:[f39<329] yes=9,no=10,missing=9,gain=197.304779,cover=4991.25732
			9:leaf=-0.0146367513,cover=4476.6626
			10:leaf=-0.151042342,cover=514.594849
	2:[f36<449.5] yes=5,no=6,missing=5,gain=56.6225319,cover=14032.1533
		5:[f36<354.5] yes=11,no=12,missing=11,gain=51.9880524,cover=13627.2383
			11:leaf=0.00450617913,cover=9408.37793
			12:leaf=0.0323998146,cover=4218.85986
		6:[f46<5.5] yes=13,no=14,missing=13,gain=59.5980644,cover=404.915344
			13:leaf=0.0164499469,cover=196.671417
			14:leaf=-0.143565923,cover=208.243927
booster[47]
0:[f3<7.89499998] yes=1,no=2,missing=1,gain=76.2851562,cover=31689.4609
	1:[f3<7.88500023] yes=3,no=4,missing=3,gain=28.493309,cover=1136.50525
		3:[f3<7.5] yes=7,no=8,missing=7,gain=31.6339188,cover=1021.19244
			7:leaf=-0.0669429377,cover=708.688354
			8:leaf=0.0127491234,cover=312.504089
		4:[f15<0.67923522] yes=9,no=10,missing=9,gain=2.39248657,cover=115.312805
			9:leaf=-0.192682043,cover=43.3624725
			10:leaf=-0.12479385,cover=71.9503326
	2:[f5<0.5] yes=5,no=6,missing=5,gain=97.0952835,cover=30552.957
		5:[f3<9.18499947] yes=11,no=12,missing=11,gain=183.606247,cover=29784.8008
			11:leaf=-0.131915286,cover=456.032898
			12:leaf=0.00145471073,cover=29328.7676
		6:[f27<24.4549999] yes=13,no=14,missing=13,gain=31.6806412,cover=768.154907
			13:leaf=0.0580488332,cover=669.059692
			14:leaf=0.184238538,cover=99.0952606
booster[48]
0:[f38<344.5] yes=1,no=2,missing=1,gain=73.9462585,cover=31620.0547
	1:[f38<294.5] yes=3,no=4,missing=3,gain=132.053955,cover=30253.8887
		3:[f38<289.5] yes=7,no=8,missing=7,gain=411.801788,cover=25990.4043
			7:leaf=3.90920504e-05,cover=25552.3008
			8:leaf=0.203973874,cover=438.102997
		4:[f41<39] yes=9,no=10,missing=9,gain=280.860657,cover=4263.48535
			9:leaf=0.0428104326,cover=1343.8844
			10:leaf=-0.0725096017,cover=2919.60083
	2:[f37<231.5] yes=5,no=6,missing=5,gain=83.9967041,cover=1366.16675
		5:[f40<285] yes=11,no=12,missing=11,gain=44.1520576,cover=747.302795
			11:leaf=-0.0300571378,cover=549.467163
			12:leaf=0.0847375691,cover=197.835648
		6:[f45<0.5] yes=13,no=14,missing=13,gain=33.6331482,cover=618.863892
			13:leaf=0.118855156,cover=568.460388
			14:leaf=-0.0581511781,cover=50.4035339
booster[49]
0:[f46<5.5] yes=1,no=2,missing=1,gain=70.3595047,cover=31617.5332
	1:[f36<53.5] yes=3,no=4,missing=3,gain=34.9218979,cover=12367.2627
		3:[f36<51] yes=7,no=8,missing=7,gain=51.8741493,cover=1725.2887
			7:leaf=-0.00631902367,cover=1610.94751
			8:leaf=-0.151278123,cover=114.341141
		4:[f36<99] yes=9,no=10,missing=9,gain=74.1820602,cover=10641.9746
			9:leaf=0.0694721565,cover=1021.78943
			10:leaf=0.0103239417,cover=9620.18457
	2:[f38<275.5] yes=5,no=6,missing=5,gain=111.655884,cover=19250.2715
		5:[f41<448.5] yes=11,no=12,missing=11,gain=78.2325592,cover=15360.0557
			11:leaf=-0.00408770004,cover=14579.4014
			12:leaf=0.0637165606,cover=780.65387
		6:[f38<289.5] yes=13,no=14,missing=13,gain=178.300079,cover=3890.21558
			13:leaf=-0.162169918,cover=459.926483
			14:leaf=-0.023843402,cover=3430.28906
booster[50]
0:[f29<0.5] yes=1,no=2,missing=1,gain=65.8806915,cover=31653.6035
	1:[f21<0.5] yes=3,no=4,missing=3,gain=65.7676926,cover=27247.2109
		3:[f41<7.5] yes=7,no=8,missing=7,gain=57.5284348,cover=22019.6816
			7:leaf=0.101242729,cover=292.765106
			8:leaf=0.00821860228,cover=21726.916
		4:[f3<11.5450001] yes=9,no=10,missing=9,gain=31.8514595,cover=5227.5293
			9:leaf=-0.0457435176,cover=1243.89221
			10:leaf=-0.00747785484,cover=3983.63672
	2:[f4<425.705017] yes=5,no=6,missing=5,gain=35.8085213,cover=4406.39404
		5:[f15<0.665723085] yes=11,no=12,missing=11,gain=36.9536896,cover=2977.72632
			11:leaf=-0.00655186502,cover=1140.28552
			12:leaf=-0.0544039644,cover=1837.44067
		6:[f38<253] yes=13,no=14,missing=13,gain=14.0124674,cover=1428.66748
			13:leaf=-0.0152487475,cover=760.719116
			14:leaf=0.0261673778,cover=667.948425
booster[51]
0:[f40<3] yes=1,no=2,missing=1,gain=63.9124374,cover=31653.1504
	1:[f46<4.5] yes=3,no=4,missing=3,gain=7.72536087,cover=122.739388
		3:[f25<0.5] yes=7,no=8,missing=7,gain=4.29099941,cover=49.3555641
			7:leaf=-0.100570403,cover=46.0574036
			8:leaf=0.121333681,cover=3.29816055
		4:[f3<24.6149998] yes=9,no=10,missing=9,gain=1.08440018,cover=73.3838196
			9:leaf=-0.197695255,cover=70.9750748
			10:leaf=-0.0370148718,cover=2.40874529
	2:[f42<0.5] yes=5,no=6,missing=5,gain=85.3898468,cover=31530.4121
		5:[f40<115.5] yes=11,no=12,missing=11,gain=110.761841,cover=26808.7695
			11:leaf=-0.0298616569,cover=5774.34668
			12:leaf=0.00278332108,cover=21034.4238
		6:[f37<359.5] yes=13,no=14,missing=13,gain=293.991516,cover=4721.64111
			13:leaf=0.0423168764,cover=4309.72266
			14:leaf=-0.142116994,cover=411.918701
booster[52]
0:[f27<10.7049999] yes=1,no=2,missing=1,gain=63.5385399,cover=31614.6855
	1:[f0<14487.5] yes=3,no=4,missing=3,gain=30.5719757,cover=6226.17188
		3:[f15<0.659635186] yes=7,no=8,missing=7,gain=25.7819138,cover=3941.21606
			7:leaf=-0.00262452243,cover=988.733337
			8:leaf=-0.0415812433,cover=2952.48267
		4:[f15<0.697095752] yes=9,no=10,missing=9,gain=33.0913353,cover=2284.95581
			9:leaf=0.0209043249,cover=1274.84045
			10:leaf=-0.029668631,cover=1010.1153
	2:[f3<23.2399998] yes=5,no=6,missing=5,gain=56.08358,cover=25388.5137
		5:[f1<0.5] yes=11,no=12,missing=11,gain=95.1109161,cover=23919.4219
			11:leaf=-0.0173851121,cover=8448.92871
			12:leaf=0.0101601258,cover=15470.4922
		6:[f3<26.4150009] yes=13,no=14,missing=13,gain=23.9725723,cover=1469.09253
			13:leaf=0.0461029038,cover=1442.55884
			14:leaf=-0.1507456,cover=26.5336952
booster[53]
0:[f37<54.5] yes=1,no=2,missing=1,gain=64.5485306,cover=31556.9414
	1:[f37<49.5] yes=3,no=4,missing=3,gain=98.1728363,cover=1237.95667
		3:[f37<12] yes=7,no=8,missing=7,gain=33.3942947,cover=768.299866
			7:leaf=-0.174681261,cover=44.4211273
			8:leaf=0.00987767149,cover=723.878784
		4:[f35<6.5] yes=9,no=10,missing=9,gain=75.0275421,cover=469.656769
			9:leaf=0.0165150482,cover=124.844765
			10:leaf=-0.172197923,cover=344.812012
	2:[f15<0.702926755] yes=5,no=6,missing=5,gain=63.8354874,cover=30318.9844
		5:[f35<394.5] yes=11,no=12,missing=11,gain=51.8389587,cover=27358.1133
			11:leaf=0.00824353658,cover=23862.7988
			12:leaf=-0.0189800095,cover=3495.31519
		6:[f38<8.5] yes=13,no=14,missing=13,gain=17.7490616,cover=2960.87061
			13:leaf=0.0515571535,cover=117.966713
			14:leaf=-0.0308028627,cover=2842.90405
booster[54]
0:[f46<2.5] yes=1,no=2,missing=1,gain=66.2603912,cover=31581.6133
	1:[f31<0.5] yes=3,no=4,missing=3,gain=44.9773521,cover=4681.20557
		3:[f1<0.5] yes=7,no=8,missing=7,gain=40.9266586,cover=1112.84912
			7:leaf=0.0134052848,cover=482.303314
			8:leaf=0.0942135155,cover=630.545837
		4:[f41<448.5] yes=9,no=10,missing=9,gain=28.3695564,cover=3568.35669
			9:leaf=0.00723431539,cover=3416.93799
			10:leaf=0.0993075147,cover=151.418701
	2:[f40<39.5] yes=5,no=6,missing=5,gain=53.6897125,cover=26900.4082
		5:[f40<37.5] yes=11,no=12,missing=11,gain=137.452179,cover=1918.85144
			11:leaf=-0.0139196385,cover=1620.1637
			12:leaf=-0.16786176,cover=298.687683
		6:[f40<53] yes=13,no=14,missing=13,gain=70.6100845,cover=24981.5566
			13:leaf=0.0489629656,cover=1142.43677
			14:leaf=-0.00415371545,cover=23839.1191
booster[55]
0:[f4<296.065002] yes=1,no=2,missing=1,gain=51.1488113,cover=31562.4531
	1:[f38<53] yes=3,no=4,missing=3,gain=47.6110039,cover=10325.0781
		3:[f1<0.5] yes=7,no=8,missing=7,gain=41.3087769,cover=1608.73096
			7:leaf=0.0792495608,cover=394.252045
			8:leaf=0.00153478899,cover=1214.47888
		4:[f39<31.5] yes=9,no=10,missing=9,gain=44.2638626,cover=8716.34668
			9:leaf=0.0484010465,cover=410.314819
			10:leaf=-0.0217768736,cover=8306.03223
	2:[f15<0.672405064] yes=5,no=6,missing=5,gain=61.961792,cover=21237.375
		5:[f17<0.5] yes=11,no=12,missing=11,gain=31.8925629,cover=6331.84814
			11:leaf=0.0329317003,cover=4325.34033
			12:leaf=0.00108228519,cover=2006.50769
		6:[f26<0.5] yes=13,no=14,missing=13,gain=44.6087914,cover=14905.5273
			13:leaf=-0.00373941474,cover=14494.0645
			14:leaf=0.0658977777,cover=411.463104
booster[56]
0:[f36<17.5] yes=1,no=2,missing=1,gain=56.1166763,cover=31525.1426
	1:[f36<12.5] yes=3,no=4,missing=3,gain=85.341301,cover=1487.56482
		3:[f40<310.5] yes=7,no=8,missing=7,gain=43.3144989,cover=958.2323
			7:leaf=0.129629165,cover=95.4124069
			8:leaf=-0.0179273244,cover=862.819885
		4:[f41<120] yes=9,no=10,missing=9,gain=55.6231995,cover=529.33252
			9:leaf=-0.0183075219,cover=193.806625
			10:leaf=-0.158835009,cover=335.525879
	2:[f36<99.5] yes=5,no=6,missing=5,gain=78.575325,cover=30037.5781
		5:[f41<154.5] yes=11,no=12,missing=11,gain=211.900284,cover=5372.17578
			11:leaf=-0.0168017428,cover=2722.83936
			12:leaf=0.0661307275,cover=2649.33618
		6:[f36<161.5] yes=13,no=14,missing=13,gain=210.385468,cover=24665.4023
			13:leaf=-0.0446268097,cover=4491.41895
			14:leaf=0.00533678429,cover=20173.9844
booster[57]
0:[f27<18.7750015] yes=1,no=2,missing=1,gain=52.9912758,cover=31524.4492
	1:[f29<0.5] yes=3,no=4,missing=3,gain=42.1241379,cover=16883.9727
		3:[f15<0.658985555] yes=7,no=8,missing=7,gain=33.205719,cover=14396.5195
			7:leaf=0.0198878367,cover=2187.33936
			8:leaf=-0.00804272294,cover=12209.1797
		4:[f4<513.820007] yes=9,no=10,missing=9,gain=25.0929909,cover=2487.4541
			9:leaf=-0.044455424,cover=1932.26001
			10:leaf=0.00589687238,cover=555.194031
	2:[f27<30.8549995] yes=5,no=6,missing=5,gain=39.7110519,cover=14640.4756
		5:[f46<7.5] yes=11,no=12,missing=11,gain=29.5485306,cover=12447.5791
			11:leaf=0.022292966,cover=7189.9248
			12:leaf=0.00169723388,cover=5257.6543
		6:[f18<0.5] yes=13,no=14,missing=13,gain=32.5787468,cover=2192.896
			13:leaf=-0.0441151559,cover=1021.18439
			14:leaf=0.00688692927,cover=1171.71167
booster[58]
0:[f40<3] yes=1,no=2,missing=1,gain=44.1638947,cover=31502.8926
	1:[f46<5.5] yes=3,no=4,missing=3,gain=8.41473007,cover=103.910545
		3:[f3<20.2399998] yes=7,no=8,missing=7,gain=4.05381393,cover=52.2290306
			7:leaf=-0.0959611684,cover=45.5206947
			8:leaf=0.0699725524,cover=6.70833492
		4:[f4<928.034973] yes=9,no=10,missing=9,gain=1.62485886,cover=51.6815109
			9:leaf=-0.201746613,cover=49.6016731
			10:leaf=-0.00896791089,cover=2.07984042
	2:[f37<54.5] yes=5,no=6,missing=5,gain=42.0946007,cover=31398.9824
		5:[f37<49.5] yes=11,no=12,missing=11,gain=74.6432953,cover=1189.27539
			11:leaf=0.00101341505,cover=767.42572
			12:leaf=-0.108239561,cover=421.849701
		6:[f35<420.5] yes=13,no=14,missing=13,gain=50.5963402,cover=30209.707
			13:leaf=0.000687018037,cover=29251.8516
			14:leaf=0.0494306423,cover=957.854004
booster[59]
0:[f3<6.51499987] yes=1,no=2,missing=1,gain=46.194603,cover=31517.6504
	1:[f3<5.36999989] yes=3,no=4,missing=3,gain=11.4021606,cover=303.828156
		3:leaf=-0.203085393,cover=29.3617706
		4:[f3<6.20499992] yes=7,no=8,missing=7,gain=7.88346291,cover=274.46637
			7:leaf=-0.0447953008,cover=197.025116
			8:leaf=-0.123521045,cover=77.4412537
	2:[f35<394.5] yes=5,no=6,missing=5,gain=40.2728004,cover=31213.8223
		5:[f35<366.5] yes=9,no=10,missing=9,gain=156.077332,cover=27092.0117
			9:leaf=-0.00178317144,cover=24391.918
			10:leaf=0.051114399,cover=2700.09399
		6:[f37<164] yes=11,no=12,missing=11,gain=170.467484,cover=4121.81152
			11:leaf=0.0810647979,cover=631.720276
			12:leaf=-0.0367295332,cover=3490.09131
booster[60]
0:[f11<0.5] yes=1,no=2,missing=1,gain=47.1922302,cover=31475.8574
	1:[f39<424.5] yes=3,no=4,missing=3,gain=38.8488731,cover=31045.5273
		3:[f39<423.5] yes=7,no=8,missing=7,gain=39.6071663,cover=30426.0762
			7:leaf=-0.000176300789,cover=30408.5723
			8:leaf=0.305406094,cover=17.503006
		4:[f37<130.5] yes=9,no=10,missing=9,gain=29.9199257,cover=619.451538
			9:leaf=-0.0642871484,cover=583.063049
			10:leaf=0.128588811,cover=36.388443
	2:[f41<13.5] yes=5,no=6,missing=5,gain=12.6940804,cover=430.33078
		5:[f4<403.839996] yes=11,no=12,missing=11,gain=2.64981866,cover=26.0078049
			11:leaf=0.044685252,cover=6.05218363
			12:leaf=-0.106350265,cover=19.9556198
		6:[f28<13.5] yes=13,no=14,missing=13,gain=8.97623062,cover=404.322998
			13:leaf=0.0556232445,cover=272.437439
			14:leaf=0.122281559,cover=131.885544
booster[61]
0:[f46<9.5] yes=1,no=2,missing=1,gain=39.9031487,cover=31462.9746
	1:[f36<163.5] yes=3,no=4,missing=3,gain=29.4018478,cover=23126.2461
		3:[f36<150.5] yes=7,no=8,missing=7,gain=167.8134,cover=8318.71387
			7:leaf=0.00499625225,cover=7413.36377
			8:leaf=-0.0901825279,cover=905.349548
		4:[f36<193.5] yes=9,no=10,missing=9,gain=158.431427,cover=14807.5332
			9:leaf=0.11154633,cover=641.560059
			10:leaf=0.00554050785,cover=14165.9727
	2:[f36<449.5] yes=5,no=6,missing=5,gain=44.1936302,cover=8336.72852
		5:[f38<363.5] yes=11,no=12,missing=11,gain=30.8035831,cover=8214.19238
			11:leaf=-0.0127425231,cover=7952.96924
			12:leaf=0.0599946305,cover=261.223389
		6:[f36<451.5] yes=13,no=14,missing=13,gain=25.8105812,cover=122.535568
			13:leaf=-0.208062381,cover=77.8798294
			14:leaf=-0.00919193402,cover=44.6557388
booster[62]
0:[f27<13.1049995] yes=1,no=2,missing=1,gain=37.2046661,cover=31452.5078
	1:[f4<451.779999] yes=3,no=4,missing=3,gain=34.2007065,cover=8940.01758
		3:[f15<0.657923222] yes=7,no=8,missing=7,gain=21.600914,cover=5767.79492
			7:leaf=0.00200514146,cover=1290.16833
			8:leaf=-0.028656289,cover=4477.62646
		4:[f15<0.7073071] yes=9,no=10,missing=9,gain=20.6615753,cover=3172.22266
			9:leaf=0.0145025384,cover=2430.16479
			10:leaf=-0.0252824184,cover=742.057861
	2:[f38<294.5] yes=5,no=6,missing=5,gain=38.605217,cover=22512.4902
		5:[f38<289.5] yes=11,no=12,missing=11,gain=87.6756439,cover=18295.0898
			11:leaf=0.00556368148,cover=17849.7637
			12:leaf=0.0992572308,cover=445.32666
		6:[f39<320] yes=13,no=14,missing=13,gain=116.267418,cover=4217.40088
			13:leaf=-0.00235135271,cover=3769.89331
			14:leaf=-0.114808418,cover=447.507324
booster[63]
0:[f36<17.5] yes=1,no=2,missing=1,gain=41.9146233,cover=31495.168
	1:[f39<197.5] yes=3,no=4,missing=3,gain=69.094223,cover=1448.8208
		3:[f36<12.5] yes=7,no=8,missing=7,gain=67.9337006,cover=1445.9281
			7:leaf=-0.00507939886,cover=963.644104
			8:leaf=-0.101011254,cover=482.283966
		4:[f30<16.5] yes=9,no=10,missing=9,gain=10.6306801,cover=2.89268064
			9:leaf=0.20596844,cover=1.41131067
			10:leaf=1.12375557,cover=1.48137009
	2:[f36<99.5] yes=5,no=6,missing=5,gain=51.9927826,cover=30046.3477
		5:[f41<154.5] yes=11,no=12,missing=11,gain=129.003799,cover=5484.73389
			11:leaf=-0.0128414501,cover=2677.81445
			12:leaf=0.0512116849,cover=2806.91968
		6:[f36<107.5] yes=13,no=14,missing=13,gain=126.163551,cover=24561.6133
			13:leaf=-0.0973337963,cover=596.244568
			14:leaf=-0.000178479342,cover=23965.3691
booster[64]
0:[f38<187.5] yes=1,no=2,missing=1,gain=39.345871,cover=31412.1875
	1:[f38<158] yes=3,no=4,missing=3,gain=61.0152817,cover=12075.9463
		3:[f37<419.5] yes=7,no=8,missing=7,gain=53.0682564,cover=10992.8457
			7:leaf=0.00614416273,cover=10854.6318
			8:leaf=-0.123596258,cover=138.214035
		4:[f37<388] yes=9,no=10,missing=9,gain=89.5479202,cover=1083.10059
			9:leaf=0.0433072709,cover=1035
			10:leaf=0.332007229,cover=48.1006317
	2:[f39<381.5] yes=5,no=6,missing=5,gain=105.451553,cover=19336.2422
		5:[f39<306.5] yes=11,no=12,missing=11,gain=126.306419,cover=17616.2383
			11:leaf=-0.00691696815,cover=15953.4434
			12:leaf=0.0535382554,cover=1662.7948
		6:[f40<173.5] yes=13,no=14,missing=13,gain=164.462952,cover=1720.00415
			13:leaf=-0.114066884,cover=940.860474
			14:leaf=0.0155894645,cover=779.143677
booster[65]
0:[f0<3587.5] yes=1,no=2,missing=1,gain=37.1906853,cover=31423.4863
	1:[f5<0.5] yes=3,no=4,missing=3,gain=31.633419,cover=1879.198
		3:[f39<28.5] yes=7,no=8,missing=7,gain=11.4901428,cover=1751.45605
			7:leaf=0.0521501936,cover=61.6374626
			8:leaf=-0.0390360951,cover=1689.8186
		4:[f36<305.5] yes=9,no=10,missing=9,gain=14.2500906,cover=127.741898
			9:leaf=0.135558099,cover=68.5460281
			10:leaf=-0.00376535417,cover=59.1958694
	2:[f15<0.672374725] yes=5,no=6,missing=5,gain=41.5775948,cover=29544.2891
		5:[f31<0.5] yes=11,no=12,missing=11,gain=36.3725357,cover=11470.709
			11:leaf=0.0312344041,cover=3036.85669
			12:leaf=0.00458751805,cover=8433.85254
		6:[f21<0.5] yes=13,no=14,missing=13,gain=31.2047234,cover=18073.5801
			13:leaf=-0.000328325084,cover=14776.0762
			14:leaf=-0.0227897447,cover=3297.50317
booster[66]
0:[f37<54.5] yes=1,no=2,missing=1,gain=40.8028526,cover=31436.7773
	1:[f36<384] yes=3,no=4,missing=3,gain=57.7364883,cover=1161.43164
		3:[f36<374] yes=7,no=8,missing=7,gain=23.322155,cover=1026.15381
			7:leaf=-0.0356594399,cover=852.665344
			8:leaf=0.0481349491,cover=173.488464
		4:[f46<5.5] yes=9,no=10,missing=9,gain=5.17209625,cover=135.277771
			9:leaf=-0.118610203,cover=62.4117622
			10:leaf=-0.204701871,cover=72.8660049
	2:[f39<437.5] yes=5,no=6,missing=5,gain=40.612648,cover=30275.3457
		5:[f40<40.5] yes=11,no=12,missing=11,gain=40.4804115,cover=30213.1699
			11:leaf=-0.0228512697,cover=2653.89771
			12:leaf=0.00414477987,cover=27559.2715
		6:[f46<2.5] yes=13,no=14,missing=13,gain=3.04528809,cover=62.1770096
			13:leaf=-0.0656840205,cover=12.3132963
			14:leaf=-0.18876043,cover=49.8637123
booster[67]
0:[f46<7.5] yes=1,no=2,missing=1,gain=38.3407211,cover=31426.7363
	1:[f28<5.5] yes=3,no=4,missing=3,gain=22.2558022,cover=18210.2031
		3:[f37<71.5] yes=7,no=8,missing=7,gain=7.70840168,cover=1812.66833
			7:leaf=-0.0719169229,cover=102.755745
			8:leaf=-0.013280143,cover=1709.9126
		4:[f14<0.5] yes=9,no=10,missing=9,gain=22.5462646,cover=16397.5352
			9:leaf=0.000931402144,cover=9254.56836
			10:leaf=0.0165458079,cover=7142.96777
	2:[f38<273.5] yes=5,no=6,missing=5,gain=62.2930527,cover=13216.5322
		5:[f38<270.5] yes=11,no=12,missing=11,gain=40.5055389,cover=10684.5215
			11:leaf=-0.0040987609,cover=10520.1035
			12:leaf=0.100033313,cover=164.418091
		6:[f38<344.5] yes=13,no=14,missing=13,gain=105.99012,cover=2532.01001
			13:leaf=-0.0633801222,cover=1906.04712
			14:leaf=0.0355974585,cover=625.96283
booster[68]
0:[f35<394.5] yes=1,no=2,missing=1,gain=32.0089493,cover=31373.6504
	1:[f35<366.5] yes=3,no=4,missing=3,gain=87.2490311,cover=27309.8672
		3:[f41<446.5] yes=7,no=8,missing=7,gain=126.553291,cover=24493.0996
			7:leaf=-0.00108513702,cover=24299.7539
			8:leaf=-0.170249909,cover=193.345505
		4:[f39<48] yes=9,no=10,missing=9,gain=42.5037689,cover=2816.76733
			9:leaf=0.0242642444,cover=2305.13306
			10:leaf=0.090758279,cover=511.634277
	2:[f39<38.5] yes=5,no=6,missing=5,gain=137.705261,cover=4063.78247
		5:[f3<24.2449989] yes=11,no=12,missing=11,gain=5.07707214,cover=222.543137
			11:leaf=-0.183031842,cover=216.06427
			12:leaf=0.00394206075,cover=6.47886562
		6:[f37<236.5] yes=13,no=14,missing=13,gain=95.3033142,cover=3841.23926
			13:leaf=0.046624817,cover=993.935486
			14:leaf=-0.0284418017,cover=2847.30371
booster[69]
0:[f3<6.51499987] yes=1,no=2,missing=1,gain=30.7913303,cover=31341.3164
	1:[f3<5.36999989] yes=3,no=4,missing=3,gain=9.40080833,cover=276.021423
		3:leaf=-0.200310022,cover=21.3821144
		4:[f39<259.5] yes=7,no=8,missing=7,gain=5.24833107,cover=254.639313
			7:leaf=-0.0824429169,cover=154.196701
			8:leaf=-0.020918671,cover=100.442604
	2:[f38<211.5] yes=5,no=6,missing=5,gain=30.3485355,cover=31065.2949
		5:[f40<389.5] yes=9,no=10,missing=9,gain=51.1395874,cover=15346.4824
			9:leaf=0.00809534732,cover=15081.543
			10:leaf=-0.0842716843,cover=264.939819
		6:[f39<381.5] yes=11,no=12,missing=11,gain=160.987915,cover=15718.8125
			11:leaf=-0.00153454067,cover=14879.0225
			12:leaf=-0.0954464003,cover=839.789795
booster[70]
0:[f40<3] yes=1,no=2,missing=1,gain=30.0946426,cover=31327.3828
	1:[f46<5.5] yes=3,no=4,missing=3,gain=8.90949821,cover=91.4393921
		3:[f27<28.5349998] yes=7,no=8,missing=7,gain=3.46581054,cover=49.4080505
			7:leaf=-0.087781556,cover=37.505909
			8:leaf=0.0385794342,cover=11.9021425
		4:[f27<9.06500053] yes=9,no=10,missing=9,gain=0.527492523,cover=42.0313454
			9:leaf=-0.0800787956,cover=3.73015642
			10:leaf=-0.197136059,cover=38.3011894
	2:[f40<4.5] yes=5,no=6,missing=5,gain=44.9012451,cover=31235.9434
		5:[f15<0.652513027] yes=11,no=12,missing=11,gain=11.8225136,cover=120.136948
			11:leaf=0.340132207,cover=9.59091854
			12:leaf=0.10572987,cover=110.546028
		6:[f14<0.5] yes=13,no=14,missing=13,gain=30.5315285,cover=31115.8066
			13:leaf=-0.00621155975,cover=17055.2285
			14:leaf=0.00693011563,cover=14060.5771
booster[71]
0:[f7<0.5] yes=1,no=2,missing=1,gain=35.1911964,cover=31311.207
	1:[f3<11.6900005] yes=3,no=4,missing=3,gain=41.9192047,cover=22141.1523
		3:[f3<11.1800003] yes=7,no=8,missing=7,gain=40.7062263,cover=5269.7002
			7:leaf=-0.00527559733,cover=4579.88867
			8:leaf=-0.059650749,cover=689.811462
		4:[f3<15.3500004] yes=9,no=10,missing=9,gain=95.852829,cover=16871.4531
			9:leaf=0.03974206,cover=3489.7876
			10:leaf=0.000890715804,cover=13381.665
	2:[f3<13.3400002] yes=5,no=6,missing=5,gain=144.16655,cover=9170.05469
		5:[f3<11.9799995] yes=11,no=12,missing=11,gain=102.51265,cover=1539.01172
			11:leaf=0.282803178,cover=34.1730995
			12:leaf=-0.0779948235,cover=1504.83862
		6:[f31<0.5] yes=13,no=14,missing=13,gain=43.4740067,cover=7631.04346
			13:leaf=0.025928257,cover=2084.81909
			14:leaf=-0.00943221338,cover=5546.22461
booster[72]
0:[f21<0.5] yes=1,no=2,missing=1,gain=31.4898586,cover=31286.5781
	1:[f27<16.4850006] yes=3,no=4,missing=3,gain=28.9416275,cover=25544.3887
		3:[f38<187.5] yes=7,no=8,missing=7,gain=26.5320187,cover=11047.9043
			7:leaf=0.00647824816,cover=4762.10449
			8:leaf=-0.014182223,cover=6285.80029
		4:[f36<394.5] yes=9,no=10,missing=9,gain=29.2860432,cover=14496.4844
			9:leaf=0.00448962301,cover=11866.5957
			10:leaf=0.0288398508,cover=2629.88892
	2:[f0<3437.5] yes=5,no=6,missing=5,gain=18.1479912,cover=5742.18896
		5:[f27<18.1150017] yes=11,no=12,missing=11,gain=6.01737213,cover=182.932281
			11:leaf=-0.113187544,cover=99.9854736
			12:leaf=-0.0366507135,cover=82.9468002
		6:[f38<252.5] yes=13,no=14,missing=13,gain=16.2182598,cover=5559.25684
			13:leaf=-0.0212609861,cover=3377.85547
			14:leaf=0.0018337355,cover=2181.40137
booster[73]
0:[f46<2.5] yes=1,no=2,missing=1,gain=30.5867805,cover=31281.8281
	1:[f31<0.5] yes=3,no=4,missing=3,gain=34.5286865,cover=4760.51709
		3:[f27<22.2550011] yes=7,no=8,missing=7,gain=14.1211548,cover=1155.36658
			7:leaf=0.0305592697,cover=749.236755
			8:leaf=0.0789467692,cover=406.129852
		4:[f27<34.8549995] yes=9,no=10,missing=9,gain=18.0881691,cover=3605.15039
			9:leaf=0.0045230831,cover=3562.8623
			10:leaf=0.140315577,cover=42.2880745
	2:[f36<449.5] yes=5,no=6,missing=5,gain=45.5661964,cover=26521.3105
		5:[f36<435.5] yes=11,no=12,missing=11,gain=46.7592735,cover=26056.1484
			11:leaf=-0.00191189221,cover=25645.4219
			12:leaf=0.0690162703,cover=410.725952
		6:[f46<5.5] yes=13,no=14,missing=13,gain=31.4063034,cover=465.1633
			13:leaf=0.00339745684,cover=174.491409
			14:leaf=-0.108572103,cover=290.671906
booster[74]
0:[f26<0.5] yes=1,no=2,missing=1,gain=32.7096748,cover=31325.0371
	1:[f42<0.5] yes=3,no=4,missing=3,gain=28.9590454,cover=30549.3438
		3:[f40<144.5] yes=7,no=8,missing=7,gain=67.7801666,cover=25721.2012
			7:leaf=-0.0208828393,cover=7341.40186
			8:leaf=0.0028496983,cover=18379.7988
		4:[f37<359.5] yes=9,no=10,missing=9,gain=143.280441,cover=4828.14307
			9:leaf=0.0231561903,cover=4516.42773
			10:leaf=-0.122990943,cover=311.715332
	2:[f37<167] yes=5,no=6,missing=5,gain=12.2601299,cover=775.693176
		5:[f37<97.5] yes=11,no=12,missing=11,gain=14.72995,cover=208.616013
			11:leaf=0.0330433995,cover=111.258438
			12:leaf=0.144346058,cover=97.3575821
		6:[f27<31.6450005] yes=13,no=14,missing=13,gain=10.1481256,cover=567.077148
			13:leaf=0.0305675808,cover=554.464478
			14:leaf=-0.15205127,cover=12.6127214
booster[75]
0:[f36<16.5] yes=1,no=2,missing=1,gain=28.4290466,cover=31303.5332
	1:[f36<12.5] yes=3,no=4,missing=3,gain=81.2905045,cover=1230.15784
		3:[f39<197.5] yes=7,no=8,missing=7,gain=28.9286175,cover=964.912781
			7:leaf=-0.00482297642,cover=962.312988
			8:leaf=0.588191152,cover=2.59982061
		4:[f46<4.5] yes=9,no=10,missing=9,gain=19.0862732,cover=265.244995
			9:leaf=-0.063599579,cover=106.294991
			10:leaf=-0.178629562,cover=158.950027
	2:[f36<140.5] yes=5,no=6,missing=5,gain=47.8951225,cover=30073.377
		5:[f38<300] yes=11,no=12,missing=11,gain=83.228241,cover=7749.78223
			11:leaf=0.0258948766,cover=6344.01855
			12:leaf=-0.0302427895,cover=1405.76379
		6:[f36<161.5] yes=13,no=14,missing=13,gain=182.65535,cover=22323.5938
			13:leaf=-0.0616664216,cover=2117.76172
			14:leaf=0.00277399737,cover=20205.832
booster[76]
0:[f35<398] yes=1,no=2,missing=1,gain=26.3210697,cover=31337.2559
	1:[f40<40.5] yes=3,no=4,missing=3,gain=34.3890152,cover=28913.834
		3:[f37<378] yes=7,no=8,missing=7,gain=127.003799,cover=2569.32593
			7:leaf=-0.00614152756,cover=2313.2251
			8:leaf=-0.160838276,cover=256.10083
		4:[f40<53] yes=9,no=10,missing=9,gain=91.1828537,cover=26344.5078
			9:leaf=0.0664578825,cover=970.640625
			10:leaf=0.00128084328,cover=25373.8672
	2:[f37<180] yes=5,no=6,missing=5,gain=103.502274,cover=2423.42358
		5:[f37<40] yes=11,no=12,missing=11,gain=42.4184685,cover=822.961731
			11:leaf=-0.0565437302,cover=162.070496
			12:leaf=0.0623945296,cover=660.891235
		6:[f39<108.5] yes=13,no=14,missing=13,gain=90.5251999,cover=1600.46179
			13:leaf=-0.0780335516,cover=1258.19812
			14:leaf=0.0429698527,cover=342.263733
booster[77]
0:[f3<17.0100002] yes=1,no=2,missing=1,gain=29.3255825,cover=31273.6719
	1:[f10<0.5] yes=3,no=4,missing=3,gain=39.0421066,cover=19858.9258
		3:[f38<294.5] yes=7,no=8,missing=7,gain=33.4202652,cover=19844.6641
			7:leaf=-0.00172616774,cover=16427.9004
			8:leaf=-0.0244200416,cover=3416.76416
		4:[f38<217] yes=9,no=10,missing=9,gain=17.9057884,cover=14.2600069
			9:leaf=0.0955117494,cover=7.86286688
			10:leaf=0.563196063,cover=6.39714003
	2:[f0<6062.5] yes=5,no=6,missing=5,gain=50.6343422,cover=11414.7471
		5:[f0<2012.5] yes=11,no=12,missing=11,gain=13.8143291,cover=1573.28796
			11:leaf=-0.0758019164,cover=215.980392
			12:leaf=-0.0190309789,cover=1357.3075
		6:[f1<0.5] yes=13,no=14,missing=13,gain=30.8639946,cover=9841.45996
			13:leaf=0.00504124258,cover=6480.83789
			14:leaf=0.0296980143,cover=3360.62183
booster[78]
0:[f37<71.5] yes=1,no=2,missing=1,gain=29.3850441,cover=31250.1348
	1:[f39<9.5] yes=3,no=4,missing=3,gain=17.9166164,cover=2110.73047
		3:[f15<0.666000605] yes=7,no=8,missing=7,gain=13.8921528,cover=103.323959
			7:leaf=0.157978609,cover=38.6060257
			8:leaf=0.000958370045,cover=64.7179337
		4:[f38<196.5] yes=9,no=10,missing=9,gain=26.8226128,cover=2007.40637
			9:leaf=-0.0161666926,cover=1608.92883
			10:leaf=-0.0766329244,cover=398.47757
	2:[f37<83.5] yes=5,no=6,missing=5,gain=33.7986794,cover=29139.4043
		5:[f40<141] yes=11,no=12,missing=11,gain=34.2190323,cover=1205.50696
			11:leaf=-0.220575988,cover=21.2862988
			12:leaf=0.0406869873,cover=1184.2207
		6:[f37<93.5] yes=13,no=14,missing=13,gain=58.5742264,cover=27933.8965
			13:leaf=-0.0500599854,cover=974.608643
			14:leaf=0.0020192971,cover=26959.2891
booster[79]
0:[f40<3] yes=1,no=2,missing=1,gain=26.8997421,cover=31262.5918
	1:[f46<4.5] yes=3,no=4,missing=3,gain=9.93292427,cover=86.2033691
		3:[f25<0.5] yes=7,no=8,missing=7,gain=5.05706453,cover=42.6677132
			7:leaf=-0.0645399094,cover=39.4556847
			8:leaf=0.176835269,cover=3.21202826
		4:[f15<0.696954429] yes=9,no=10,missing=9,gain=1.8746376,cover=43.5356598
			9:leaf=-0.202442423,cover=37.5054817
			10:leaf=-0.0632319674,cover=6.0301795
	2:[f28<8.5] yes=5,no=6,missing=5,gain=25.2172546,cover=31176.3887
		5:[f15<0.658782959] yes=11,no=12,missing=11,gain=32.4448471,cover=10613.1484
			11:leaf=0.0110747786,cover=2839.61206
			12:leaf=-0.0150007447,cover=7773.53613
		6:[f15<0.695069313] yes=13,no=14,missing=13,gain=25.295639,cover=20563.2402
			13:leaf=0.00824055821,cover=16322.7402
			14:leaf=-0.00985844433,cover=4240.50049
booster[80]
0:[f46<2.5] yes=1,no=2,missing=1,gain=23.1481743,cover=31234.5215
	1:[f31<0.5] yes=3,no=4,missing=3,gain=16.8518314,cover=4787.61035
		3:[f2<0.5] yes=7,no=8,missing=7,gain=10.3541489,cover=1190.78674
			7:leaf=0.0512748919,cover=707.633362
			8:leaf=0.0116049554,cover=483.153351
		4:[f4<478.630005] yes=9,no=10,missing=9,gain=16.4405575,cover=3596.82373
			9:leaf=-0.0044991523,cover=2230.30444
			10:leaf=0.0245769303,cover=1366.51929
	2:[f36<449.5] yes=5,no=6,missing=5,gain=32.1878967,cover=26446.9102
		5:[f40<40.5] yes=11,no=12,missing=11,gain=27.6088238,cover=26004.6348
			11:leaf=-0.0239097942,cover=2130.76416
			12:leaf=0.000890490832,cover=23873.8711
		6:[f45<0.5] yes=13,no=14,missing=13,gain=32.2976265,cover=442.275665
			13:leaf=0.0425878316,cover=105.55883
			14:leaf=-0.0894158036,cover=336.716827
booster[81]
0:[f29<1.5] yes=1,no=2,missing=1,gain=21.57411,cover=31254.5059
	1:[f21<0.5] yes=3,no=4,missing=3,gain=21.1093483,cover=30668.8945
		3:[f37<12] yes=7,no=8,missing=7,gain=22.6065998,cover=25065.168
			7:leaf=-0.179344147,cover=28.5858517
			8:leaf=0.00328268181,cover=25036.582
		4:[f3<17.0499992] yes=9,no=10,missing=9,gain=16.7850418,cover=5603.72656
			9:leaf=-0.0177612714,cover=4184.54102
			10:leaf=0.00851089507,cover=1419.18579
	2:[f4<1010.39502] yes=5,no=6,missing=5,gain=11.7079163,cover=585.612915
		5:[f27<14.3850002] yes=11,no=12,missing=11,gain=8.40691566,cover=568.213867
			11:leaf=-0.0753713921,cover=234.905258
			12:leaf=-0.0237500481,cover=333.308624
		6:[f27<12.9499998] yes=13,no=14,missing=13,gain=6.25884581,cover=17.3990326
			13:leaf=0.244237006,cover=8.34061337
			14:leaf=0.000581637316,cover=9.05842018
booster[82]
0:[f41<7.5] yes=1,no=2,missing=1,gain=23.6360302,cover=31211.6016
	1:[f44<0.5] yes=3,no=4,missing=3,gain=5.56716537,cover=424.650909
		3:[f28<10.5] yes=7,no=8,missing=7,gain=6.21892357,cover=109.988556
			7:leaf=0.0491192564,cover=68.4040604
			8:leaf=0.151934177,cover=41.5844955
		4:[f27<8.125] yes=9,no=10,missing=9,gain=8.30185413,cover=314.662354
			9:leaf=0.131516516,cover=33.2451172
			10:leaf=0.022478722,cover=281.417236
	2:[f41<8.5] yes=5,no=6,missing=5,gain=69.5651932,cover=30786.9512
		5:[f27<38.4300003] yes=11,no=12,missing=11,gain=3.81015015,cover=92.2658386
			11:leaf=-0.186938405,cover=90.5087967
			12:leaf=0.0853890255,cover=1.75703681
		6:[f38<344.5] yes=13,no=14,missing=13,gain=23.7717056,cover=30694.6855
			13:leaf=-0.00157918734,cover=29255.1641
			14:leaf=0.0258958284,cover=1439.52112
booster[83]
0:[f4<293.61499] yes=1,no=2,missing=1,gain=26.3545818,cover=31204.7188
	1:[f38<26.5] yes=3,no=4,missing=3,gain=21.7287388,cover=9946.06738
		3:[f1<0.5] yes=7,no=8,missing=7,gain=27.4199982,cover=999.395752
			7:leaf=0.0744823217,cover=287.001007
			8:leaf=-0.00186231628,cover=712.394775
		4:[f46<11.5] yes=9,no=10,missing=9,gain=22.4045181,cover=8946.67188
			9:leaf=-0.00951181911,cover=8339.72363
			10:leaf=-0.0510336347,cover=606.947998
	2:[f15<0.653829396] yes=5,no=6,missing=5,gain=25.4841461,cover=21258.6523
		5:[f41<313.5] yes=11,no=12,missing=11,gain=14.2460117,cover=998.156067
			11:leaf=0.0523675531,cover=710.200073
			12:leaf=-0.00267064222,cover=287.955994
		6:[f3<22.0249996] yes=13,no=14,missing=13,gain=22.9611416,cover=20260.4961
			13:leaf=-0.000101583588,cover=18073.6348
			14:leaf=0.0225464404,cover=2186.8606
booster[84]
0:[f14<0.5] yes=1,no=2,missing=1,gain=24.3575764,cover=31227.9629
	1:[f40<239.5] yes=3,no=4,missing=3,gain=26.8076248,cover=17074.9688
		3:[f35<195.5] yes=7,no=8,missing=7,gain=35.1950645,cover=10817.8672
			7:leaf=0.0196215361,cover=3240.67627
			8:leaf=-0.00637497474,cover=7577.19092
		4:[f37<429.5] yes=9,no=10,missing=9,gain=23.7662354,cover=6257.10059
			9:leaf=-0.0176229961,cover=6128.6709
			10:leaf=0.0728008747,cover=128.429718
	2:[f31<0.5] yes=5,no=6,missing=5,gain=35.8717117,cover=14152.9941
		5:[f35<13.5] yes=11,no=12,missing=11,gain=31.3444138,cover=3716.89917
			11:leaf=-0.0994288251,cover=86.0170593
			12:leaf=0.0274077747,cover=3630.88208
		6:[f27<0.155000001] yes=13,no=14,missing=13,gain=16.3829002,cover=10436.0947
			13:leaf=0.220725834,cover=13.7144661
			14:leaf=0.000250470941,cover=10422.3799
booster[85]
0:[f27<20.1949997] yes=1,no=2,missing=1,gain=19.0068512,cover=31192.9668
	1:[f38<186.5] yes=3,no=4,missing=3,gain=23.2905426,cover=18553.6465
		3:[f38<183.5] yes=7,no=8,missing=7,gain=21.8465099,cover=7739.59668
			7:leaf=0.0035106868,cover=7701.87646
			8:leaf=0.160744771,cover=37.7200279
		4:[f37<430.5] yes=9,no=10,missing=9,gain=26.7022877,cover=10814.0498
			9:leaf=-0.0116186803,cover=10731.5889
			10:leaf=0.106949218,cover=82.4607391
	2:[f1<0.5] yes=5,no=6,missing=5,gain=30.1751289,cover=12639.3203
		5:[f16<0.5] yes=11,no=12,missing=11,gain=42.1476746,cover=4980.54736
			11:leaf=-0.000349657901,cover=4504.66113
			12:leaf=-0.0656268522,cover=475.88623
		6:[f31<0.5] yes=13,no=14,missing=13,gain=47.8280449,cover=7658.77246
			13:leaf=0.0419129469,cover=2011.92383
			14:leaf=0.00442651287,cover=5646.84863
booster[86]
0:[f3<7.89499998] yes=1,no=2,missing=1,gain=18.6340275,cover=31235.3613
	1:[f3<7.71500015] yes=3,no=4,missing=3,gain=16.5735397,cover=987.857178
		3:[f46<1.5] yes=7,no=8,missing=7,gain=12.7718239,cover=870.909058
			7:leaf=0.0694776028,cover=65.2094269
			8:leaf=-0.0259474143,cover=805.699585
		4:[f46<6.5] yes=9,no=10,missing=9,gain=4.0478096,cover=116.948151
			9:leaf=-0.0610125549,cover=57.475502
			10:leaf=-0.14028661,cover=59.4726448
	2:[f5<0.5] yes=5,no=6,missing=5,gain=42.0169334,cover=30247.5039
		5:[f3<9.18499947] yes=11,no=12,missing=11,gain=61.067421,cover=29397.7051
			11:leaf=-0.0915100202,cover=319.734802
			12:leaf=0.000100276055,cover=29077.9707
		6:[f41<137.5] yes=13,no=14,missing=13,gain=21.1701736,cover=849.7995
			13:leaf=0.00829210691,cover=366.600311
			14:leaf=0.0748288855,cover=483.199188
booster[87]
0:[f36<17.5] yes=1,no=2,missing=1,gain=18.3787155,cover=31202.7109
	1:[f37<322.5] yes=3,no=4,missing=3,gain=36.8837204,cover=1365.52722
		3:[f35<85.5] yes=7,no=8,missing=7,gain=33.2515945,cover=1249.90955
			7:leaf=-0.0131256673,cover=909.181335
			8:leaf=-0.0895429999,cover=340.72821
		4:[f29<0.5] yes=9,no=10,missing=9,gain=12.28895,cover=115.617729
			9:leaf=0.0721626952,cover=110.539711
			10:leaf=0.379258245,cover=5.07801771
	2:[f36<22.5] yes=5,no=6,missing=5,gain=31.446043,cover=29837.1836
		5:[f40<14] yes=11,no=12,missing=11,gain=27.5110359,cover=383.137848
			11:leaf=0.00139240513,cover=181.117676
			12:leaf=0.113338172,cover=202.020172
		6:[f36<23.5] yes=13,no=14,missing=13,gain=18.3378544,cover=29454.0469
			13:leaf=-0.100862503,cover=76.7134476
			14:leaf=0.00069929543,cover=29377.334
booster[88]
0:[f39<437.5] yes=1,no=2,missing=1,gain=19.1409664,cover=31197.3398
	1:[f4<293.5] yes=3,no=4,missing=3,gain=17.9986095,cover=31066.0156
		3:[f15<0.639436126] yes=7,no=8,missing=7,gain=21.4335155,cover=9823.10449
			7:leaf=0.0250995178,cover=845.399048
			8:leaf=-0.00965903234,cover=8977.70605
		4:[f1<0.5] yes=9,no=10,missing=9,gain=22.8695736,cover=21242.9102
			9:leaf=-0.003517529,cover=9440.4043
			10:leaf=0.0102693802,cover=11802.5068
	2:[f39<446.5] yes=5,no=6,missing=5,gain=28.9657574,cover=131.324509
		5:[f24<0.5] yes=11,no=12,missing=11,gain=4.87190247,cover=79.5360184
			11:leaf=-0.164234266,cover=78.3662491
			12:leaf=0.170627847,cover=1.16976821
		6:[f3<16.1399994] yes=13,no=14,missing=13,gain=7.44293785,cover=51.7884979
			13:leaf=-0.0231077578,cover=30.8801994
			14:leaf=0.135400221,cover=20.9082985
booster[89]
0:[f38<294.5] yes=1,no=2,missing=1,gain=20.522089,cover=31174.7676
	1:[f38<289.5] yes=3,no=4,missing=3,gain=47.5720367,cover=25813.207
		3:[f38<280.5] yes=7,no=8,missing=7,gain=78.9459534,cover=25164.6641
			7:leaf=0.00218736799,cover=24875.4023
			8:leaf=-0.107339218,cover=289.261841
		4:[f15<0.677394629] yes=9,no=10,missing=9,gain=22.9263649,cover=648.541443
			9:leaf=0.0943159014,cover=350.199127
			10:leaf=0.0155374836,cover=298.342346
	2:[f39<320] yes=5,no=6,missing=5,gain=78.8594208,cover=5361.56152
		5:[f35<180] yes=11,no=12,missing=11,gain=38.2394867,cover=4882.00049
			11:leaf=-0.0264646839,cover=1957.63208
			12:leaf=0.0112325642,cover=2924.36865
		6:[f44<0.5] yes=13,no=14,missing=13,gain=82.4340973,cover=479.560699
			13:leaf=-0.131455243,cover=398.804169
			14:leaf=0.0989223346,cover=80.7565384
booster[90]
0:[f42<0.5] yes=1,no=2,missing=1,gain=23.4082756,cover=31223.3965
	1:[f40<115.5] yes=3,no=4,missing=3,gain=52.2474403,cover=26253.6309
		3:[f39<300.5] yes=7,no=8,missing=7,gain=220.954117,cover=5460.6001
			7:leaf=0.00216125394,cover=4259.52051
			8:leaf=-0.0992047861,cover=1201.07959
		4:[f37<307.5] yes=9,no=10,missing=9,gain=34.5795441,cover=20793.0312
			9:leaf=-0.00697479676,cover=8971.19141
			10:leaf=0.0102165891,cover=11821.8398
	2:[f39<412] yes=5,no=6,missing=5,gain=102.172989,cover=4969.76465
		5:[f35<418.5] yes=11,no=12,missing=11,gain=65.9038696,cover=4773.65088
			11:leaf=0.0228818096,cover=4696.94434
			12:leaf=-0.171005771,cover=76.7061462
		6:[f37<330] yes=13,no=14,missing=13,gain=12.7291718,cover=196.114151
			13:leaf=0.344106495,cover=1.48455906
			14:leaf=-0.139056295,cover=194.629593
booster[91]
0:[f30<18.5] yes=1,no=2,missing=1,gain=19.4758778,cover=31216.7422
	1:[f27<31.5849991] yes=3,no=4,missing=3,gain=15.3113918,cover=11044.4307
		3:[f15<0.704355776] yes=7,no=8,missing=7,gain=13.3643103,cover=10679.9375
			7:leaf=-0.0076333913,cover=10276.1289
			8:leaf=0.0310462303,cover=403.808563
		4:[f36<378.5] yes=9,no=10,missing=9,gain=7.54315376,cover=364.493866
			9:leaf=-0.0669135377,cover=273.408691
			10:leaf=0.00240711239,cover=91.0851898
	2:[f15<0.702842474] yes=5,no=6,missing=5,gain=37.1722107,cover=20172.3105
		5:[f0<3737.5] yes=11,no=12,missing=11,gain=26.0988541,cover=17752.2012
			11:leaf=-0.0284951683,cover=876.710327
			12:leaf=0.00843518414,cover=16875.4902
		6:[f27<21.7350006] yes=13,no=14,missing=13,gain=11.4224472,cover=2420.11035
			13:leaf=-0.0276173986,cover=1992.05139
			14:leaf=0.00995603576,cover=428.059021
booster[92]
0:[f3<6.51499987] yes=1,no=2,missing=1,gain=16.6390152,cover=31173.4941
	1:[f3<5.36999989] yes=3,no=4,missing=3,gain=7.6421032,cover=246.49826
		3:leaf=-0.19602482,cover=14.6426306
		4:[f26<0.5] yes=7,no=8,missing=7,gain=5.60916042,cover=231.855621
			7:leaf=-0.0506106801,cover=224.613846
			8:leaf=0.125469893,cover=7.24177313
	2:[f38<189.5] yes=5,no=6,missing=5,gain=16.3289013,cover=30926.9941
		5:[f35<398] yes=9,no=10,missing=9,gain=35.9585686,cover=12323.7832
			9:leaf=0.0087802913,cover=11571.1318
			10:leaf=-0.0382905379,cover=752.651306
		6:[f35<12.5] yes=11,no=12,missing=11,gain=91.5944214,cover=18603.2129
			11:leaf=-0.0880568251,cover=546.207092
			12:leaf=-0.00134617847,cover=18057.0059
booster[93]
0:[f46<8.5] yes=1,no=2,missing=1,gain=21.0546112,cover=31150.4375
	1:[f31<0.5] yes=3,no=4,missing=3,gain=24.7621078,cover=20733.166
		3:[f1<0.5] yes=7,no=8,missing=7,gain=46.7926826,cover=5954.1582
			7:leaf=-0.0070090075,cover=2531.34961
			8:leaf=0.0304286312,cover=3422.80859
		4:[f36<162.5] yes=9,no=10,missing=9,gain=15.57864,cover=14779.0068
			9:leaf=-0.0106523316,cover=5186.25195
			10:leaf=0.00355082774,cover=9592.75488
	2:[f38<27.5] yes=5,no=6,missing=5,gain=34.4447937,cover=10417.2725
		5:[f40<206.5] yes=11,no=12,missing=11,gain=10.9417057,cover=798.286682
			11:leaf=0.0506043062,cover=531.087097
			12:leaf=-0.00117768173,cover=267.199585
		6:[f41<338.5] yes=13,no=14,missing=13,gain=34.5516663,cover=9618.98633
			13:leaf=-0.00519953342,cover=7517.11377
			14:leaf=-0.0354780145,cover=2101.87231
booster[94]
0:[f37<429.5] yes=1,no=2,missing=1,gain=16.5512524,cover=31188.1504
	1:[f37<427.5] yes=3,no=4,missing=3,gain=32.6672859,cover=30864.8027
		3:[f39<53.5] yes=7,no=8,missing=7,gain=16.4084435,cover=30564.1992
			7:leaf=0.0114626801,cover=4823.59277
			8:leaf=-0.00180627697,cover=25740.6074
		4:[f46<3.5] yes=9,no=10,missing=9,gain=89.5244293,cover=300.602936
			9:leaf=0.0970432684,cover=95.8899918
			10:leaf=-0.146530017,cover=204.712952
	2:[f37<433.5] yes=5,no=6,missing=5,gain=10.5735588,cover=323.3479
		5:[f27<7.59000015] yes=11,no=12,missing=11,gain=12.0029716,cover=183.029312
			11:leaf=-0.0821230114,cover=17.270586
			12:leaf=0.0972250253,cover=165.758728
		6:[f37<455.5] yes=13,no=14,missing=13,gain=5.76462269,cover=140.318573
			13:leaf=-0.0123685757,cover=122.969688
			14:leaf=0.113031179,cover=17.3488846
booster[95]
0:[f46<2.5] yes=1,no=2,missing=1,gain=16.5524883,cover=31171.9629
	1:[f27<26.4549999] yes=3,no=4,missing=3,gain=21.1854744,cover=4841.1792
		3:[f41<373.5] yes=7,no=8,missing=7,gain=12.7317905,cover=4035.78857
			7:leaf=-0.00109253766,cover=3341.62329
			8:leaf=0.0299649537,cover=694.165283
		4:[f0<20137.5] yes=9,no=10,missing=9,gain=16.1507835,cover=805.390503
			9:leaf=0.0574158467,cover=621.051086
			10:leaf=-0.0128909964,cover=184.339432
	2:[f36<449.5] yes=5,no=6,missing=5,gain=21.6134262,cover=26330.7832
		5:[f35<398] yes=11,no=12,missing=11,gain=20.4781303,cover=25918.5723
			11:leaf=-0.000438248477,cover=24001.416
			12:leaf=-0.0228579342,cover=1917.15625
		6:[f46<5.5] yes=13,no=14,missing=13,gain=25.6838436,cover=412.211334
			13:leaf=0.0146936066,cover=161.440247
			14:leaf=-0.0919191837,cover=250.771088
booster[96]
0:[f29<1.5] yes=1,no=2,missing=1,gain=16.691555,cover=31167.7012
	1:[f38<398.5] yes=3,no=4,missing=3,gain=16.5074444,cover=30605.5117
		3:[f38<363.5] yes=7,no=8,missing=7,gain=24.0236721,cover=30373.3965
			7:leaf=-6.34879907e-05,cover=29650.2773
			8:leaf=0.0384297594,cover=723.119324
		4:[f30<53.5] yes=9,no=10,missing=9,gain=13.2864552,cover=232.115112
			9:leaf=-0.0628002286,cover=227.078583
			10:leaf=0.251856416,cover=5.03653002
	2:[f35<313.5] yes=5,no=6,missing=5,gain=8.27203751,cover=562.188599
		5:[f41<340.5] yes=11,no=12,missing=11,gain=6.5179348,cover=416.410645
			11:leaf=-0.0417221487,cover=373.55307
			12:leaf=-0.127182841,cover=42.8575935
		6:[f30<22.5] yes=13,no=14,missing=13,gain=6.26565504,cover=145.777939
			13:leaf=0.0480019152,cover=76.187233
			14:leaf=-0.038079612,cover=69.5907135
booster[97]
0:[f35<424] yes=1,no=2,missing=1,gain=20.8206272,cover=31092.4785
	1:[f35<398] yes=3,no=4,missing=3,gain=45.645565,cover=29846.6758
		3:[f38<192] yes=7,no=8,missing=7,gain=25.5820808,cover=28809.459
			7:leaf=0.00818499923,cover=11739.7471
			8:leaf=-0.0044771512,cover=17069.7109
		4:[f35<399.5] yes=9,no=10,missing=9,gain=55.6560783,cover=1037.21741
			9:leaf=-0.152174979,cover=171.548218
			10:leaf=-0.0222687051,cover=865.669189
	2:[f35<454.5] yes=5,no=6,missing=5,gain=26.1578999,cover=1245.80139
		5:[f38<321.5] yes=11,no=12,missing=11,gain=34.0636024,cover=643.697205
			11:leaf=0.0708917379,cover=586.725464
			12:leaf=-0.0970469117,cover=56.9717178
		6:[f9<0.5] yes=13,no=14,missing=13,gain=12.7204132,cover=602.104248
			13:leaf=-0.0164555572,cover=522.980591
			14:leaf=0.0728765205,cover=79.123642
booster[98]
0:[f41<7.5] yes=1,no=2,missing=1,gain=16.0058022,cover=31141.7285
	1:[f3<7.38999987] yes=3,no=4,missing=3,gain=7.79163456,cover=434.915344
		3:[f15<0.658028603] yes=7,no=8,missing=7,gain=1.54246283,cover=8.22138405
			7:leaf=0.0242677592,cover=1.56295979
			8:leaf=-0.189444453,cover=6.6584239
		4:[f3<14.04] yes=9,no=10,missing=9,gain=11.2287064,cover=426.69397
			9:leaf=0.0897781998,cover=149.519592
			10:leaf=0.0188427623,cover=277.174377
	2:[f41<8.5] yes=5,no=6,missing=5,gain=37.202198,cover=30706.8125
		5:[f27<35.0349998] yes=11,no=12,missing=11,gain=7.46120453,cover=63.3256798
			11:leaf=-0.178993419,cover=58.7571678
			12:leaf=0.0832110941,cover=4.56851244
		6:[f41<9.5] yes=13,no=14,missing=13,gain=20.3297482,cover=30643.4863
			13:leaf=0.134237081,cover=48.0194588
			14:leaf=-0.000336513622,cover=30595.4668
booster[99]
0:[f11<0.5] yes=1,no=2,missing=1,gain=17.2781715,cover=31148.7188
	1:[f35<268.5] yes=3,no=4,missing=3,gain=16.5269775,cover=30686.2656
		3:[f41<329.5] yes=7,no=8,missing=7,gain=213.96907,cover=18366.4785
			7:leaf=-0.000895586272,cover=17897.8613
			8:leaf=-0.14367272,cover=468.616577
		4:[f36<235] yes=9,no=10,missing=9,gain=66.3699341,cover=12319.7861
			9:leaf=0.0369415171,cover=2344.6438
			10:leaf=-0.00209245807,cover=9975.14258
	2:[f3<18.4500008] yes=5,no=6,missing=5,gain=17.1859512,cover=462.453552
		5:[f38<185] yes=11,no=12,missing=11,gain=11.2371922,cover=11.512331
			11:leaf=0.0362899303,cover=5.11806631
			12:leaf=0.446491569,cover=6.3942647
		6:[f3<26.4150009] yes=13,no=14,missing=13,gain=15.007597,cover=450.941223
			13:leaf=0.0421511158,cover=428.135437
			14:leaf=-0.128313631,cover=22.8057976
booster[100]
0:[f27<9.00500011] yes=1,no=2,missing=1,gain=16.7750301,cover=31117.2109
	1:[f0<22237.5] yes=3,no=4,missing=3,gain=15.882514,cover=4237.39795
		3:[f13<0.5] yes=7,no=8,missing=7,gain=11.137291,cover=3601.65747
			7:leaf=-0.0214846265,cover=3278.27075
			8:leaf=0.0190862138,cover=323.386841
		4:[f39<28.5] yes=9,no=10,missing=9,gain=8.45146084,cover=635.740234
			9:leaf=0.164692923,cover=15.6695004
			10:leaf=0.0139712356,cover=620.07074
	2:[f38<398.5] yes=5,no=6,missing=5,gain=15.8160543,cover=26879.8125
		5:[f38<390] yes=11,no=12,missing=11,gain=26.5193958,cover=26682.8047
			11:leaf=0.00148394925,cover=26450.0078
			12:leaf=0.0721163377,cover=232.79776
		6:[f4<50.0200005] yes=13,no=14,missing=13,gain=8.84214783,cover=197.007217
			13:leaf=0.370786309,cover=1.1033771
			14:leaf=-0.0614085756,cover=195.903839
booster[101]
0:[f38<301] yes=1,no=2,missing=1,gain=14.1732082,cover=31084.7363
	1:[f32<0.5] yes=3,no=4,missing=3,gain=34.0763397,cover=26376.4707
		3:[f38<298.5] yes=7,no=8,missing=7,gain=24.8619442,cover=19412.3613
			7:leaf=-0.00380365807,cover=19382.9277
			8:leaf=0.185065478,cover=29.4340935
		4:[f0<29487.5] yes=9,no=10,missing=9,gain=31.2988873,cover=6964.10889
			9:leaf=0.0178513005,cover=6354.93359
			10:leaf=-0.0316597447,cover=609.175537
	2:[f38<303.5] yes=5,no=6,missing=5,gain=48.5230904,cover=4708.2666
		5:[f0<8237.5] yes=11,no=12,missing=11,gain=3.44840622,cover=180.97934
			11:leaf=-0.059165258,cover=38.1745033
			12:leaf=-0.132149085,cover=142.80484
		6:[f39<328.5] yes=13,no=14,missing=13,gain=51.1144676,cover=4527.2876
			13:leaf=-0.00173383392,cover=4269.39697
			14:leaf=-0.0972837731,cover=257.890259
booster[102]
0:[f39<437.5] yes=1,no=2,missing=1,gain=17.5260639,cover=31089.8789
	1:[f15<0.668375015] yes=3,no=4,missing=3,gain=14.1001949,cover=30968.8574
		3:[f30<18.5] yes=7,no=8,missing=7,gain=17.1875153,cover=10051.2178
			7:leaf=-0.00151830993,cover=5378.82861
			8:leaf=0.0157918781,cover=4672.38916
		4:[f3<21.2750015] yes=9,no=10,missing=9,gain=21.3316784,cover=20917.6387
			9:leaf=-0.00549800089,cover=18318.2227
			10:leaf=0.0147111118,cover=2599.41602
	2:[f39<446.5] yes=5,no=6,missing=5,gain=21.4360714,cover=121.022995
		5:[f46<5.5] yes=11,no=12,missing=11,gain=3.80818939,cover=69.6481476
			11:leaf=-0.0994526148,cover=34.2527618
			12:leaf=-0.202284932,cover=35.3953857
		6:[f25<0.5] yes=13,no=14,missing=13,gain=8.75219917,cover=51.3748512
			13:leaf=-0.00436720438,cover=47.4557152
			14:leaf=0.28813979,cover=3.91913581
booster[103]
0:[f36<162.5] yes=1,no=2,missing=1,gain=17.5944824,cover=31077.2012
	1:[f35<244] yes=3,no=4,missing=3,gain=137.543762,cover=11002.5049
		3:[f37<380.5] yes=7,no=8,missing=7,gain=41.4065628,cover=10580.7686
			7:leaf=-0.008355584,cover=8437.32715
			8:leaf=0.0241366699,cover=2143.44141
		4:[f35<435.5] yes=9,no=10,missing=9,gain=38.5125885,cover=421.736542
			9:leaf=-0.145612478,cover=374.457428
			10:leaf=0.0533953868,cover=47.2791214
	2:[f36<164.5] yes=5,no=6,missing=5,gain=66.7624588,cover=20074.6953
		5:[f3<14.3800001] yes=11,no=12,missing=11,gain=21.0194778,cover=90.6747894
			11:leaf=0.295384735,cover=39.2008133
			12:leaf=0.0911925137,cover=51.4739723
		6:[f36<235.5] yes=13,no=14,missing=13,gain=36.2996902,cover=19984.0215
			13:leaf=0.0229128785,cover=3363.59253
			14:leaf=-0.000868995965,cover=16620.4297
booster[104]
0:[f37<429.5] yes=1,no=2,missing=1,gain=14.1914415,cover=31078.0996
	1:[f37<426.5] yes=3,no=4,missing=3,gain=18.7453194,cover=30754.791
		3:[f39<298.5] yes=7,no=8,missing=7,gain=16.1472187,cover=30477.8574
			7:leaf=0.00373993698,cover=21586.7754
			8:leaf=-0.00683262572,cover=8891.08203
		4:[f46<5.5] yes=9,no=10,missing=9,gain=70.1363678,cover=276.933685
			9:leaf=0.0378274396,cover=157.287277
			10:leaf=-0.173607737,cover=119.646408
	2:[f35<220] yes=5,no=6,missing=5,gain=11.4049225,cover=323.308624
		5:[f40<30] yes=11,no=12,missing=11,gain=15.5360966,cover=310.130402
			11:leaf=0.487530529,cover=2.54655814
			12:leaf=0.0471261591,cover=307.583832
		6:[f15<0.698956251] yes=13,no=14,missing=13,gain=3.13713932,cover=13.1782389
			13:leaf=-0.179391772,cover=11.2861338
			14:leaf=0.0778929219,cover=1.89210498
booster[105]
0:[f0<2487.5] yes=1,no=2,missing=1,gain=19.1005955,cover=31087.0312
	1:[f39<37.5] yes=3,no=4,missing=3,gain=15.0383644,cover=801.391418
		3:[f35<351] yes=7,no=8,missing=7,gain=7.98711348,cover=61.2060471
			7:leaf=0.431354076,cover=1.53745174
			8:leaf=0.0508355945,cover=59.6685944
		4:[f3<10.7449999] yes=9,no=10,missing=9,gain=13.3439465,cover=740.185364
			9:leaf=0.0347095393,cover=91.1798935
			10:leaf=-0.0502949059,cover=649.005493
	2:[f39<298.5] yes=5,no=6,missing=5,gain=16.2544041,cover=30285.6387
		5:[f39<259.5] yes=11,no=12,missing=11,gain=21.6011581,cover=21578.7871
			11:leaf=0.00143255165,cover=18429.5527
			12:leaf=0.0201422144,cover=3149.2356
		6:[f41<206.5] yes=13,no=14,missing=13,gain=112.811493,cover=8706.85156
			13:leaf=0.927647829,cover=4.6322875
			14:leaf=-0.00712727802,cover=8702.21973
booster[106]
0:[f40<3] yes=1,no=2,missing=1,gain=13.8144693,cover=31085.9863
	1:[f25<0.5] yes=3,no=4,missing=3,gain=1.5327816,cover=71.2782135
		3:[f27<28.5349998] yes=7,no=8,missing=7,gain=1.26053047,cover=64.7669754
			7:leaf=-0.117976554,cover=48.6552696
			8:leaf=-0.0464882217,cover=16.1117077
		4:[f28<11.5] yes=9,no=10,missing=9,gain=3.24826384,cover=6.51123714
			9:leaf=0.108526237,cover=4.13258171
			10:leaf=-0.155130312,cover=2.37865543
	2:[f40<4.5] yes=5,no=6,missing=5,gain=19.4676323,cover=31014.707
		5:[f29<0.5] yes=11,no=12,missing=11,gain=7.1339283,cover=140.091797
			11:leaf=0.0530974418,cover=112.832069
			12:leaf=0.171416044,cover=27.2597275
		6:[f40<40.5] yes=13,no=14,missing=13,gain=16.3417912,cover=30874.6152
			13:leaf=-0.0174366627,cover=2314.10962
			14:leaf=0.00080308906,cover=28560.5059
booster[107]
0:[f38<189.5] yes=1,no=2,missing=1,gain=12.7713814,cover=31073.7402
	1:[f37<419.5] yes=3,no=4,missing=3,gain=30.9233093,cover=12419.6514
		3:[f31<0.5] yes=7,no=8,missing=7,gain=31.9206753,cover=12291.1152
			7:leaf=0.029334832,cover=2197.47412
			8:leaf=0.0015698073,cover=10093.6416
		4:[f39<374] yes=9,no=10,missing=9,gain=21.5999737,cover=128.536148
			9:leaf=-0.0257587358,cover=77.4661407
			10:leaf=-0.200054586,cover=51.0700035
	2:[f35<12.5] yes=5,no=6,missing=5,gain=53.0961189,cover=18654.0898
		5:[f35<8] yes=11,no=12,missing=11,gain=55.9182892,cover=497.136475
			11:leaf=-0.011355252,cover=290.960602
			12:leaf=-0.153334811,cover=206.175888
		6:[f40<40.5] yes=13,no=14,missing=13,gain=46.98349,cover=18156.9531
			13:leaf=-0.0425433442,cover=1129.82922
			14:leaf=0.0014074553,cover=17027.123
booster[108]
0:[f40<3] yes=1,no=2,missing=1,gain=14.5272512,cover=31098.8262
	1:[f46<3.5] yes=3,no=4,missing=3,gain=6.45080566,cover=67.1476974
		3:[f28<11.5] yes=7,no=8,missing=7,gain=6.36638546,cover=28.1780434
			7:leaf=0.0617654175,cover=16.7972145
			8:leaf=-0.133327574,cover=11.3808289
		4:[f25<0.5] yes=9,no=10,missing=9,gain=1.09155273,cover=38.9696541
			9:leaf=-0.16102232,cover=35.4111824
			10:leaf=-0.0299783573,cover=3.55846906
	2:[f40<4.5] yes=5,no=6,missing=5,gain=16.3944416,cover=31031.6797
		5:[f27<31.2849998] yes=11,no=12,missing=11,gain=6.19488144,cover=142.556534
			11:leaf=0.0589395426,cover=134.393539
			12:leaf=0.237963706,cover=8.16299057
		6:[f36<17.5] yes=13,no=14,missing=13,gain=12.6353359,cover=30889.123
			13:leaf=-0.0195466056,cover=1369.56616
			14:leaf=0.000961638638,cover=29519.5566
booster[109]
0:[f35<458.5] yes=1,no=2,missing=1,gain=14.7382784,cover=31112.0508
	1:[f35<421] yes=3,no=4,missing=3,gain=17.8535976,cover=30967.8281
		3:[f35<418.5] yes=7,no=8,missing=7,gain=29.3288059,cover=29803.7031
			7:leaf=-0.00105490896,cover=29748.9629
			8:leaf=-0.152654976,cover=54.7404137
		4:[f37<40] yes=9,no=10,missing=9,gain=16.1679745,cover=1164.1261
			9:leaf=-0.0391131788,cover=148.666351
			10:leaf=0.0344255827,cover=1015.45972
	2:[f12<0.5] yes=5,no=6,missing=5,gain=7.19256306,cover=144.222565
		5:[f3<18.0499992] yes=11,no=12,missing=11,gain=6.5083313,cover=82.7294006
			11:leaf=-0.0635865182,cover=58.5964661
			12:leaf=0.0632580593,cover=24.1329327
		6:[f46<2.5] yes=13,no=14,missing=13,gain=3.42123604,cover=61.4931641
			13:leaf=-0.0142214717,cover=11.1269302
			14:leaf=-0.143300056,cover=50.3662338
booster[110]
0:[f40<396.5] yes=1,no=2,missing=1,gain=14.0724115,cover=31048.668
	1:[f40<392.5] yes=3,no=4,missing=3,gain=35.8891449,cover=30825.8438
		3:[f36<17.5] yes=7,no=8,missing=7,gain=13.006134,cover=30751.668
			7:leaf=-0.0214954074,cover=1224.20093
			8:leaf=0.000459369767,cover=29527.4668
		4:[f35<116] yes=9,no=10,missing=9,gain=10.1534653,cover=74.1758804
			9:leaf=-0.0682623386,cover=38.7319221
			10:leaf=-0.224394396,cover=35.4439621
	2:[f15<0.64565146] yes=5,no=6,missing=5,gain=12.7959642,cover=222.824936
		5:[f27<26.3999996] yes=11,no=12,missing=11,gain=8.54447174,cover=14.1061335
			11:leaf=0.305603027,cover=11.7899179
			12:leaf=-0.0963464454,cover=2.31621504
		6:[f40<397.5] yes=13,no=14,missing=13,gain=5.97305012,cover=208.718796
			13:leaf=0.306744963,cover=2.56340408
			14:leaf=0.0333416164,cover=206.155396
booster[111]
0:[f46<8.5] yes=1,no=2,missing=1,gain=14.1553135,cover=31061.1289
	1:[f31<0.5] yes=3,no=4,missing=3,gain=11.7832432,cover=20743.3516
		3:[f2<0.5] yes=7,no=8,missing=7,gain=23.4058971,cover=6014.37793
			7:leaf=0.0217698701,cover=3514.28198
			8:leaf=-0.00465666223,cover=2500.09595
		4:[f21<0.5] yes=9,no=10,missing=9,gain=13.330389,cover=14728.9746
			9:leaf=0.00271153986,cover=12151.9551
			10:leaf=-0.0138188703,cover=2577.01929
	2:[f38<186.5] yes=5,no=6,missing=5,gain=21.9588699,cover=10317.7764
		5:[f38<160] yes=11,no=12,missing=11,gain=13.8987217,cover=4488.64941
			11:leaf=0.000938068377,cover=4101.54248
			12:leaf=0.0422787443,cover=387.106903
		6:[f36<449.5] yes=13,no=14,missing=13,gain=35.2204437,cover=5829.12695
			13:leaf=-0.0130615979,cover=5755.14893
			14:leaf=-0.157108068,cover=73.9780197
booster[112]
0:[f40<3] yes=1,no=2,missing=1,gain=11.7006035,cover=31091.875
	1:[f46<5.5] yes=3,no=4,missing=3,gain=6.50165081,cover=62.1102867
		3:[f27<17.6949997] yes=7,no=8,missing=7,gain=3.66469955,cover=39.2783966
			7:leaf=-0.124208182,cover=12.7216721
			8:leaf=0.00839687511,cover=26.5567265
		4:[f4<928.034973] yes=9,no=10,missing=9,gain=2.41442299,cover=22.8318882
			9:leaf=-0.192550272,cover=21.5306549
			10:leaf=0.0617408305,cover=1.30123365
	2:[f38<294.5] yes=5,no=6,missing=5,gain=11.341733,cover=31029.7656
		5:[f31<0.5] yes=11,no=12,missing=11,gain=21.9069977,cover=25735.457
			11:leaf=0.0121344235,cover=6808.08887
			12:leaf=-0.00167592161,cover=18927.3691
		6:[f38<296.5] yes=13,no=14,missing=13,gain=59.0744934,cover=5294.30713
			13:leaf=-0.120719098,cover=196.362885
			14:leaf=-0.00429295562,cover=5097.94434
booster[113]
0:[f15<0.725065827] yes=1,no=2,missing=1,gain=13.2613792,cover=31067.4316
	1:[f4<451.955017] yes=3,no=4,missing=3,gain=14.7625132,cover=30703.5879
		3:[f0<20987.5] yes=7,no=8,missing=7,gain=18.3648567,cover=18565.5566
			7:leaf=-0.00407302193,cover=18532.6562
			8:leaf=0.149749488,cover=32.9008179
		4:[f15<0.67928493] yes=9,no=10,missing=9,gain=19.0214043,cover=12138.0312
			9:leaf=0.0170877203,cover=4126.11133
			10:leaf=-0.000360509119,cover=8011.92041
	2:[f37<378.5] yes=5,no=6,missing=5,gain=9.23995113,cover=363.844055
		5:[f30<10.5] yes=11,no=12,missing=11,gain=7.6719532,cover=253.680283
			11:leaf=0.212904736,cover=5.129601
			12:leaf=-0.0236585774,cover=248.55069
		6:[f13<0.5] yes=13,no=14,missing=13,gain=4.49078941,cover=110.16378
			13:leaf=-0.104309924,cover=99.1530685
			14:leaf=0.0335679129,cover=11.0107079
booster[114]
0:[f41<454.5] yes=1,no=2,missing=1,gain=15.7031202,cover=31036.6777
	1:[f38<211.5] yes=3,no=4,missing=3,gain=13.0142441,cover=30257.0938
		3:[f38<207.5] yes=7,no=8,missing=7,gain=27.9084358,cover=15557.4736
			7:leaf=0.00283027138,cover=15395.2637
			8:leaf=0.0896295384,cover=162.210831
		4:[f38<212.5] yes=9,no=10,missing=9,gain=104.384727,cover=14699.6201
			9:leaf=-0.146358907,cover=223.03183
			10:leaf=-0.00273399916,cover=14476.5889
	2:[f4<412.414978] yes=5,no=6,missing=5,gain=19.4996643,cover=779.582581
		5:[f15<0.651639402] yes=11,no=12,missing=11,gain=9.37621784,cover=411.979919
			11:leaf=0.0736819953,cover=60.313633
			12:leaf=-0.0147837168,cover=351.66629
		6:[f3<18.6499996] yes=13,no=14,missing=13,gain=17.3424721,cover=367.602692
			13:leaf=0.10187351,cover=217.894318
			14:leaf=0.00958388485,cover=149.708374
booster[115]
0:[f26<0.5] yes=1,no=2,missing=1,gain=10.9672356,cover=31057.9961
	1:[f14<0.5] yes=3,no=4,missing=3,gain=10.406786,cover=30258.0859
		3:[f42<0.5] yes=7,no=8,missing=7,gain=19.8118401,cover=16429.3711
			7:leaf=-0.00761848129,cover=13247.1338
			8:leaf=0.0107267043,cover=3182.23755
		4:[f38<74.5] yes=9,no=10,missing=9,gain=14.1887627,cover=13828.7139
			9:leaf=-0.0115693482,cover=2223.18848
			10:leaf=0.00663574832,cover=11605.5254
	2:[f46<6.5] yes=5,no=6,missing=5,gain=7.23932171,cover=799.910217
		5:[f31<0.5] yes=11,no=12,missing=11,gain=6.51187706,cover=402.41861
			11:leaf=-0.053349115,cover=69.1976852
			12:leaf=0.0166086983,cover=333.220917
		6:[f4<826.665039] yes=13,no=14,missing=13,gain=12.3544979,cover=397.491608
			13:leaf=0.0291871633,cover=342.222748
			14:leaf=0.134931892,cover=55.2688599
booster[116]
0:[f27<20.1749992] yes=1,no=2,missing=1,gain=13.7583542,cover=31056.1191
	1:[f28<8.5] yes=3,no=4,missing=3,gain=14.402668,cover=18362.6211
		3:[f15<0.647032261] yes=7,no=8,missing=7,gain=17.8666611,cover=7696.396
			7:leaf=0.0195918884,cover=767.9375
			8:leaf=-0.0139578022,cover=6928.4585
		4:[f7<0.5] yes=9,no=10,missing=9,gain=15.9973307,cover=10666.2266
			9:leaf=0.00635895599,cover=7616.93994
			10:leaf=-0.0115352226,cover=3049.28613
	2:[f3<24.4150009] yes=5,no=6,missing=5,gain=13.340992,cover=12693.498
		5:[f30<8.5] yes=11,no=12,missing=11,gain=9.23013878,cover=12238.877
			11:leaf=-0.0362205505,cover=243.905197
			12:leaf=0.00472742459,cover=11994.9717
		6:[f30<30.5] yes=13,no=14,missing=13,gain=8.95871925,cover=454.620697
			13:leaf=0.0619369149,cover=293.662018
			14:leaf=0.00067846186,cover=160.958679
booster[117]
0:[f37<429] yes=1,no=2,missing=1,gain=10.482295,cover=31026.1875
	1:[f37<426.5] yes=3,no=4,missing=3,gain=14.8026867,cover=30697.627
		3:[f41<393] yes=7,no=8,missing=7,gain=10.8783417,cover=30432.6309
			7:leaf=-0.000921613595,cover=27671.9062
			8:leaf=0.0128212841,cover=2760.7251
		4:[f46<4.5] yes=9,no=10,missing=9,gain=55.9333267,cover=264.994568
			9:leaf=0.0430406742,cover=137.63707
			10:leaf=-0.148332432,cover=127.357506
	2:[f3<17.1199989] yes=5,no=6,missing=5,gain=8.49793053,cover=328.561768
		5:[f36<211.5] yes=11,no=12,missing=11,gain=8.41853523,cover=206.439774
			11:leaf=-0.1035721,cover=23.5372295
			12:leaf=0.026657192,cover=182.902557
		6:[f3<22.7600002] yes=13,no=14,missing=13,gain=10.5098686,cover=122.121994
			13:leaf=0.10650944,cover=103.638298
			14:leaf=-0.0616870485,cover=18.483696
booster[118]
0:[f41<4.5] yes=1,no=2,missing=1,gain=10.7562599,cover=31044.8145
	1:[f3<13.0799999] yes=3,no=4,missing=3,gain=8.56576633,cover=396.042236
		3:[f0<3650] yes=7,no=8,missing=7,gain=13.6739025,cover=96.1396332
			7:leaf=0.334905624,cover=7.90672922
			8:leaf=0.0618678182,cover=88.2329102
		4:[f0<18662.5] yes=9,no=10,missing=9,gain=5.874475,cover=299.902588
			9:leaf=-0.00472494448,cover=199.065002
			10:leaf=0.0569101796,cover=100.837601
	2:[f41<12.5] yes=5,no=6,missing=5,gain=12.406436,cover=30648.7734
		5:[f40<319] yes=11,no=12,missing=11,gain=16.8283329,cover=1256.4447
			11:leaf=-0.0163405873,cover=1207.53503
			12:leaf=-0.140100434,cover=48.9096832
		6:[f41<13.5] yes=13,no=14,missing=13,gain=43.0209618,cover=29392.3281
			13:leaf=0.730404079,cover=2.51446819
			14:leaf=-0.000174086352,cover=29389.8125
booster[119]
0:[f27<9.26500034] yes=1,no=2,missing=1,gain=11.9627314,cover=31023.2383
	1:[f13<0.5] yes=3,no=4,missing=3,gain=16.652298,cover=4407.74414
		3:[f35<13.5] yes=7,no=8,missing=7,gain=11.8693333,cover=4005.70264
			7:leaf=0.0391979478,cover=170.940125
			8:leaf=-0.0168894045,cover=3834.76245
		4:[f16<0.5] yes=9,no=10,missing=9,gain=14.881216,cover=402.041412
			9:leaf=0.00246998225,cover=273.815308
			10:leaf=0.0884441882,cover=128.22612
	2:[f15<0.72186023] yes=5,no=6,missing=5,gain=10.64042,cover=26615.4941
		5:[f30<11.5] yes=11,no=12,missing=11,gain=10.2011547,cover=26324.6621
			11:leaf=-0.0110255014,cover=2463.83569
			12:leaf=0.00308390614,cover=23860.8262
		6:[f38<303.5] yes=13,no=14,missing=13,gain=9.66376305,cover=290.832611
			13:leaf=-0.0560116693,cover=239.059296
			14:leaf=0.042843651,cover=51.7733307
booster[120]
0:[f36<17.5] yes=1,no=2,missing=1,gain=11.5642834,cover=31052.3164
	1:[f36<12.5] yes=3,no=4,missing=3,gain=19.9607162,cover=1333.40051
		3:[f27<36.9249992] yes=7,no=8,missing=7,gain=14.9738274,cover=954.365723
			7:leaf=-0.00381030515,cover=951.799988
			8:leaf=0.42486918,cover=2.56577539
		4:[f37<285.5] yes=9,no=10,missing=9,gain=20.5619831,cover=379.03479
			9:leaf=-0.106725685,cover=191.559692
			10:leaf=-0.00952500198,cover=187.475098
	2:[f36<86.5] yes=5,no=6,missing=5,gain=24.3060036,cover=29718.916
