booster[0]
0:[f3<14.0299997] yes=1,no=2,missing=1,gain=2413.375,cover=169226
	1:[f38<211.5] yes=3,no=4,missing=3,gain=452.84375,cover=103098.75
		3:[f31<0.5] yes=7,no=8,missing=7,gain=174.3125,cover=30751.25
			7:leaf=-0.22142823,cover=11338.5
			8:[f3<9.5] yes=15,no=16,missing=15,gain=24.5742188,cover=19412.75
				15:[f15<0.66667676] yes=29,no=30,missing=29,gain=3.25,cover=6551.5
					29:leaf=-0.213086039,cover=1361.75
					30:leaf=-0.215866759,cover=5189.75
				16:leaf=-0.210305288,cover=12861.25
		4:[f3<11.5349998] yes=9,no=10,missing=9,gain=80.5625,cover=72347.5
			9:[f31<0.5] yes=17,no=18,missing=17,gain=25.96875,cover=44298.25
				17:leaf=-0.235793203,cover=27326.75
				18:[f3<8.79999924] yes=33,no=34,missing=33,gain=4.64453125,cover=16971.5
					33:leaf=-0.232607231,cover=7192
					34:leaf=-0.229172483,cover=9779.5
			10:[f31<0.5] yes=19,no=20,missing=19,gain=36.0859375,cover=28049.25
				19:[f46<6.5] yes=35,no=36,missing=35,gain=6.11328125,cover=15679.25
					35:leaf=-0.225257069,cover=5717.5
					36:leaf=-0.229172483,cover=9961.75
				20:[f36<449.5] yes=37,no=38,missing=37,gain=2.05859375,cover=12370
					37:leaf=-0.22142823,cover=11331.75
					38:leaf=-0.225257069,cover=1038.25
	2:[f38<224.5] yes=5,no=6,missing=5,gain=980.90625,cover=66127.25
		5:[f38<101.5] yes=11,no=12,missing=11,gain=335.027344,cover=25722.75
			11:[f31<0.5] yes=21,no=22,missing=21,gain=82.7099609,cover=6799.75
				21:[f3<20.9949989] yes=39,no=40,missing=39,gain=2.55371094,cover=1221.25
					39:leaf=-0.170095071,cover=1062.25
					40:leaf=-0.158803865,cover=159
				22:[f3<17.8699989] yes=41,no=42,missing=41,gain=67.0078125,cover=5578.5
					41:[f38<26.5] yes=51,no=52,missing=51,gain=21.2216797,cover=3654
						51:[f39<425.5] yes=65,no=66,missing=65,gain=4.99157715,cover=1160.75
							65:[f15<0.689778388] yes=75,no=76,missing=75,gain=0.565917969,cover=1049.75
								75:leaf=-0.143170521,cover=778.75
								76:leaf=-0.147078857,cover=271
							66:leaf=-0.150987193,cover=111
						52:[f35<167.5] yes=67,no=68,missing=67,gain=4.99316406,cover=2493.25
							67:[f15<0.678643107] yes=77,no=78,missing=77,gain=1.47241211,cover=944.75
								77:leaf=-0.150987193,cover=480.5
								78:leaf=-0.154895544,cover=464.25
							68:leaf=-0.158803865,cover=1548.5
					42:[f15<0.690575719] yes=53,no=54,missing=53,gain=20.7739258,cover=1924.5
						53:[f35<181.5] yes=69,no=70,missing=69,gain=24.2352295,cover=1298
							69:[f1<0.5] yes=79,no=80,missing=79,gain=10.4803467,cover=451.75
								79:[f15<0.667842746] yes=83,no=84,missing=83,gain=7.557724,cover=273
									83:leaf=-0.0415557027,cover=56.5
									84:leaf=-0.0917330161,cover=216.5
								80:[f15<0.655859113] yes=85,no=86,missing=85,gain=1.65412903,cover=178.75
									85:leaf=-0.0979899615,cover=27.5
									86:leaf=-0.114442028,cover=151.25
							70:[f10<0.5] yes=81,no=82,missing=81,gain=9.19348145,cover=846.25
								81:[f38<35.5] yes=87,no=88,missing=87,gain=0.693237305,cover=683.5
									87:leaf=-0.123042747,cover=192.5
									88:leaf=-0.131643489,cover=491
								82:[f36<254.5] yes=89,no=90,missing=89,gain=0.396591187,cover=162.75
									89:leaf=-0.114442028,cover=102
									90:leaf=-0.123042747,cover=60.75
						54:[f11<0.5] yes=71,no=72,missing=71,gain=1.32208252,cover=626.5
							71:leaf=-0.143170521,cover=577.25
							72:leaf=-0.131643489,cover=49.25
			12:[f3<18.5799999] yes=23,no=24,missing=23,gain=211.40625,cover=18923
				23:[f39<159] yes=43,no=44,missing=43,gain=47.9453125,cover=13172.75
					43:[f15<0.68263793] yes=55,no=56,missing=55,gain=6.72900391,cover=3448.25
						55:leaf=-0.181224823,cover=2096.75
						56:leaf=-0.186789721,cover=1351.5
					44:[f36<90.5] yes=57,no=58,missing=57,gain=3.8671875,cover=9724.5
						57:[f42<0.5] yes=73,no=74,missing=73,gain=3.25830078,cover=2582.5
							73:leaf=-0.186789721,cover=1963.5
							74:leaf=-0.189572155,cover=619
						58:leaf=-0.19235459,cover=7142
				24:[f39<298.5] yes=45,no=46,missing=45,gain=29.0976562,cover=5750.25
					45:leaf=-0.170095071,cover=3174.25
					46:[f38<119] yes=59,no=60,missing=59,gain=3.62207031,cover=2576
						59:leaf=-0.17565994,cover=726.5
						60:leaf=-0.181224823,cover=1849.5
		6:[f3<19.1949997] yes=13,no=14,missing=13,gain=259.421875,cover=40404.5
			13:[f39<43.5] yes=25,no=26,missing=25,gain=73.453125,cover=31279.75
				25:leaf=-0.201329947,cover=3214
				26:[f35<20.5] yes=47,no=48,missing=47,gain=3.8984375,cover=28065.75
					47:leaf=-0.205817625,cover=3279
					48:leaf=-0.210305288,cover=24786.75
			14:[f39<383] yes=27,no=28,missing=27,gain=20.9804688,cover=9124.75
				27:[f36<449.5] yes=49,no=50,missing=49,gain=8.59570312,cover=8362.75
					49:[f35<403] yes=63,no=64,missing=63,gain=2.734375,cover=7712
						63:leaf=-0.19235459,cover=6512.75
						64:leaf=-0.194598436,cover=1199.25
					50:leaf=-0.196842268,cover=650.75
				28:leaf=-0.201329947,cover=762
booster[1]
0:[f3<14.0299997] yes=1,no=2,missing=1,gain=1912.75,cover=167214.266
	1:[f38<211.5] yes=3,no=4,missing=3,gain=387.53125,cover=101776.125
		3:[f31<0.5] yes=7,no=8,missing=7,gain=149.289062,cover=30381.8164
			7:[f40<329] yes=15,no=16,missing=15,gain=1.06640625,cover=11209.7822
				15:leaf=-0.197319359,cover=10331.8379
				16:leaf=-0.192399576,cover=877.944458
			8:[f3<9.5] yes=17,no=18,missing=17,gain=20.9179688,cover=19172.0352
				17:[f15<0.672323108] yes=31,no=32,missing=31,gain=3.09765625,cover=6450.4668
					31:leaf=-0.189939708,cover=2014.09973
					32:leaf=-0.192399576,cover=4436.36719
				18:leaf=-0.187479809,cover=12721.5684
		4:[f31<0.5] yes=9,no=10,missing=9,gain=65.703125,cover=71394.3125
			9:[f3<11.54] yes=19,no=20,missing=19,gain=20.328125,cover=42413.5195
				19:[f3<8.38500023] yes=35,no=36,missing=35,gain=1.3359375,cover=26949.1797
					35:leaf=-0.212094977,cover=13604.7715
					36:leaf=-0.209025905,cover=13344.4072
				20:[f39<285.5] yes=37,no=38,missing=37,gain=3.1171875,cover=15464.3418
					37:leaf=-0.204691306,cover=11023.2109
					38:leaf=-0.20766969,cover=4441.13037
			10:[f3<9.99499989] yes=21,no=22,missing=21,gain=37.2734375,cover=28980.7891
				21:leaf=-0.204691306,cover=11470.8906
				22:[f38<275.5] yes=39,no=40,missing=39,gain=7.32421875,cover=17509.8984
					39:[f39<390.5] yes=51,no=52,missing=51,gain=1.03710938,cover=7931.58301
						51:leaf=-0.197319359,cover=6656.62793
						52:leaf=-0.199162349,cover=1274.95508
					40:[f37<370.5] yes=53,no=54,missing=53,gain=1.74609375,cover=9578.31445
						53:leaf=-0.199162349,cover=5042.12012
						54:leaf=-0.20100534,cover=4536.19482
	2:[f38<224.5] yes=5,no=6,missing=5,gain=800.890625,cover=65438.1367
		5:[f31<0.5] yes=11,no=12,missing=11,gain=297.96875,cover=25510.0801
			11:[f3<20.9949989] yes=23,no=24,missing=23,gain=24.9433594,cover=8268.20508
				23:[f40<329] yes=41,no=42,missing=41,gain=5.5,cover=7263.45605
					41:leaf=-0.171388552,cover=6565.875
					42:leaf=-0.165683687,cover=697.58075
				24:leaf=-0.159978822,cover=1004.7489
			12:[f3<19.0100002] yes=25,no=26,missing=25,gain=186.777344,cover=17241.875
				25:[f38<101.5] yes=43,no=44,missing=43,gain=126.021484,cover=12655.9297
					43:[f15<0.693223894] yes=55,no=56,missing=55,gain=12.9511719,cover=4257.74023
						55:[f39<421.5] yes=67,no=68,missing=67,gain=3.10107422,cover=3343.81079
							67:leaf=-0.14194873,cover=2772.19653
							68:leaf=-0.146456242,cover=571.614258
						56:leaf=-0.150963768,cover=913.929626
					44:[f39<103.5] yes=57,no=58,missing=57,gain=20.171875,cover=8398.18945
						57:leaf=-0.150963768,cover=967.908569
						58:[f40<325.5] yes=69,no=70,missing=69,gain=0.759765625,cover=7430.28076
							69:leaf=-0.159978822,cover=6048.71436
							70:[f12<0.5] yes=79,no=80,missing=79,gain=0.934814453,cover=1381.56677
								79:leaf=-0.155471295,cover=895.486023
								80:leaf=-0.157725066,cover=486.080719
				26:[f38<106.5] yes=45,no=46,missing=45,gain=56.0756836,cover=4585.94531
					45:[f26<0.5] yes=59,no=60,missing=59,gain=17.9992676,cover=1394.41467
						59:[f15<0.690575719] yes=71,no=72,missing=71,gain=12.7011719,cover=1340.13623
							71:[f47<4206.5] yes=81,no=82,missing=81,gain=14.8460083,cover=894.946411
								81:leaf=-0.111791387,cover=249.246887
								82:[f35<324] yes=95,no=96,missing=95,gain=10.0402222,cover=645.699524
									95:leaf=-0.0799273923,cover=541.398438
									96:leaf=-0.100671723,cover=104.301125
							72:[f27<22.5649986] yes=83,no=84,missing=83,gain=1.97872925,cover=445.189819
								83:leaf=-0.122112699,cover=365.614044
								84:leaf=-0.111791387,cover=79.5757599
						60:[f15<0.674145937] yes=73,no=74,missing=73,gain=10.0930347,cover=54.2784157
							73:[f27<17.0799999] yes=85,no=86,missing=85,gain=2.29858804,cover=12.2081413
								85:leaf=0.00381271821,cover=6.72814226
								86:leaf=0.104102403,cover=5.47999907
							74:[f47<20342.0996] yes=87,no=88,missing=87,gain=4.57372284,cover=42.0702744
								87:[f40<360.5] yes=97,no=98,missing=97,gain=0.916845322,cover=34.3567123
									97:leaf=-0.0747925416,cover=26.3865089
									98:leaf=-0.0407460369,cover=7.97020245
								88:leaf=-0.00669953274,cover=7.7135644
					46:[f39<296.5] yes=61,no=62,missing=61,gain=35.7270508,cover=3191.53076
						61:[f3<20.4949989] yes=75,no=76,missing=75,gain=9.08837891,cover=1751.55042
							75:leaf=-0.132537007,cover=721.022278
							76:[f15<0.698956251] yes=89,no=90,missing=89,gain=0.906188965,cover=1030.5282
								89:leaf=-0.122112699,cover=802.432007
								90:leaf=-0.127324849,cover=228.096191
						62:[f40<137.5] yes=77,no=78,missing=77,gain=5.30029297,cover=1439.98047
							77:leaf=-0.14194873,cover=809.062439
							78:[f3<21.2299995] yes=91,no=92,missing=91,gain=0.986755371,cover=630.917969
								91:leaf=-0.137242869,cover=324.38501
								92:leaf=-0.132537007,cover=306.53299
		6:[f3<19.1949997] yes=13,no=14,missing=13,gain=224.65625,cover=39928.0547
			13:[f39<43.5] yes=27,no=28,missing=27,gain=65.8984375,cover=30896.3281
				27:leaf=-0.17943418,cover=3172.74048
				28:[f41<39] yes=47,no=48,missing=47,gain=11.921875,cover=27723.5879
					47:leaf=-0.183457002,cover=2469.3457
					48:[f35<20.5] yes=63,no=64,missing=63,gain=1.421875,cover=25254.2422
						63:leaf=-0.185468405,cover=3212.11255
						64:leaf=-0.187479809,cover=22042.1309
			14:[f39<383] yes=29,no=30,missing=29,gain=19.2773438,cover=9031.72754
				29:[f38<276.5] yes=49,no=50,missing=49,gain=6.91894531,cover=8267.99316
					49:leaf=-0.171388552,cover=3466.78369
					50:[f37<347] yes=65,no=66,missing=65,gain=6.53710938,cover=4801.20898
						65:leaf=-0.173399955,cover=2542.62061
						66:leaf=-0.175411358,cover=2258.58838
				30:leaf=-0.17943418,cover=763.734558
booster[2]
0:[f3<14.0299997] yes=1,no=2,missing=1,gain=1706.5,cover=162350.125
	1:[f38<101.5] yes=3,no=4,missing=3,gain=356.53125,cover=98475.4062
		3:[f32<0.5] yes=7,no=8,missing=7,gain=10.1728516,cover=9328.14258
			7:[f3<7.40999985] yes=15,no=16,missing=15,gain=1.06054688,cover=7625.97461
				15:leaf=-0.174001291,cover=1055.98608
				16:leaf=-0.170199618,cover=6569.98828
			8:[f36<261.5] yes=17,no=18,missing=17,gain=1.1730957,cover=1702.16809
				17:leaf=-0.174001291,cover=695.385193
				18:leaf=-0.17780295,cover=1006.78296
		4:[f32<0.5] yes=9,no=10,missing=9,gain=144.0625,cover=89147.2578
			9:[f3<9.99499989] yes=19,no=20,missing=19,gain=69.4296875,cover=39055.4805
				19:[f25<0.5] yes=29,no=30,missing=29,gain=1.68359375,cover=15305.207
					29:leaf=-0.184800029,cover=14389.8027
					30:leaf=-0.181301489,cover=915.404358
				20:[f38<275.5] yes=31,no=32,missing=31,gain=14.4023438,cover=23750.2715
					31:leaf=-0.17780295,cover=14441.4922
					32:[f37<204] yes=49,no=50,missing=49,gain=0.919921875,cover=9308.78027
						49:leaf=-0.179552227,cover=1913.44189
						50:leaf=-0.181301489,cover=7395.33789
			10:[f3<11.54] yes=21,no=22,missing=21,gain=35.59375,cover=50091.7812
				21:[f3<8.38500023] yes=33,no=34,missing=33,gain=3.96875,cover=31488.2461
					33:leaf=-0.193935648,cover=15667.7168
					34:[f46<7.5] yes=51,no=52,missing=51,gain=2.85546875,cover=15820.5293
						51:leaf=-0.188799307,cover=7415.53564
						52:leaf=-0.192211658,cover=8404.99414
				22:[f38<276.5] yes=35,no=36,missing=35,gain=11.8203125,cover=18603.5352
					35:leaf=-0.184800029,cover=9608.8457
					36:[f41<39] yes=53,no=54,missing=53,gain=1.45117188,cover=8994.68945
						53:leaf=-0.18679966,cover=747.285828
						54:leaf=-0.188799307,cover=8247.40332
	2:[f38<273.5] yes=5,no=6,missing=5,gain=686.976562,cover=63874.7188
		5:[f3<18.5799999] yes=11,no=12,missing=11,gain=372.71875,cover=41215.7734
			11:[f38<101.5] yes=23,no=24,missing=23,gain=216.34375,cover=29103.0039
				23:[f32<0.5] yes=37,no=38,missing=37,gain=10.2958984,cover=4853.48242
					37:leaf=-0.143079743,cover=4009.24048
					38:[f35<242] yes=55,no=56,missing=55,gain=0.83581543,cover=844.241943
						55:leaf=-0.147114024,cover=284.95575
						56:leaf=-0.151148289,cover=559.286194
				24:[f40<172.5] yes=39,no=40,missing=39,gain=40.828125,cover=24249.5215
					39:[f36<105.5] yes=57,no=58,missing=57,gain=8.48242188,cover=13160.3555
						57:[f40<29] yes=67,no=68,missing=67,gain=4.2421875,cover=3991.94238
							67:leaf=-0.157365575,cover=1567.93286
							68:leaf=-0.155514345,cover=2424.00952
						58:leaf=-0.159216821,cover=9168.41309
					40:[f32<0.5] yes=59,no=60,missing=59,gain=20.1289062,cover=11089.165
						59:[f38<254.5] yes=69,no=70,missing=69,gain=0.896484375,cover=6826.56201
							69:leaf=-0.151148289,cover=4994.45361
							70:leaf=-0.15333131,cover=1832.1084
						60:leaf=-0.155514345,cover=4262.60303
			12:[f32<0.5] yes=25,no=26,missing=25,gain=101.494141,cover=12112.7695
				25:[f38<100.5] yes=41,no=42,missing=41,gain=62.6044922,cover=7825.03662
					41:[f1<0.5] yes=61,no=62,missing=61,gain=15.0794678,cover=1478.78674
						61:[f30<12.5] yes=71,no=72,missing=71,gain=11.1221313,cover=968.18927
							71:[f47<6569] yes=79,no=80,missing=79,gain=3.07954979,cover=108.05764
								79:leaf=-0.0746924505,cover=31.8866024
								80:[f0<12437.5] yes=91,no=92,missing=91,gain=4.89408112,cover=76.1710358
									91:leaf=0.0308179706,cover=11.3890715
									92:leaf=-0.05192798,cover=64.7819672
							72:[f46<6.5] yes=81,no=82,missing=81,gain=7.12115479,cover=860.131653
								81:[f35<324] yes=93,no=94,missing=93,gain=4.81589508,cover=281.818451
									93:leaf=-0.0746924505,cover=232.038834
									94:leaf=-0.0907130614,cover=49.7796135
								82:[f35<58.5] yes=95,no=96,missing=95,gain=4.44281006,cover=578.313232
									95:leaf=-0.0907130614,cover=138.615829
									96:leaf=-0.102335744,cover=439.697388
						62:[f38<24] yes=73,no=74,missing=73,gain=1.59976196,cover=510.597473
							73:leaf=-0.102335744,cover=65.5318298
							74:leaf=-0.113786131,cover=445.065643
					42:[f3<20.9949989] yes=63,no=64,missing=63,gain=43.1455078,cover=6346.25
						63:[f8<0.5] yes=75,no=76,missing=75,gain=6.67675781,cover=3336.94873
							75:leaf=-0.132718652,cover=1756.15918
							76:[f27<16.4249992] yes=83,no=84,missing=83,gain=2.85131836,cover=1580.78955
								83:leaf=-0.128634468,cover=680.990967
								84:leaf=-0.12455029,cover=899.798523
						64:[f44<0.5] yes=77,no=78,missing=77,gain=12.4309082,cover=3009.30127
							77:[f47<1951.16003] yes=85,no=86,missing=85,gain=3.2845459,cover=1986.14783
								85:leaf=-0.119168207,cover=192.263794
								86:leaf=-0.113786131,cover=1793.88403
							78:[f41<205.5] yes=87,no=88,missing=87,gain=4.90625,cover=1023.15344
								87:leaf=-0.119168207,cover=467.756134
								88:leaf=-0.12455029,cover=555.397278
				26:[f8<0.5] yes=43,no=44,missing=43,gain=17.230957,cover=4287.73291
					43:[f3<22.0699997] yes=65,no=66,missing=65,gain=6.32617188,cover=3658.70825
						65:leaf=-0.143079743,cover=2344.99146
						66:leaf=-0.13789919,cover=1313.7168
					44:leaf=-0.132718652,cover=629.024536
		6:[f41<39] yes=13,no=14,missing=13,gain=96.2851562,cover=22658.9453
			13:leaf=-0.159216821,cover=3291.85083
			14:[f37<139.5] yes=27,no=28,missing=27,gain=11.6289062,cover=19367.0957
				27:[f36<104.5] yes=45,no=46,missing=45,gain=4.07568359,cover=2318.5918
					45:leaf=-0.164708227,cover=1214.55627
					46:leaf=-0.16745393,cover=1104.03564
				28:[f35<19.5] yes=47,no=48,missing=47,gain=4.5,cover=17048.502
					47:leaf=-0.16745393,cover=452.595612
					48:leaf=-0.170199618,cover=16595.9082
booster[3]
0:[f3<14.0299997] yes=1,no=2,missing=1,gain=1573.09375,cover=155686.016
	1:[f38<211.5] yes=3,no=4,missing=3,gain=371.140625,cover=93897.2344
		3:[f31<0.5] yes=7,no=8,missing=7,gain=126.238281,cover=28248.7598
			7:[f40<329] yes=15,no=16,missing=15,gain=1.12695312,cover=10404.4033
				15:leaf=-0.165675998,cover=9584.88574
				16:leaf=-0.161172047,cover=819.516785
			8:[f3<9.5] yes=17,no=18,missing=17,gain=16.46875,cover=17844.3574
				17:[f38<100.5] yes=31,no=32,missing=31,gain=1.14355469,cover=5978.81592
					31:leaf=-0.158920079,cover=2539.18311
					32:leaf=-0.161172047,cover=3439.63281
				18:leaf=-0.156668097,cover=11865.542
		4:[f3<9.99499989] yes=9,no=10,missing=9,gain=65.625,cover=65648.4766
			9:[f31<0.5] yes=19,no=20,missing=19,gain=5.81640625,cover=29048.1133
				19:leaf=-0.179686472,cover=18502.1016
				20:[f38<276.5] yes=37,no=38,missing=37,gain=1.95703125,cover=10546.0107
					37:leaf=-0.174328551,cover=4569.62891
					38:leaf=-0.177619532,cover=5976.38232
			10:[f31<0.5] yes=21,no=22,missing=21,gain=45.5625,cover=36600.3633
				21:[f41<39] yes=39,no=40,missing=39,gain=13.90625,cover=20381.5605
					39:leaf=-0.169989884,cover=1858.724
					40:[f46<5.5] yes=55,no=56,missing=55,gain=1.6171875,cover=18522.8359
						55:leaf=-0.172159225,cover=5519.58154
						56:leaf=-0.174328551,cover=13003.2549
				22:[f38<275.5] yes=41,no=42,missing=41,gain=8.68164062,cover=16218.8037
					41:[f39<390.5] yes=57,no=58,missing=57,gain=2.36621094,cover=7372.83887
						57:leaf=-0.165675998,cover=6194.42432
						58:leaf=-0.167744264,cover=1178.41455
					42:[f37<370.5] yes=59,no=60,missing=59,gain=3.578125,cover=8845.96484
						59:leaf=-0.167744264,cover=4674.51318
						60:leaf=-0.169989884,cover=4171.45166
	2:[f38<224.5] yes=5,no=6,missing=5,gain=668.867188,cover=61788.7852
		5:[f31<0.5] yes=11,no=12,missing=11,gain=245.535156,cover=24343.7051
			11:[f40<305] yes=23,no=24,missing=23,gain=22.1289062,cover=7838.05908
				23:[f3<20.0950012] yes=43,no=44,missing=43,gain=6.67675781,cover=6752.09863
					43:leaf=-0.141685948,cover=5614.93506
					44:leaf=-0.136366993,cover=1137.16345
				24:[f3<15.7849998] yes=45,no=46,missing=45,gain=1.40966797,cover=1085.96021
					45:leaf=-0.136366993,cover=349.935089
					46:leaf=-0.131048068,cover=736.025085
			12:[f38<100.5] yes=25,no=26,missing=25,gain=150.431641,cover=16505.6465
				25:[f3<15.6149998] yes=47,no=48,missing=47,gain=40.2602539,cover=5360.87793
					47:[f38<2.5] yes=63,no=64,missing=63,gain=5.2713623,cover=1759.46594
						63:leaf=-0.10630551,cover=327.056091
						64:leaf=-0.116121985,cover=1432.40991
					48:[f26<0.5] yes=65,no=66,missing=65,gain=24.9648438,cover=3601.41187
						65:[f10<0.5] yes=77,no=78,missing=77,gain=21.2041016,cover=3471.1582
							77:[f41<234] yes=91,no=92,missing=91,gain=15.6103516,cover=3109.94287
								91:[f1<0.5] yes=99,no=100,missing=99,gain=10.1707153,cover=1373.80542
									99:leaf=-0.0865831226,cover=634.872803
									100:leaf=-0.098893404,cover=738.932617
								92:[f46<7.5] yes=101,no=102,missing=101,gain=3.58496094,cover=1736.13745
									101:leaf=-0.098893404,cover=848.348633
									102:leaf=-0.10630551,cover=887.788818
							78:[f38<73.5] yes=93,no=94,missing=93,gain=1.94919586,cover=361.215332
								93:[f41<405.5] yes=103,no=104,missing=103,gain=0.60017395,cover=261.08548
									103:leaf=-0.0715362057,cover=232.778885
									104:leaf=-0.0790596679,cover=28.3065872
								94:[f46<6.5] yes=105,no=106,missing=105,gain=0.370861053,cover=100.129852
									105:leaf=-0.0790596679,cover=39.2109489
									106:leaf=-0.0865831226,cover=60.9189072
						66:[f30<14.5] yes=79,no=80,missing=79,gain=7.00832748,cover=130.253738
							79:[f3<21.1100006] yes=95,no=96,missing=95,gain=4.91284561,cover=40.3807068
								95:[f4<592.594971] yes=107,no=108,missing=107,gain=3.52137089,cover=33.9576797
									107:leaf=-0.0331063084,cover=27.206007
									108:leaf=0.0316845961,cover=6.75167084
								96:leaf=0.0851973593,cover=6.42302847
							80:[f47<9398.40039] yes=97,no=98,missing=97,gain=5.88575935,cover=89.8730316
								97:[f27<21.9200001] yes=109,no=110,missing=109,gain=1.39320183,cover=59.8853645
									109:leaf=-0.0715362057,cover=52.3766937
									110:leaf=-0.0523212552,cover=7.50867224
								98:[f41<383.5] yes=111,no=112,missing=111,gain=0.583515704,cover=29.9876671
									111:leaf=-0.0331063084,cover=24.6190872
									112:leaf=-0.0523212552,cover=5.36857939
				26:[f39<296.5] yes=49,no=50,missing=49,gain=89.2548828,cover=11144.7686
					49:[f3<17.0100002] yes=67,no=68,missing=67,gain=25.5673828,cover=6046.83496
						67:[f43<0.5] yes=81,no=82,missing=81,gain=2.89575195,cover=2857.16162
							81:leaf=-0.123585023,cover=2502.43896
							82:leaf=-0.119853511,cover=354.722809
						68:[f40<11] yes=83,no=84,missing=83,gain=2.91381836,cover=3189.6731
							83:leaf=-0.119853511,cover=161.632629
							84:leaf=-0.116121985,cover=3028.04053
					50:[f3<20.9949989] yes=69,no=70,missing=69,gain=6.61962891,cover=5097.93311
						69:[f36<90.5] yes=85,no=86,missing=85,gain=0.7578125,cover=4354.03125
							85:leaf=-0.127316535,cover=247.780884
							86:leaf=-0.131048068,cover=4106.25
						70:[f40<115.5] yes=87,no=88,missing=87,gain=1.61413574,cover=743.902283
							87:leaf=-0.127316535,cover=352.919373
							88:leaf=-0.123585023,cover=390.982941
		6:[f3<18.5799999] yes=13,no=14,missing=13,gain=204.730469,cover=37445.082
			13:[f39<43.5] yes=27,no=28,missing=27,gain=49.3046875,cover=27052.8398
				27:leaf=-0.149177015,cover=2778.44751
				28:[f41<39] yes=51,no=52,missing=51,gain=7.453125,cover=24274.3926
					51:leaf=-0.152922556,cover=2144.32739
					52:[f36<99.5] yes=71,no=72,missing=71,gain=0.828125,cover=22130.0645
						71:[f38<300.5] yes=89,no=90,missing=89,gain=1.51464844,cover=5840.37256
							89:leaf=-0.154795334,cover=3659.67651
							90:leaf=-0.155731723,cover=2180.6958
						72:leaf=-0.156668097,cover=16289.6924
			14:[f39<354.5] yes=29,no=30,missing=29,gain=25.6376953,cover=10392.2412
				29:[f36<449.5] yes=53,no=54,missing=53,gain=9.7421875,cover=9048.89258
					53:[f40<40] yes=73,no=74,missing=73,gain=2.23339844,cover=8289.96387
						73:leaf=-0.143558711,cover=784.476868
						74:leaf=-0.141685948,cover=7505.4873
					54:leaf=-0.145431474,cover=758.928894
				30:leaf=-0.149177015,cover=1343.34814
booster[4]
0:[f3<15.6149998] yes=1,no=2,missing=1,gain=1533.48438,cover=148059.906
	1:[f38<211.5] yes=3,no=4,missing=3,gain=521.546875,cover=107810.43
		3:[f32<0.5] yes=7,no=8,missing=7,gain=182.339844,cover=33560.5508
			7:[f3<9.73500061] yes=15,no=16,missing=15,gain=33.8574219,cover=21473.6445
				15:[f25<0.5] yes=29,no=30,missing=29,gain=0.741210938,cover=6116.70703
					29:leaf=-0.146880493,cover=5365.02637
					30:leaf=-0.144311115,cover=751.680664
				16:[f40<17.5] yes=31,no=32,missing=31,gain=2.74804688,cover=15356.9385
					31:leaf=-0.144311115,cover=842.830017
					32:leaf=-0.141741738,cover=14514.1084
			8:[f40<329] yes=17,no=18,missing=17,gain=4.08007812,cover=12086.9033
				17:[f3<14.915] yes=33,no=34,missing=33,gain=0.705078125,cover=11081.0205
					33:leaf=-0.152019233,cover=9996.71289
					34:leaf=-0.149449855,cover=1084.30762
				18:leaf=-0.146880493,cover=1005.88281
		4:[f3<12.7600002] yes=9,no=10,missing=9,gain=150.53125,cover=74249.8828
			9:[f32<0.5] yes=19,no=20,missing=19,gain=34.2265625,cover=49268.9609
				19:[f3<9.5] yes=37,no=38,missing=37,gain=16.0742188,cover=19784.7637
					37:leaf=-0.164205238,cover=8304.18848
					38:[f17<0.5] yes=55,no=56,missing=55,gain=2.49023438,cover=11480.5762
						55:leaf=-0.159131527,cover=7263.1167
						56:leaf=-0.16166839,cover=4217.45947
				20:[f46<5.5] yes=39,no=40,missing=39,gain=7.890625,cover=29484.1973
					39:[f3<8.78499985] yes=57,no=58,missing=57,gain=1.3984375,cover=8815.65527
						57:leaf=-0.166565731,cover=3714.76782
						58:leaf=-0.164205238,cover=5100.88721
					40:[f38<276.5] yes=59,no=60,missing=59,gain=3.1171875,cover=20668.543
						59:[f39<296.5] yes=79,no=80,missing=79,gain=0.896484375,cover=7566.74268
							79:leaf=-0.166565731,cover=3853.16113
							80:leaf=-0.168456763,cover=3713.58154
						60:[f41<39] yes=81,no=82,missing=81,gain=1.07617188,cover=13101.7998
							81:leaf=-0.168456763,cover=740.455444
							82:leaf=-0.171163529,cover=12361.3438
			10:[f32<0.5] yes=21,no=22,missing=21,gain=41.4492188,cover=24980.918
				21:[f39<383] yes=41,no=42,missing=41,gain=4.3125,cover=11724.5781
					41:[f36<449.5] yes=61,no=62,missing=61,gain=0.967773438,cover=10789.9014
						61:leaf=-0.152019233,cover=9972.48535
						62:leaf=-0.153786838,cover=817.415588
					42:leaf=-0.155554458,cover=934.67688
				22:[f41<70] yes=43,no=44,missing=43,gain=10.5605469,cover=13256.3408
					43:[f38<322.5] yes=63,no=64,missing=63,gain=0.767089844,cover=3767.01416
						63:leaf=-0.155554458,cover=2819.17041
						64:leaf=-0.157342985,cover=947.843933
					44:[f36<98.5] yes=65,no=66,missing=65,gain=1.12695312,cover=9489.32617
						65:leaf=-0.157342985,cover=2901.78052
						66:leaf=-0.159131527,cover=6587.5459
	2:[f38<275.5] yes=5,no=6,missing=5,gain=524.3125,cover=40249.4805
		5:[f39<298.5] yes=11,no=12,missing=11,gain=263.015625,cover=26153.8613
			11:[f3<20.9949989] yes=23,no=24,missing=23,gain=127.803711,cover=15498.874
				23:[f38<187.5] yes=45,no=46,missing=45,gain=91.2412109,cover=12329.584
					45:[f32<0.5] yes=67,no=68,missing=67,gain=25.7102051,cover=4055.44263
						67:[f40<11] yes=83,no=84,missing=83,gain=5.10290527,cover=3242.50122
							83:leaf=-0.104489788,cover=181.431946
							84:[f39<285] yes=99,no=100,missing=99,gain=0.616333008,cover=3061.06934
								99:leaf=-0.0997402892,cover=2282.65771
								100:leaf=-0.102115035,cover=778.411377
						68:[f40<256.5] yes=85,no=86,missing=85,gain=0.719909668,cover=812.941528
							85:leaf=-0.109239273,cover=662.958557
							86:leaf=-0.104489788,cover=149.982971
					46:[f7<0.5] yes=69,no=70,missing=69,gain=17.6416016,cover=8274.1416
						69:[f39<40.5] yes=87,no=88,missing=87,gain=6.25341797,cover=6723.11182
							87:leaf=-0.113988765,cover=492.060577
							88:[f3<18.3199997] yes=101,no=102,missing=101,gain=0.40625,cover=6231.05127
								101:leaf=-0.118738256,cover=3448.88623
								102:[f8<0.5] yes=117,no=118,missing=117,gain=2.05444336,cover=2782.16504
									117:leaf=-0.11755088,cover=1580.83496
									118:leaf=-0.11636351,cover=1201.3302
						70:[f12<0.5] yes=89,no=90,missing=89,gain=0.326049805,cover=1551.02942
							89:leaf=-0.109239273,cover=846.511047
							90:leaf=-0.113988765,cover=704.518311
				24:[f39<37.5] yes=47,no=48,missing=47,gain=26.4077148,cover=3169.29004
					47:[f38<145] yes=71,no=72,missing=71,gain=6.83063698,cover=135.805679
						71:[f40<279.5] yes=91,no=92,missing=91,gain=3.25155973,cover=22.0522022
							91:[f47<16298.7998] yes=103,no=104,missing=103,gain=0.943665147,cover=15.0435114
								103:leaf=-0.0102689611,cover=9.56296921
								104:leaf=0.0358368717,cover=5.48054266
							92:leaf=0.0871073678,cover=7.00869131
						72:[f11<0.5] yes=93,no=94,missing=93,gain=3.1601162,cover=113.753479
							93:[f38<191] yes=105,no=106,missing=105,gain=2.30117226,cover=103.800186
								105:[f46<10.5] yes=119,no=120,missing=119,gain=1.07784748,cover=59.466095
									119:leaf=-0.0317078866,cover=43.6798859
									120:leaf=-0.0479974225,cover=15.7862072
								106:leaf=-0.0614665635,cover=44.3340912
							94:leaf=-0.0102689611,cover=9.95329571
					48:[f14<0.5] yes=73,no=74,missing=73,gain=17.9310303,cover=3033.48438
						73:[f38<107] yes=95,no=96,missing=95,gain=5.26647949,cover=1605.43652
							95:[f35<295.5] yes=107,no=108,missing=107,gain=0.328147888,cover=222.783783
								107:leaf=-0.0879854709,cover=203.481415
								108:leaf=-0.0938628763,cover=19.3023682
							96:[f39<52.5] yes=109,no=110,missing=109,gain=1.74450684,cover=1382.65271
								109:leaf=-0.0938628763,cover=204.822601
								110:leaf=-0.0997402892,cover=1177.8302
						74:[f4<467.794983] yes=97,no=98,missing=97,gain=12.4026489,cover=1428.04785
							97:[f38<160.5] yes=111,no=112,missing=111,gain=1.84609985,cover=707.241272
								111:leaf=-0.0776338726,cover=114.034538
								112:leaf=-0.0879854709,cover=593.206726
							98:[f35<75.5] yes=113,no=114,missing=113,gain=5.25622559,cover=720.80658
								113:[f0<30012.5] yes=125,no=126,missing=125,gain=1.14905167,cover=303.15686
									125:leaf=-0.0614665635,cover=246.030838
									126:leaf=-0.0693174899,cover=57.1260147
								114:[f32<0.5] yes=127,no=128,missing=127,gain=1.68008423,cover=417.64975
									127:leaf=-0.0693174899,cover=292.263
									128:leaf=-0.0776338726,cover=125.386757
			12:[f38<119] yes=25,no=26,missing=25,gain=84.5185547,cover=10654.9873
				25:[f36<261.5] yes=49,no=50,missing=49,gain=9.14941406,cover=3455.479
					49:[f37<393.5] yes=75,no=76,missing=75,gain=0.519287109,cover=2988.8479
						75:leaf=-0.118738256,cover=2507.98389
						76:leaf=-0.121492967,cover=480.863983
					50:leaf=-0.124247685,cover=466.631165
				26:[f40<173] yes=51,no=52,missing=51,gain=8.06933594,cover=7199.5083
					51:[f7<0.5] yes=77,no=78,missing=77,gain=1.234375,cover=6324.57373
						77:leaf=-0.129757121,cover=6004.76318
						78:leaf=-0.127002403,cover=319.81073
					52:leaf=-0.124247685,cover=874.934204
		6:[f41<39] yes=13,no=14,missing=13,gain=87.1425781,cover=14095.6201
			13:leaf=-0.129757121,cover=2013.47461
			14:[f7<0.5] yes=27,no=28,missing=27,gain=10.1210938,cover=12082.1455
				27:[f36<34] yes=53,no=54,missing=53,gain=2.10742188,cover=11801.6426
					53:leaf=-0.138745591,cover=960.162781
					54:leaf=-0.141741738,cover=10841.4795
				28:leaf=-0.135749429,cover=280.502655
booster[5]
0:[f3<14.0299997] yes=1,no=2,missing=1,gain=1536.51562,cover=139839.391
	1:[f32<0.5] yes=3,no=4,missing=3,gain=354.375,cover=83170.25
		3:[f3<10.1549997] yes=7,no=8,missing=7,gain=158.871094,cover=39777.7773
			7:[f15<0.666656852] yes=15,no=16,missing=15,gain=21.3320312,cover=16121.8584
				15:leaf=-0.142279521,cover=2950.67749
				16:[f26<0.5] yes=31,no=32,missing=31,gain=1.1484375,cover=13171.1807
					31:leaf=-0.148488611,cover=13059.75
					32:leaf=-0.145384073,cover=111.43058
			8:[f15<0.685357809] yes=17,no=18,missing=17,gain=27.8027344,cover=23655.9199
				17:[f36<449.5] yes=33,no=34,missing=33,gain=4.1015625,cover=14901.2656
					33:[f39<424.5] yes=55,no=56,missing=55,gain=0.454101562,cover=14111.9258
						55:leaf=-0.13607043,cover=13541.0352
						56:leaf=-0.137622714,cover=570.890991
					34:leaf=-0.139174968,cover=789.339417
				18:[f40<374.5] yes=35,no=36,missing=35,gain=3.99707031,cover=8754.6543
					35:[f39<43.5] yes=57,no=58,missing=57,gain=1.07617188,cover=8242.66797
						57:leaf=-0.140727252,cover=865.734619
						58:leaf=-0.142279521,cover=7376.93311
					36:leaf=-0.139174968,cover=511.987061
		4:[f3<11.54] yes=9,no=10,missing=9,gain=47.25,cover=43392.4727
			9:[f3<8.38500023] yes=19,no=20,missing=19,gain=7.09375,cover=27156.8398
				19:leaf=-0.161585167,cover=13449.6875
				20:[f46<6.5] yes=37,no=38,missing=37,gain=4.1640625,cover=13707.1523
					37:leaf=-0.155264437,cover=4904.92383
					38:leaf=-0.159230247,cover=8802.22852
			10:[f46<6.5] yes=21,no=22,missing=21,gain=18.140625,cover=16235.6348
				21:leaf=-0.148488611,cover=5911.19434
				22:[f41<70] yes=39,no=40,missing=39,gain=5.43554688,cover=10324.4395
					39:leaf=-0.151574299,cover=2338.68433
					40:leaf=-0.155264437,cover=7985.75537
	2:[f32<0.5] yes=5,no=6,missing=5,gain=575.320312,cover=56669.1445
		5:[f3<18.5799999] yes=11,no=12,missing=11,gain=257.974609,cover=33217.6992
			11:[f15<0.67928493] yes=23,no=24,missing=23,gain=81.9121094,cover=23128.8125
				23:[f7<0.5] yes=41,no=42,missing=41,gain=45.4296875,cover=12447.042
					41:[f39<40.5] yes=59,no=60,missing=59,gain=11.0600586,cover=7000.36572
						59:leaf=-0.113743909,cover=463.378326
						60:[f40<365.5] yes=75,no=76,missing=75,gain=4.85986328,cover=6536.98779
							75:leaf=-0.118846372,cover=6111.09766
							76:leaf=-0.116295144,cover=425.889832
					42:[f3<15.1599998] yes=61,no=62,missing=61,gain=20.0454102,cover=5446.67578
						61:leaf=-0.113743909,cover=2796.93433
						62:leaf=-0.108641446,cover=2649.74146
				24:[f39<43.5] yes=43,no=44,missing=43,gain=8.93359375,cover=10681.7705
					43:leaf=-0.118846372,cover=1095.42859
					44:[f40<366] yes=63,no=64,missing=63,gain=3.98632812,cover=9586.34277
						63:leaf=-0.124608241,cover=8891.45508
						64:leaf=-0.12172731,cover=694.887146
			12:[f39<36.5] yes=25,no=26,missing=25,gain=54.0146484,cover=10088.8857
				25:[f15<0.68366009] yes=45,no=46,missing=45,gain=21.4347534,cover=375.266449
					45:[f26<0.5] yes=65,no=66,missing=65,gain=10.2683172,cover=194.127151
						65:[f28<6.5] yes=79,no=80,missing=79,gain=5.89475441,cover=185.050568
							79:[f41<416] yes=91,no=92,missing=91,gain=4.30024242,cover=41.2360306
								91:[f16<0.5] yes=109,no=110,missing=109,gain=0.488521576,cover=13.7241936
									109:leaf=0.0314413756,cover=8.71372128
									110:leaf=0.00749719096,cover=5.01047182
								92:[f30<6.5] yes=111,no=112,missing=111,gain=0.841157198,cover=27.5118389
									111:leaf=0.00749719096,cover=7.12544918
									112:leaf=-0.0164469928,cover=20.3863888
							80:[f40<279.5] yes=93,no=94,missing=93,gain=4.3677597,cover=143.814529
								93:[f41<18.5] yes=113,no=114,missing=113,gain=1.7985611,cover=97.9993362
									113:leaf=-0.0332318097,cover=19.0359554
									114:leaf=-0.0500166304,cover=78.9633789
								94:[f28<17.5] yes=115,no=116,missing=115,gain=1.34367871,cover=45.8152008
									115:leaf=-0.0164469928,cover=39.8460541
									116:leaf=-0.0332318097,cover=5.96914625
						66:leaf=0.0934792161,cover=9.07658863
					46:[f4<1267.94507] yes=67,no=68,missing=67,gain=1.50914001,cover=181.139297
						67:[f3<23.3050003] yes=81,no=82,missing=81,gain=0.332046509,cover=173.979553
							81:leaf=-0.0756874084,cover=149.658493
							82:leaf=-0.0628520176,cover=24.3210697
						68:leaf=-0.0500166304,cover=7.15973663
				26:[f3<20.9949989] yes=47,no=48,missing=47,gain=48.8007812,cover=9713.61914
					47:[f8<0.5] yes=69,no=70,missing=69,gain=47.9077148,cover=5132.92773
						69:[f10<0.5] yes=83,no=84,missing=83,gain=3.76904297,cover=3019.70435
							83:[f40<366] yes=97,no=98,missing=97,gain=0.59765625,cover=2931.11475
								97:leaf=-0.108641446,cover=2792.47852
								98:leaf=-0.106081069,cover=138.636047
							84:leaf=-0.103520699,cover=88.5897446
						70:[f15<0.699041545] yes=85,no=86,missing=85,gain=2.63049316,cover=2113.22339
							85:leaf=-0.0983999595,cover=1795.18457
							86:leaf=-0.103520699,cover=318.038788
					48:[f9<0.5] yes=71,no=72,missing=71,gain=39.1950684,cover=4580.69141
						71:[f41<39.5] yes=87,no=88,missing=87,gain=11.6306152,cover=2747.83228
							87:[f42<0.5] yes=101,no=102,missing=101,gain=0.344856262,cover=251.641998
								101:leaf=-0.0873028859,cover=231.376633
								102:leaf=-0.0928514153,cover=20.2653599
							88:[f46<6.5] yes=103,no=104,missing=103,gain=3.27478027,cover=2496.19019
								103:[f18<0.5] yes=117,no=118,missing=117,gain=1.08068848,cover=1084.83521
									117:leaf=-0.0956256837,cover=460.00531
									118:leaf=-0.0928514153,cover=624.829895
								104:leaf=-0.0983999595,cover=1411.3551
						72:[f15<0.694189072] yes=89,no=90,missing=89,gain=12.0241699,cover=1832.85938
							89:[f4<201.169998] yes=105,no=106,missing=105,gain=3.88903809,cover=1337.97742
								105:leaf=-0.0814951435,cover=203.831436
								106:[f29<0.5] yes=119,no=120,missing=119,gain=0.357574463,cover=1134.146
									119:leaf=-0.0756874084,cover=985.04126
									120:leaf=-0.0785912797,cover=149.104691
							90:[f4<960.655029] yes=107,no=108,missing=107,gain=0.43548584,cover=494.881958
								107:leaf=-0.0873028859,cover=372.06076
								108:leaf=-0.0814951435,cover=122.82122
		6:[f3<18.6499996] yes=13,no=14,missing=13,gain=81.34375,cover=23451.4453
			13:[f46<3.5] yes=27,no=28,missing=27,gain=9.36328125,cover=17170.7031
				27:[f3<15.1499996] yes=49,no=50,missing=49,gain=2.03393555,cover=2725.25659
					49:leaf=-0.133204877,cover=940.17981
					50:leaf=-0.130339339,cover=1785.07678
				28:[f39<43.5] yes=51,no=52,missing=51,gain=1.41210938,cover=14445.4473
					51:leaf=-0.133204877,cover=995.414062
					52:leaf=-0.13607043,cover=13450.0332
			14:[f36<427] yes=29,no=30,missing=29,gain=7.1015625,cover=6280.74072
				29:[f40<39.5] yes=53,no=54,missing=53,gain=3.17089844,cover=5833.38232
					53:leaf=-0.127473801,cover=613.9198
					54:[f41<391] yes=73,no=74,missing=73,gain=0.770996094,cover=5219.46289
						73:leaf=-0.124608241,cover=4529.41602
						74:leaf=-0.126041025,cover=690.046631
				30:leaf=-0.130339339,cover=447.358398
booster[6]
0:[f3<14.0299997] yes=1,no=2,missing=1,gain=1536.07812,cover=131554.578
	1:[f38<211.5] yes=3,no=4,missing=3,gain=418.257812,cover=77589.1953
		3:[f31<0.5] yes=7,no=8,missing=7,gain=123.119141,cover=23691.6289
			7:[f40<305] yes=15,no=16,missing=15,gain=2.84667969,cover=8588.7998
				15:leaf=-0.137407675,cover=7608.04346
				16:[f3<10.0699997] yes=31,no=32,missing=31,gain=0.339111328,cover=980.756531
					31:leaf=-0.135038689,cover=403.075134
					32:leaf=-0.132669687,cover=577.681396
			8:[f3<8.44000053] yes=17,no=18,missing=17,gain=17.0117188,cover=15102.8301
				17:[f15<0.66667676] yes=33,no=34,missing=33,gain=2.65136719,cover=3746.04077
					33:leaf=-0.130300686,cover=783.206116
					34:leaf=-0.132669687,cover=2962.83472
				18:[f40<17.5] yes=35,no=36,missing=35,gain=1.5078125,cover=11356.7891
					35:leaf=-0.130300686,cover=660.775452
					36:leaf=-0.127931699,cover=10696.0137
		4:[f3<11.5349998] yes=9,no=10,missing=9,gain=78.6796875,cover=53897.5625
			9:[f31<0.5] yes=19,no=20,missing=19,gain=22.1914062,cover=32752.1543
				19:[f41<39] yes=37,no=38,missing=37,gain=3.2734375,cover=20011.6387
					37:leaf=-0.149846032,cover=1350.17493
					38:[f38<276.5] yes=57,no=58,missing=57,gain=3.21484375,cover=18661.4629
						57:leaf=-0.151807889,cover=6508.78027
						58:leaf=-0.155211404,cover=12152.6836
				20:[f3<8.79999924] yes=39,no=40,missing=39,gain=8.09375,cover=12740.5166
					39:leaf=-0.149846032,cover=5349.77002
					40:leaf=-0.145864815,cover=7390.74609
			10:[f38<276.5] yes=21,no=22,missing=21,gain=36.8691406,cover=21145.4102
				21:[f39<296.5] yes=41,no=42,missing=41,gain=15.7324219,cover=8986.05273
					41:leaf=-0.137407675,cover=5623.06787
					42:leaf=-0.141564965,cover=3362.98486
				22:[f41<39] yes=43,no=44,missing=43,gain=13.96875,cover=12159.3574
					43:leaf=-0.141564965,cover=1330.8739
					44:[f37<242.5] yes=63,no=64,missing=63,gain=2.45703125,cover=10828.4834
						63:leaf=-0.14371489,cover=3018.19727
						64:leaf=-0.145864815,cover=7810.28613
	2:[f38<224.5] yes=5,no=6,missing=5,gain=653.347656,cover=53965.3867
		5:[f38<101.5] yes=11,no=12,missing=11,gain=242.107422,cover=21655.4297
			11:[f31<0.5] yes=23,no=24,missing=23,gain=52.2990723,cover=5901.58496
				23:[f3<20.9949989] yes=45,no=46,missing=45,gain=3.75604248,cover=1004.86169
					45:leaf=-0.0922669172,cover=866.938171
					46:leaf=-0.0823004171,cover=137.923538
				24:[f15<0.683987379] yes=47,no=48,missing=47,gain=43.9979248,cover=4896.72314
					47:[f1<0.5] yes=69,no=70,missing=69,gain=29.3132935,cover=2901.45923
						69:[f38<27] yes=93,no=94,missing=93,gain=13.5615387,cover=1047.31409
							93:[f15<0.668808162] yes=115,no=116,missing=115,gain=8.82010174,cover=320.092529
								115:[f41<387] yes=127,no=128,missing=127,gain=6.02719116,cover=142.623398
									127:leaf=0.0119312927,cover=115.65937
									128:leaf=-0.0222175829,cover=26.9640236
								116:[f4<389.859985] yes=129,no=130,missing=129,gain=3.43112946,cover=177.469131
									129:leaf=-0.0407857113,cover=92.5719986
									130:leaf=-0.0222175829,cover=84.8971329
							94:[f40<253.5] yes=117,no=118,missing=117,gain=11.810318,cover=727.221619
								117:[f3<21.7200012] yes=131,no=132,missing=131,gain=2.12361145,cover=516.979675
									131:leaf=-0.0591348931,cover=419.963989
									132:leaf=-0.0499603003,cover=97.0157013
								118:[f42<0.5] yes=133,no=134,missing=133,gain=0.910416603,cover=210.241913
									133:leaf=-0.0407857113,cover=161.820541
									134:leaf=-0.0499603003,cover=48.4213638
						70:[f15<0.649238944] yes=95,no=96,missing=95,gain=5.76831055,cover=1854.14502
							95:[f4<154.375] yes=119,no=120,missing=119,gain=0.916362762,cover=278.289734
								119:leaf=-0.0658038929,cover=113.844398
								120:leaf=-0.0591348931,cover=164.445343
							96:[f4<515.934998] yes=121,no=122,missing=121,gain=3.14703369,cover=1575.85535
								121:[f39<36.5] yes=139,no=140,missing=139,gain=0.499023438,cover=1278.86816
									139:leaf=-0.0691383854,cover=51.5245323
									140:leaf=-0.0724728853,cover=1227.34363
								122:leaf=-0.0658038929,cover=296.987122
					48:[f3<19.7299995] yes=71,no=72,missing=71,gain=7.33276367,cover=1995.26404
						71:[f38<3] yes=97,no=98,missing=97,gain=1.94012451,cover=1546.99341
							97:leaf=-0.0773866549,cover=231.746841
							98:leaf=-0.0823004171,cover=1315.24658
						72:[f15<0.708768964] yes=99,no=100,missing=99,gain=0.7215271,cover=448.27066
							99:leaf=-0.0724728853,cover=362.078522
							100:leaf=-0.0773866549,cover=86.192131
			12:[f39<298.5] yes=25,no=26,missing=25,gain=183.469727,cover=15753.8457
				25:[f3<17.0100002] yes=49,no=50,missing=49,gain=50.3496094,cover=8427.02539
					49:[f15<0.671946049] yes=73,no=74,missing=73,gain=7.5925293,cover=4032.34448
						73:[f40<11] yes=101,no=102,missing=101,gain=0.958312988,cover=1384.68164
							101:leaf=-0.0999428853,cover=129.112442
							102:leaf=-0.0973842293,cover=1255.56921
						74:[f43<0.5] yes=103,no=104,missing=103,gain=0.631591797,cover=2647.66284
							103:leaf=-0.102501541,cover=2419.47827
							104:leaf=-0.0999428853,cover=228.184631
					50:[f40<11] yes=75,no=76,missing=75,gain=8.48669434,cover=4394.68066
						75:leaf=-0.0973842293,cover=301.270721
						76:[f4<129.084991] yes=105,no=106,missing=105,gain=0.427001953,cover=4093.40991
							105:leaf=-0.0948255733,cover=261.443756
							106:leaf=-0.0922669172,cover=3831.96631
				26:[f40<127.5] yes=51,no=52,missing=51,gain=28.2363281,cover=7326.81982
					51:leaf=-0.112152189,cover=4165.35547
					52:[f3<17.2649994] yes=79,no=80,missing=79,gain=11.1101074,cover=3161.46484
						79:leaf=-0.107326865,cover=1654.80811
						80:[f39<431] yes=109,no=110,missing=109,gain=0.513122559,cover=1506.65674
							109:leaf=-0.102501541,cover=1443.64246
							110:leaf=-0.104914203,cover=63.0142365
		6:[f3<19.1949997] yes=13,no=14,missing=13,gain=206.207031,cover=32309.957
			13:[f39<43.5] yes=27,no=28,missing=27,gain=61.8085938,cover=24803.3535
				27:leaf=-0.120041937,cover=2590.89526
				28:[f41<39] yes=53,no=54,missing=53,gain=12.5332031,cover=22212.457
					53:[f42<0.5] yes=81,no=82,missing=81,gain=0.509399414,cover=1981.61853
						81:leaf=-0.12398681,cover=1716.61548
						82:leaf=-0.125959247,cover=265.00293
					54:[f46<3.5] yes=83,no=84,missing=83,gain=0.5546875,cover=20230.8398
						83:leaf=-0.125959247,cover=4323.62109
						84:leaf=-0.127931699,cover=15907.2178
			14:[f39<383] yes=29,no=30,missing=29,gain=19.5268555,cover=7506.60303
				29:[f38<300] yes=55,no=56,missing=55,gain=4.91699219,cover=6886.96387
					55:[f37<427] yes=85,no=86,missing=85,gain=1.69458008,cover=4006.09131
						85:leaf=-0.112152189,cover=3681.36621
						86:leaf=-0.114124626,cover=324.725159
					56:[f41<39] yes=87,no=88,missing=87,gain=6.66479492,cover=2880.87256
						87:leaf=-0.114124626,cover=736.448853
						88:leaf=-0.116097063,cover=2144.42358
				30:leaf=-0.120041937,cover=619.639404
booster[7]
0:[f3<14.0299997] yes=1,no=2,missing=1,gain=1572.53125,cover=123330.023
	1:[f38<211.5] yes=3,no=4,missing=3,gain=448.226562,cover=72018.3984
		3:[f31<0.5] yes=7,no=8,missing=7,gain=128.472656,cover=22194.627
			7:[f3<12.7700005] yes=15,no=16,missing=15,gain=2.63378906,cover=8031.35596
				15:leaf=-0.130561084,cover=6253.25391
				16:[f35<214.5] yes=29,no=30,missing=29,gain=0.447387695,cover=1778.10193
					29:leaf=-0.125563741,cover=717.704468
					30:leaf=-0.128062412,cover=1060.39746
			8:[f3<8.44000053] yes=17,no=18,missing=17,gain=16.8066406,cover=14163.2715
				17:[f15<0.666689277] yes=31,no=32,missing=31,gain=3.36230469,cover=3503.40381
					31:leaf=-0.123065054,cover=736.700928
					32:leaf=-0.125563741,cover=2766.70288
				18:[f15<0.700160265] yes=33,no=34,missing=33,gain=0.357421875,cover=10659.8682
					33:leaf=-0.120566376,cover=9093.05957
					34:leaf=-0.123065054,cover=1566.80835
		4:[f3<11.5349998] yes=9,no=10,missing=9,gain=77.4140625,cover=49823.7734
			9:[f31<0.5] yes=19,no=20,missing=19,gain=25.921875,cover=30205.7812
				19:[f38<276.5] yes=35,no=36,missing=35,gain=3.8046875,cover=18415.0195
					35:[f39<296.5] yes=55,no=56,missing=55,gain=3.10253906,cover=6624.36816
						55:leaf=-0.143568799,cover=3307.39209
						56:leaf=-0.146653965,cover=3316.97583
					36:[f41<39] yes=57,no=58,missing=57,gain=1.23046875,cover=11790.6504
						57:leaf=-0.146653965,cover=628.492676
						58:leaf=-0.149522632,cover=11162.1582
				20:[f3<8.79999924] yes=37,no=38,missing=37,gain=7.95019531,cover=11790.7617
					37:leaf=-0.143568799,cover=4952.67627
					38:[f17<0.5] yes=59,no=60,missing=59,gain=0.436523438,cover=6838.08594
						59:leaf=-0.139519751,cover=4324.98145
						60:leaf=-0.141544268,cover=2513.10449
			10:[f38<276.5] yes=21,no=22,missing=21,gain=38.7324219,cover=19617.9941
				21:[f39<296.5] yes=39,no=40,missing=39,gain=17.2236328,cover=8371.54004
					39:leaf=-0.130561084,cover=5250.49658
					40:[f43<0.5] yes=61,no=62,missing=61,gain=0.683105469,cover=3121.04346
						61:leaf=-0.135031506,cover=2644.09351
						62:leaf=-0.132796302,cover=476.94986
				22:[f41<39] yes=41,no=42,missing=41,gain=14.5585938,cover=11246.4531
					41:leaf=-0.135031506,cover=1228.2771
					42:[f37<242.5] yes=63,no=64,missing=63,gain=2.73046875,cover=10018.1758
						63:leaf=-0.137275621,cover=2791.89136
						64:leaf=-0.139519751,cover=7226.28467
	2:[f38<273.5] yes=5,no=6,missing=5,gain=668.660156,cover=51311.6211
		5:[f31<0.5] yes=11,no=12,missing=11,gain=345.183594,cover=33707.4023
			11:[f3<18.6499996] yes=23,no=24,missing=23,gain=45.3642578,cover=12353.6885
				23:[f38<73.5] yes=43,no=44,missing=43,gain=1.35839844,cover=8828.71973
					43:[f41<413] yes=65,no=66,missing=65,gain=1.1803894,cover=463.487579
						65:leaf=-0.103304043,cover=357.969177
						66:leaf=-0.105972603,cover=105.518379
					44:leaf=-0.108641163,cover=8365.23145
				24:[f39<300.5] yes=45,no=46,missing=45,gain=7.87670898,cover=3524.96973
					45:[f15<0.701898158] yes=67,no=68,missing=67,gain=0.671508789,cover=2127.92871
						67:leaf=-0.0979669318,cover=1845.28235
						68:leaf=-0.100635491,cover=282.646423
					46:[f38<119] yes=69,no=70,missing=69,gain=3.42883301,cover=1397.04089
						69:leaf=-0.100635491,cover=442.37442
						70:leaf=-0.103304043,cover=954.666443
			12:[f38<101.5] yes=25,no=26,missing=25,gain=218.783203,cover=21353.7129
				25:[f35<318.5] yes=47,no=48,missing=47,gain=47.1234131,cover=4778.49756
					47:[f15<0.673367023] yes=71,no=72,missing=71,gain=43.9249878,cover=3318.52417
						71:[f47<3528.04004] yes=81,no=82,missing=81,gain=25.1180649,cover=1206.92224
							81:[f15<0.648789465] yes=97,no=98,missing=97,gain=5.98062134,cover=777.098511
								97:[f38<42.5] yes=115,no=116,missing=115,gain=2.53806019,cover=192.443466
									115:leaf=-0.0332778208,cover=83.7823868
									116:leaf=-0.0430403389,cover=108.661079
								98:[f41<83] yes=117,no=118,missing=117,gain=2.00357056,cover=584.655029
									117:leaf=-0.0430403389,cover=164.222488
									118:leaf=-0.0528028607,cover=420.432556
							82:[f38<8.5] yes=99,no=100,missing=99,gain=10.9010735,cover=429.823761
								99:[f15<0.671272874] yes=119,no=120,missing=119,gain=3.63840985,cover=70.347229
									119:leaf=0.0431344286,cover=56.9873009
									120:leaf=0.00189766136,cover=13.3599281
								100:[f35<24.5] yes=121,no=122,missing=121,gain=11.0015192,cover=359.476532
									121:leaf=0.00189766136,cover=89.9372864
									122:leaf=-0.0332778208,cover=269.539246
						72:[f3<19.7299995] yes=83,no=84,missing=83,gain=12.3999023,cover=2111.60181
							83:[f9<0.5] yes=101,no=102,missing=101,gain=3.99536133,cover=1659.68958
								101:[f26<0.5] yes=123,no=124,missing=123,gain=1.04675293,cover=1473.12524
									123:leaf=-0.067993179,cover=1430.46545
									124:leaf=-0.0641955957,cover=42.6598625
								102:leaf=-0.0603980161,cover=186.56427
							84:[f15<0.700984597] yes=103,no=104,missing=103,gain=2.2269516,cover=451.912292
								103:[f47<2496.97998] yes=127,no=128,missing=127,gain=0.312620163,cover=333.829315
									127:leaf=-0.0566004403,cover=15.7672358
									128:leaf=-0.0528028607,cover=318.062073
								104:leaf=-0.0603980161,cover=118.082985
					48:[f39<36.5] yes=73,no=74,missing=73,gain=11.017334,cover=1459.97339
						73:[f21<0.5] yes=85,no=86,missing=85,gain=0.434936523,cover=238.27211
							85:leaf=-0.067993179,cover=209.258606
							86:leaf=-0.0736293271,cover=29.0135002
						74:[f38<2] yes=87,no=88,missing=87,gain=2.61993408,cover=1221.70129
							87:leaf=-0.0736293271,cover=139.708817
							88:[f3<20.9949989] yes=107,no=108,missing=107,gain=0.437988281,cover=1081.99243
								107:leaf=-0.0792654827,cover=918.098999
								108:leaf=-0.0764474124,cover=163.893417
				26:[f3<18.2700005] yes=49,no=50,missing=49,gain=159.873047,cover=16575.2168
					49:[f39<40.5] yes=75,no=76,missing=75,gain=30.1240234,cover=10684.8467
						75:leaf=-0.0886162072,cover=831.944946
						76:[f41<7.5] yes=91,no=92,missing=91,gain=1.53808594,cover=9852.90137
							91:leaf=-0.0932915732,cover=216.312531
							92:leaf=-0.0979669318,cover=9636.58887
					50:[f39<298.5] yes=77,no=78,missing=77,gain=31.8303223,cover=5890.36963
						77:[f15<0.69897455] yes=93,no=94,missing=93,gain=2.92346191,cover=3919.49927
							93:[f47<1951.85999] yes=109,no=110,missing=109,gain=1.26391602,cover=3265.47144
								109:leaf=-0.081603162,cover=509.586395
								110:leaf=-0.0792654827,cover=2755.88501
							94:leaf=-0.0839408413,cover=654.027771
						78:[f8<0.5] yes=95,no=96,missing=95,gain=4.95837402,cover=1970.87061
							95:leaf=-0.0886162072,cover=1617.70117
							96:leaf=-0.0839408413,cover=353.169403
		6:[f41<39] yes=13,no=14,missing=13,gain=108.273438,cover=17604.2188
			13:leaf=-0.108641163,cover=2598.75928
			14:[f37<139.5] yes=27,no=28,missing=27,gain=15.5703125,cover=15005.46
				27:[f36<104.5] yes=51,no=52,missing=51,gain=5.45629883,cover=1810.52209
					51:leaf=-0.114603773,cover=948.114868
					52:leaf=-0.117585078,cover=862.407288
				28:[f35<19.5] yes=53,no=54,missing=53,gain=6.15234375,cover=13194.9385
					53:leaf=-0.117585078,cover=353.316162
					54:leaf=-0.120566376,cover=12841.6221
booster[8]
0:[f3<14.0299997] yes=1,no=2,missing=1,gain=1580.15625,cover=115381.359
	1:[f38<211.5] yes=3,no=4,missing=3,gain=470.1875,cover=66577.625
		3:[f32<0.5] yes=7,no=8,missing=7,gain=128.148438,cover=20717.6328
			7:[f3<8.44000053] yes=15,no=16,missing=15,gain=17.2021484,cover=13245.8389
				15:[f0<7187.5] yes=29,no=30,missing=29,gain=1.10498047,cover=3268.85425
					29:leaf=-0.116760597,cover=994.670715
					30:leaf=-0.119375095,cover=2274.18359
				16:leaf=-0.114146084,cover=9976.98438
			8:[f3<12.7700005] yes=17,no=18,missing=17,gain=3.45605469,cover=7471.79541
				17:leaf=-0.124604098,cover=5810.2832
				18:[f35<210] yes=33,no=34,missing=33,gain=0.585571289,cover=1661.51221
					33:leaf=-0.119375095,cover=666.047363
					34:leaf=-0.121989593,cover=995.464844
		4:[f3<9.99499989] yes=9,no=10,missing=9,gain=88.28125,cover=45859.9922
			9:[f32<0.5] yes=19,no=20,missing=19,gain=11.3378906,cover=19982.9316
				19:[f3<7.5] yes=35,no=36,missing=35,gain=4.33398438,cover=7372.31055
					35:leaf=-0.140240803,cover=2026.16528
					36:[f6<0.5] yes=53,no=54,missing=53,gain=1.70947266,cover=5346.14502
						53:leaf=-0.135743335,cover=2039.03308
						54:leaf=-0.137992069,cover=3307.1123
				20:[f46<4.5] yes=37,no=38,missing=37,gain=1.75195312,cover=12610.6201
					37:leaf=-0.140240803,cover=2831.25708
					38:leaf=-0.144383281,cover=9779.36328
			10:[f32<0.5] yes=21,no=22,missing=21,gain=62.578125,cover=25877.0625
				21:[f35<403] yes=39,no=40,missing=39,gain=10.8505859,cover=11629.4072
					39:[f36<449.5] yes=57,no=58,missing=57,gain=5.15429688,cover=10002.1885
						57:[f39<381.5] yes=77,no=78,missing=77,gain=2.0234375,cover=9003.93457
							77:leaf=-0.124604098,cover=7878.67383
							78:leaf=-0.1259965,cover=1125.26099
						58:leaf=-0.127388909,cover=998.253601
					40:[f38<252.5] yes=59,no=60,missing=59,gain=0.700927734,cover=1627.21838
						59:leaf=-0.127388909,cover=191.507095
						60:leaf=-0.130173713,cover=1435.7113
				22:[f41<39] yes=41,no=42,missing=41,gain=16.9316406,cover=14247.6543
					41:leaf=-0.130173713,cover=1305.32764
					42:[f46<5.5] yes=61,no=62,missing=61,gain=3.98632812,cover=12942.3271
						61:leaf=-0.132958516,cover=3874.00537
						62:leaf=-0.135743335,cover=9068.32129
	2:[f38<273.5] yes=5,no=6,missing=5,gain=643.640625,cover=48803.7344
		5:[f3<18.5799999] yes=11,no=12,missing=11,gain=337.958984,cover=32252.793
			11:[f38<101.5] yes=23,no=24,missing=23,gain=187.543945,cover=22401.7617
				23:[f39<441] yes=43,no=44,missing=43,gain=10.1417236,cover=3998.10498
					43:[f35<390] yes=63,no=64,missing=63,gain=4.43640137,cover=3832.77979
						63:leaf=-0.0847163647,cover=3454.08057
						64:[f38<42] yes=79,no=80,missing=79,gain=1.22961426,cover=378.69928
							79:leaf=-0.0868790299,cover=133.404114
							80:leaf=-0.0890416875,cover=245.295151
					44:leaf=-0.0933670029,cover=165.32518
				24:[f39<298.5] yes=45,no=46,missing=45,gain=64.1621094,cover=18403.6582
					45:[f32<0.5] yes=65,no=66,missing=65,gain=21.550293,cover=11005.4355
						65:[f29<0.5] yes=81,no=82,missing=81,gain=0.947509766,cover=6868.05078
							81:leaf=-0.0933670029,cover=5819.58301
							82:leaf=-0.0955296606,cover=1048.4679
						66:[f46<3.5] yes=83,no=84,missing=83,gain=1.27636719,cover=4137.38428
							83:leaf=-0.0955296606,cover=671.449097
							84:leaf=-0.0976923183,cover=3465.93506
					46:leaf=-0.102017634,cover=7398.22217
			12:[f39<298.5] yes=25,no=26,missing=25,gain=86.076416,cover=9851.0293
				25:[f3<20.9949989] yes=47,no=48,missing=47,gain=50.7576904,cover=6043.80859
					47:[f38<214.5] yes=67,no=68,missing=67,gain=15.8962402,cover=3280.26562
						67:[f32<0.5] yes=85,no=86,missing=85,gain=4.5609436,cover=1653.15222
							85:[f47<2645.7002] yes=95,no=96,missing=95,gain=0.991760254,cover=1267.26379
								95:leaf=-0.0646170005,cover=266.865967
								96:leaf=-0.0615795888,cover=1000.39783
							86:[f8<0.5] yes=97,no=98,missing=97,gain=1.14897156,cover=385.888428
								97:leaf=-0.067654416,cover=210.455154
								98:leaf=-0.0646170005,cover=175.433258
						68:[f39<40.5] yes=87,no=88,missing=87,gain=1.04199219,cover=1627.11353
							87:[f27<15.25] yes=99,no=100,missing=99,gain=0.404968262,cover=168.878845
								99:leaf=-0.0706391782,cover=79.4185638
								100:leaf=-0.067654416,cover=89.460289
							88:leaf=-0.0736239403,cover=1458.23462
					48:[f14<0.5] yes=69,no=70,missing=69,gain=24.6392212,cover=2763.54297
						69:[f39<52.5] yes=89,no=90,missing=89,gain=5.50918579,cover=1459.27722
							89:[f35<392] yes=103,no=104,missing=103,gain=1.76476097,cover=246.272522
								103:leaf=-0.0499092191,cover=147.654114
								104:leaf=-0.0557444058,cover=98.6184158
							90:[f38<107] yes=105,no=106,missing=105,gain=2.87521362,cover=1213.00464
								105:leaf=-0.0557444058,cover=190.744598
								106:leaf=-0.0615795888,cover=1022.26007
						70:[f27<16.4350014] yes=91,no=92,missing=91,gain=16.896225,cover=1304.26587
							91:[f38<166.5] yes=107,no=108,missing=107,gain=1.17207336,cover=553.326965
								107:[f27<10.8099995] yes=125,no=126,missing=125,gain=0.730696678,cover=126.869804
									125:leaf=-0.0440616719,cover=54.3026466
									126:leaf=-0.0382141285,cover=72.5671616
								108:leaf=-0.0499092191,cover=426.457153
							92:[f4<485.159973] yes=109,no=110,missing=109,gain=14.4774017,cover=750.938904
								109:[f38<160.5] yes=129,no=130,missing=129,gain=1.27893066,cover=369.314819
									129:leaf=-0.0239603072,cover=69.3938904
									130:leaf=-0.0382141285,cover=299.920929
								110:[f32<0.5] yes=131,no=132,missing=131,gain=6.01743698,cover=381.624054
									131:leaf=0.000366094755,cover=276.476868
									132:leaf=-0.0239603072,cover=105.147179
				26:[f38<119] yes=49,no=50,missing=49,gain=38.9874268,cover=3807.22095
					49:[f35<327] yes=71,no=72,missing=71,gain=3.46865845,cover=1350.68018
						71:leaf=-0.0736239403,cover=1259.99609
						72:leaf=-0.07917016,cover=90.684082
					50:[f8<0.5] yes=73,no=74,missing=73,gain=8.06286621,cover=2456.54077
						73:leaf=-0.0847163647,cover=2145.78882
						74:leaf=-0.07917016,cover=310.752197
		6:[f41<39] yes=13,no=14,missing=13,gain=109.226562,cover=16550.9434
			13:leaf=-0.102017634,cover=2466.93774
			14:[f36<96] yes=27,no=28,missing=27,gain=9.58984375,cover=14084.0049
				27:[f38<300.5] yes=51,no=52,missing=51,gain=9.8894043,cover=3570.40039
					51:leaf=-0.108081862,cover=1276.46362
					52:[f35<19.5] yes=75,no=76,missing=75,gain=2.60351562,cover=2293.93677
						75:leaf=-0.109597921,cover=330.546265
						76:leaf=-0.111113973,cover=1963.3905
				28:leaf=-0.114146084,cover=10513.6045
booster[9]
0:[f3<14.0299997] yes=1,no=2,missing=1,gain=1585.875,cover=107877.773
	1:[f38<211.5] yes=3,no=4,missing=3,gain=490.171875,cover=61477.7188
		3:[f31<0.5] yes=7,no=8,missing=7,gain=135.529297,cover=19295.9766
			7:[f3<12.7700005] yes=15,no=16,missing=15,gain=3.49951172,cover=6906.72412
				15:leaf=-0.119192474,cover=5370.50439
				16:[f40<109] yes=31,no=32,missing=31,gain=0.807006836,cover=1536.21985
					31:leaf=-0.11645896,cover=647.633667
					32:leaf=-0.113725439,cover=888.586182
			8:[f3<8.44000053] yes=17,no=18,missing=17,gain=18.3286133,cover=12389.2529
				17:[f15<0.675096035] yes=33,no=34,missing=33,gain=3.5,cover=3034.20874
					33:leaf=-0.110991925,cover=1052.99744
					34:leaf=-0.113725439,cover=1981.2113
				18:[f40<17.5] yes=35,no=36,missing=35,gain=2.21484375,cover=9355.04395
					35:leaf=-0.110991925,cover=544.715332
					36:leaf=-0.108258419,cover=8810.3291
		4:[f3<9.99499989] yes=9,no=10,missing=9,gain=94.9414062,cover=42181.7422
			9:[f31<0.5] yes=19,no=20,missing=19,gain=11.9707031,cover=18304.1191
				19:[f3<8.38500023] yes=37,no=38,missing=37,gain=1.97558594,cover=11511.6357
					37:leaf=-0.140509441,cover=7735.7124
					38:leaf=-0.136181176,cover=3775.92334
				20:[f3<7.5] yes=39,no=40,missing=39,gain=5.21972656,cover=6792.4834
					39:leaf=-0.135771319,cover=1871.6969
					40:[f38<276.5] yes=57,no=58,missing=57,gain=1.02294922,cover=4920.78662
						57:leaf=-0.130883649,cover=2126.96338
						58:leaf=-0.133327484,cover=2793.82324
			10:[f31<0.5] yes=21,no=22,missing=21,gain=66.21875,cover=23877.623
				21:[f41<39] yes=41,no=42,missing=41,gain=18.4492188,cover=13099.6836
					41:leaf=-0.125038058,cover=1204.09521
					42:[f38<276.5] yes=59,no=60,missing=59,gain=4.11914062,cover=11895.5889
						59:[f39<296.5] yes=85,no=86,missing=85,gain=2.80029297,cover=4556.80908
							85:leaf=-0.127960861,cover=2311.46045
							86:leaf=-0.129422247,cover=2245.34888
						60:leaf=-0.130883649,cover=7338.7793
				22:[f36<449.5] yes=43,no=44,missing=43,gain=10.6464844,cover=10777.9395
					43:[f35<403] yes=61,no=62,missing=61,gain=5.67871094,cover=9857.63672
						61:[f39<381.5] yes=87,no=88,missing=87,gain=2.21337891,cover=8360.11719
							87:leaf=-0.119192474,cover=7311.87891
							88:leaf=-0.120653868,cover=1048.23816
						62:leaf=-0.122115269,cover=1497.52002
					44:leaf=-0.125038058,cover=920.302917
	2:[f38<224.5] yes=5,no=6,missing=5,gain=649.451172,cover=46400.0547
		5:[f39<296.5] yes=11,no=12,missing=11,gain=225.010742,cover=19201.6465
			11:[f31<0.5] yes=23,no=24,missing=23,gain=91.7419434,cover=9623.50488
				23:[f40<329] yes=45,no=46,missing=45,gain=11.2182617,cover=2258.04541
					45:[f41<35.5] yes=63,no=64,missing=63,gain=1.13037109,cover=1647.77014
						63:leaf=-0.0718359947,cover=47.9576721
						64:[f39<35] yes=89,no=90,missing=89,gain=0.330810547,cover=1599.81238
							89:leaf=-0.0743281096,cover=70.38871
							90:leaf=-0.0768202245,cover=1529.42371
					46:[f15<0.680056334] yes=65,no=66,missing=65,gain=2.11341858,cover=610.275208
						65:leaf=-0.0668517575,cover=311.767029
						66:[f3<19.0200005] yes=93,no=94,missing=93,gain=0.36517334,cover=298.508179
							93:leaf=-0.0718359947,cover=202.82132
							94:leaf=-0.0693438724,cover=95.6868515
				24:[f15<0.683065772] yes=47,no=48,missing=47,gain=70.8579102,cover=7365.45947
					47:[f3<15.6149998] yes=67,no=68,missing=67,gain=37.4963379,cover=4218.35889
						67:[f38<22.5] yes=95,no=96,missing=95,gain=2.89001465,cover=1361.93237
							95:leaf=-0.047437273,cover=140.385269
							96:[f39<30.5] yes=115,no=116,missing=115,gain=1.15216064,cover=1221.54712
								115:leaf=-0.0520562157,cover=105.876358
								116:leaf=-0.0566751584,cover=1115.67078
						68:[f39<36.5] yes=97,no=98,missing=97,gain=31.3141174,cover=2856.42676
							97:[f47<15909.9004] yes=117,no=118,missing=117,gain=10.9083443,cover=301.526703
								117:[f41<399] yes=133,no=134,missing=133,gain=9.21473885,cover=294.676544
									133:leaf=0.065881893,cover=20.2582397
									134:leaf=-0.0113066435,cover=274.418304
								118:leaf=0.137228489,cover=6.8501544
							98:[f4<406.994995] yes=119,no=120,missing=119,gain=21.721405,cover=2554.8999
								119:[f38<63] yes=135,no=136,missing=135,gain=8.71676636,cover=1538.11682
									135:leaf=-0.0378433391,cover=216.326614
									136:leaf=-0.047437273,cover=1321.79028
								120:[f18<0.5] yes=137,no=138,missing=137,gain=12.2196388,cover=1016.78314
									137:leaf=-0.0378433391,cover=370.02301
									138:leaf=-0.0221376214,cover=646.760071
					48:[f3<19.7299995] yes=69,no=70,missing=69,gain=15.8895264,cover=3147.10059
						69:[f38<64] yes=99,no=100,missing=99,gain=4.47564697,cover=2347.16333
							99:leaf=-0.061763458,cover=360.122223
							100:[f26<0.5] yes=123,no=124,missing=123,gain=0.521728516,cover=1987.04114
								123:leaf=-0.0668517575,cover=1937.11426
								124:leaf=-0.0643076077,cover=49.9268303
						70:[f4<428.325012] yes=101,no=102,missing=101,gain=1.21377563,cover=799.937134
							101:leaf=-0.061763458,cover=124.789932
							102:[f15<0.716628075] yes=127,no=128,missing=127,gain=0.313011169,cover=675.147217
								127:leaf=-0.0566751584,cover=616.719299
								128:leaf=-0.0592193082,cover=58.4279251
			12:[f40<136.5] yes=25,no=26,missing=25,gain=126.286621,cover=9578.14258
				25:[f38<57] yes=49,no=50,missing=49,gain=13.3164062,cover=5152.25635
					49:[f41<334.5] yes=71,no=72,missing=71,gain=0.479690552,cover=571.806091
						71:leaf=-0.0839848071,cover=534.357422
						72:leaf=-0.087567091,cover=37.4486885
					50:[f36<90.5] yes=73,no=74,missing=73,gain=4.7590332,cover=4580.4502
						73:leaf=-0.087567091,cover=321.403564
						74:leaf=-0.0911493823,cover=4259.04688
				26:[f36<237] yes=51,no=52,missing=51,gain=29.0614014,cover=4425.88623
					51:leaf=-0.0768202245,cover=2370.0166
					52:[f3<20.3999996] yes=77,no=78,missing=77,gain=3.24938965,cover=2055.86963
						77:leaf=-0.0839848071,cover=1712.86365
						78:leaf=-0.0804025158,cover=343.006073
		6:[f3<19.1949997] yes=13,no=14,missing=13,gain=212.238281,cover=27198.4082
			13:[f39<43.5] yes=27,no=28,missing=27,gain=67.671875,cover=20752.6699
				27:leaf=-0.099703908,cover=2204.32104
				28:[f41<39] yes=53,no=54,missing=53,gain=13.1640625,cover=18548.3496
					53:[f42<0.5] yes=79,no=80,missing=79,gain=0.908203125,cover=1667.36487
						79:leaf=-0.103981167,cover=1444.9386
						80:leaf=-0.106119797,cover=222.426315
					54:[f36<99.5] yes=81,no=82,missing=81,gain=3.5703125,cover=16880.9844
						81:[f38<300.5] yes=105,no=106,missing=105,gain=2.65966797,cover=4510.33008
							105:leaf=-0.106119797,cover=2847.70947
							106:leaf=-0.107189104,cover=1662.62048
						82:[f35<23.5] yes=107,no=108,missing=107,gain=0.180664062,cover=12370.6543
							107:[f40<299.5] yes=129,no=130,missing=129,gain=0.433105469,cover=1987.03247
								129:leaf=-0.107723758,cover=586.356812
								130:leaf=-0.107189104,cover=1400.67566
							108:leaf=-0.108258419,cover=10383.6221
			14:[f39<383] yes=29,no=30,missing=29,gain=22.0063477,cover=6445.73779
				29:[f36<449.5] yes=55,no=56,missing=55,gain=8.20410156,cover=5908.54443
					55:[f35<403] yes=83,no=84,missing=83,gain=3.48901367,cover=5471.40576
						83:[f40<40] yes=109,no=110,missing=109,gain=0.89440918,cover=4645.14844
							109:leaf=-0.0922186971,cover=445.746521
							110:leaf=-0.0911493823,cover=4199.40186
						84:[f37<353.5] yes=111,no=112,missing=111,gain=0.469665527,cover=826.257263
							111:leaf=-0.0922186971,cover=297.761139
							112:leaf=-0.0932880118,cover=528.496094
					56:leaf=-0.0954266414,cover=437.138672
				30:leaf=-0.099703908,cover=537.193115
booster[10]
0:[f3<12.7049999] yes=1,no=2,missing=1,gain=1621.34375,cover=100778.25
	1:[f38<100.5] yes=3,no=4,missing=3,gain=347.839844,cover=44566.2891
		3:[f31<0.5] yes=7,no=8,missing=7,gain=7.09057617,cover=4617.98535
			7:[f35<325.5] yes=15,no=16,missing=15,gain=3.08172607,cover=802.955322
				15:leaf=-0.111035697,cover=440.340454
				16:leaf=-0.115936786,cover=362.614899
			8:[f3<6.51499987] yes=17,no=18,missing=17,gain=1.08422852,cover=3815.02979
				17:leaf=-0.111035697,cover=305.960571
				18:leaf=-0.106134593,cover=3509.06934
		4:[f31<0.5] yes=9,no=10,missing=9,gain=130.257812,cover=39948.3047
			9:[f3<8.38500023] yes=19,no=20,missing=19,gain=24.6972656,cover=22119.0801
				19:[f3<7.55499983] yes=31,no=32,missing=31,gain=1.07617188,cover=8500.10059
					31:leaf=-0.138821885,cover=4748.51514
					32:[f6<0.5] yes=55,no=56,missing=55,gain=0.850585938,cover=3751.58521
						55:leaf=-0.132853374,cover=2549.59814
						56:leaf=-0.136803985,cover=1201.98718
				20:[f38<276.5] yes=33,no=34,missing=33,gain=20.6503906,cover=13618.9805
					33:[f39<300.5] yes=57,no=58,missing=57,gain=8.04052734,cover=6835.03613
						57:leaf=-0.124995902,cover=3455.95801
						58:[f38<119] yes=89,no=90,missing=89,gain=0.427734375,cover=3379.07812
							89:leaf=-0.126960278,cover=450.145142
							90:leaf=-0.128924638,cover=2928.93286
					34:[f41<39] yes=59,no=60,missing=59,gain=5.11914062,cover=6783.94482
						59:leaf=-0.128924638,cover=474.270874
						60:leaf=-0.132853374,cover=6309.67383
			10:[f38<276.5] yes=21,no=22,missing=21,gain=51.3613281,cover=17829.2246
				21:[f39<299.5] yes=35,no=36,missing=35,gain=16.8916016,cover=10782.8291
					35:[f3<7.89499998] yes=61,no=62,missing=61,gain=2.13476562,cover=6680.01123
						61:leaf=-0.118201569,cover=1346.59436
						62:leaf=-0.115936786,cover=5333.4165
					36:leaf=-0.120466344,cover=4102.81787
				22:[f41<35.5] yes=37,no=38,missing=37,gain=6.51953125,cover=7046.39551
					37:leaf=-0.120466344,cover=823.376831
					38:[f15<0.651001692] yes=63,no=64,missing=63,gain=0.3125,cover=6223.01855
						63:leaf=-0.122731127,cover=423.962189
						64:leaf=-0.124995902,cover=5799.05664
	2:[f31<0.5] yes=5,no=6,missing=5,gain=832.960938,cover=56211.9609
		5:[f3<18.6499996] yes=11,no=12,missing=11,gain=128.941406,cover=23725.8066
			11:[f41<39.5] yes=23,no=24,missing=23,gain=19.3261719,cover=18799.793
				23:[f42<0.5] yes=39,no=40,missing=39,gain=0.80670166,cover=1773.17285
					39:leaf=-0.0992008597,cover=1598.49365
					40:leaf=-0.102667734,cover=174.67926
				24:[f38<108] yes=41,no=42,missing=41,gain=6.19726562,cover=17026.6211
					41:[f35<327] yes=67,no=68,missing=67,gain=2.2779541,cover=1483.02283
						67:leaf=-0.102667734,cover=1152.35425
						68:leaf=-0.104401164,cover=330.668518
					42:[f39<42] yes=69,no=70,missing=69,gain=1.37890625,cover=15543.5977
						69:leaf=-0.104401164,cover=385.950592
						70:[f35<20.5] yes=91,no=92,missing=91,gain=0.390625,cover=15157.6475
							91:leaf=-0.105267882,cover=1927.16211
							92:leaf=-0.106134593,cover=13230.4854
			12:[f38<276.5] yes=25,no=26,missing=25,gain=19.0407715,cover=4926.01318
				25:[f39<424] yes=43,no=44,missing=43,gain=2.5135498,cover=3114.05835
					43:leaf=-0.0922671258,cover=2917.07202
					44:leaf=-0.0957339928,cover=196.986481
				26:[f41<39] yes=45,no=46,missing=45,gain=4.81494141,cover=1811.95483
					45:leaf=-0.0957339928,cover=267.530945
					46:[f37<233.5] yes=71,no=72,missing=71,gain=0.415527344,cover=1544.42395
						71:leaf=-0.0974674299,cover=497.069641
						72:leaf=-0.0992008597,cover=1047.35425
		6:[f38<101.5] yes=13,no=14,missing=13,gain=478.188477,cover=32486.1562
			13:[f15<0.679262519] yes=27,no=28,missing=27,gain=60.1050415,cover=5333.31006
				27:[f35<318.5] yes=47,no=48,missing=47,gain=36.1795654,cover=2831.74707
					47:[f1<0.5] yes=73,no=74,missing=73,gain=27.7061539,cover=1909.24121
						73:[f26<0.5] yes=93,no=94,missing=93,gain=13.8113098,cover=616.224915
							93:[f41<69] yes=119,no=120,missing=119,gain=7.91711998,cover=590.631714
								119:[f27<19.7750015] yes=153,no=154,missing=153,gain=5.31583071,cover=115.336655
									153:leaf=0.00380201684,cover=68.0430679
									154:leaf=0.037238013,cover=47.2935905
								120:[f15<0.669149458] yes=155,no=156,missing=155,gain=6.16047812,cover=475.295074
									155:leaf=0.00267565949,cover=222.803757
									156:leaf=-0.0183807984,cover=252.491318
							94:[f37<236.5] yes=121,no=122,missing=121,gain=6.51759148,cover=25.5931702
								121:[f14<0.5] yes=157,no=158,missing=157,gain=1.94536018,cover=12.0546293
									157:leaf=0.09010005,cover=6.81097651
									158:leaf=0.197757959,cover=5.2436533
								122:[f27<15.7700005] yes=159,no=160,missing=159,gain=0.928518176,cover=13.5385399
									159:leaf=0.037238013,cover=7.8103838
									160:leaf=0.0838849992,cover=5.72815609
						74:[f41<83] yes=95,no=96,missing=95,gain=8.72032166,cover=1293.01624
							95:[f4<274.244995] yes=123,no=124,missing=123,gain=2.80876589,cover=365.26123
								123:[f27<22.6599998] yes=161,no=162,missing=161,gain=0.386459351,cover=157.320496
									161:leaf=-0.0267660152,cover=130.71698
									162:leaf=-0.0225734059,cover=26.6035137
								124:leaf=-0.0183807984,cover=207.940735
							96:[f37<143] yes=125,no=126,missing=125,gain=3.89012146,cover=927.755066
								125:[f15<0.671712101] yes=165,no=166,missing=165,gain=0.799500465,cover=262.047852
									165:leaf=-0.0267660152,cover=186.455856
									166:leaf=-0.0309586227,cover=75.59198
								126:[f15<0.639662325] yes=167,no=168,missing=167,gain=1.24343872,cover=665.707214
									167:leaf=-0.0309586227,cover=49.8239174
									168:leaf=-0.035151232,cover=615.883301
					48:[f39<36.5] yes=75,no=76,missing=75,gain=9.32951355,cover=922.505798
						75:leaf=-0.035151232,cover=156.339157
						76:[f38<2] yes=99,no=100,missing=99,gain=2.73519897,cover=766.166687
							99:leaf=-0.0408049114,cover=104.192238
							100:[f41<42.5] yes=131,no=132,missing=131,gain=0.333648682,cover=661.974426
								131:leaf=-0.0436317548,cover=56.4695206
								132:leaf=-0.0464585945,cover=605.504883
				28:[f1<0.5] yes=49,no=50,missing=49,gain=26.2764893,cover=2501.56299
					49:[f3<15.1499996] yes=77,no=78,missing=77,gain=5.31045532,cover=1157.76147
						77:leaf=-0.0558553971,cover=192.574707
						78:[f15<0.709393799] yes=103,no=104,missing=103,gain=1.67488098,cover=965.186768
							103:[f35<324] yes=133,no=134,missing=133,gain=0.662815094,cover=834.664185
								133:leaf=-0.0464585945,cover=698.369751
								134:leaf=-0.0488077961,cover=136.294479
							104:leaf=-0.0511569977,cover=130.522552
					50:[f26<0.5] yes=79,no=80,missing=79,gain=4.19805908,cover=1343.80139
						79:[f38<2.5] yes=105,no=106,missing=105,gain=0.378265381,cover=1289.86829
							105:leaf=-0.0605538003,cover=193.787079
							106:leaf=-0.0652521998,cover=1096.0813
						80:leaf=-0.0558553971,cover=53.933094
			14:[f3<18.6300011] yes=29,no=30,missing=29,gain=311.710938,cover=27152.8457
				29:[f39<43.5] yes=51,no=52,missing=51,gain=97.8310547,cover=20134.7188
					51:[f35<392] yes=81,no=82,missing=81,gain=3.45962524,cover=2087.62915
						81:leaf=-0.0787596628,cover=1539.28674
						82:leaf=-0.0855133981,cover=548.342407
					52:[f38<224.5] yes=83,no=84,missing=83,gain=38.4267578,cover=18047.0898
						83:[f39<298.5] yes=109,no=110,missing=109,gain=13.965332,cover=6927.04004
							109:[f15<0.694978356] yes=139,no=140,missing=139,gain=0.934814453,cover=3851.80591
								139:leaf=-0.0855133981,cover=3095.70947
								140:leaf=-0.0872018337,cover=756.096313
							110:leaf=-0.0888902619,cover=3075.23413
						84:[f41<39] yes=111,no=112,missing=111,gain=4.88085938,cover=11120.0498
							111:leaf=-0.0888902619,cover=1119.6355
							112:leaf=-0.0922671258,cover=10000.4141
				30:[f38<273.5] yes=53,no=54,missing=53,gain=22.3009033,cover=7018.12695
					53:[f39<298.5] yes=85,no=86,missing=85,gain=8.93798828,cover=4823.11182
						85:[f15<0.69897455] yes=113,no=114,missing=113,gain=0.965057373,cover=3247.81055
							113:leaf=-0.0652521998,cover=2695.68604
							114:leaf=-0.0682821721,cover=552.124512
						86:[f41<339] yes=115,no=116,missing=115,gain=2.24108887,cover=1575.30115
							115:[f37<294] yes=147,no=148,missing=147,gain=0.67276001,cover=800.721436
								147:leaf=-0.0682821721,cover=529.295349
								148:leaf=-0.0697971508,cover=271.426117
							116:leaf=-0.0713121295,cover=774.579712
					54:[f41<39] yes=87,no=88,missing=87,gain=21.9026489,cover=2195.01514
						87:leaf=-0.0713121295,cover=440.119934
						88:[f37<242.5] yes=117,no=118,missing=117,gain=3.31060791,cover=1754.89514
							117:leaf=-0.0750358999,cover=633.056641
							118:leaf=-0.0787596628,cover=1121.8385
booster[11]
0:[f3<14.6599998] yes=1,no=2,missing=1,gain=1605.86328,cover=94137.0156
	1:[f38<211.5] yes=3,no=4,missing=3,gain=658.570312,cover=58465.7461
		3:[f32<0.5] yes=7,no=8,missing=7,gain=162.166016,cover=19117.2656
			7:[f3<8.44000053] yes=15,no=16,missing=15,gain=23.3046875,cover=12501.293
				15:[f15<0.66667676] yes=31,no=32,missing=31,gain=4.44506836,cover=2638.4729
					31:leaf=-0.0982864648,cover=553.149109
					32:leaf=-0.10140796,cover=2085.32373
				16:[f39<422.5] yes=33,no=34,missing=33,gain=1.06494141,cover=9862.82031
					33:leaf=-0.0951649696,cover=9242.43262
					34:leaf=-0.0982864648,cover=620.387878
			8:[f38<73.5] yes=17,no=18,missing=17,gain=4.25634766,cover=6615.97168
				17:[f35<324] yes=35,no=36,missing=35,gain=1.63088989,cover=635.757874
					35:leaf=-0.10140796,cover=411.133759
					36:leaf=-0.104529463,cover=224.624115
				18:[f35<92.5] yes=37,no=38,missing=37,gain=1.27294922,cover=5980.21387
					37:[f3<10.0699997] yes=61,no=62,missing=61,gain=0.823730469,cover=1177.18311
						61:leaf=-0.106090218,cover=406.701599
						62:leaf=-0.104529463,cover=770.481506
					38:leaf=-0.107650958,cover=4803.03076
		4:[f3<11.5349998] yes=9,no=10,missing=9,gain=153.40625,cover=39348.4805
			9:[f32<0.5] yes=19,no=20,missing=19,gain=39.6894531,cover=21204.9453
				19:[f3<8.79999924] yes=39,no=40,missing=39,gain=13.1123047,cover=8446.41406
					39:[f15<0.671930373] yes=63,no=64,missing=63,gain=0.808349609,cover=3504.81567
						63:leaf=-0.122756027,cover=686.969299
						64:leaf=-0.125962198,cover=2817.84644
					40:[f17<0.5] yes=65,no=66,missing=65,gain=2.03564453,cover=4941.59814
						65:leaf=-0.119549863,cover=3122.95288
						66:leaf=-0.122756027,cover=1818.64539
				20:[f46<6.5] yes=41,no=42,missing=41,gain=5.76953125,cover=12758.5322
					41:[f3<7.89499998] yes=67,no=68,missing=67,gain=3.37255859,cover=4729.77539
						67:leaf=-0.130557641,cover=1928.92908
						68:leaf=-0.125962198,cover=2800.84619
					42:[f38<276.5] yes=69,no=70,missing=69,gain=2.41308594,cover=8028.75684
						69:[f39<390.5] yes=99,no=100,missing=99,gain=0.637451172,cover=2912.23901
							99:leaf=-0.130557641,cover=2002.00659
							100:leaf=-0.132965326,cover=910.232422
						70:[f37<358] yes=101,no=102,missing=101,gain=0.438476562,cover=5116.51807
							101:leaf=-0.132965326,cover=2163.74707
							102:leaf=-0.137225106,cover=2952.77075
			10:[f32<0.5] yes=21,no=22,missing=21,gain=69.84375,cover=18143.5332
				21:[f39<381.5] yes=43,no=44,missing=43,gain=9.48388672,cover=8362.67871
					43:[f36<449.5] yes=71,no=72,missing=71,gain=4.40673828,cover=7607.37305
						71:[f35<398] yes=103,no=104,missing=103,gain=1.85058594,cover=6961.88818
							103:leaf=-0.107650958,cover=5846.79541
							104:leaf=-0.109124072,cover=1115.09277
						72:leaf=-0.110597178,cover=645.484558
					44:leaf=-0.113543384,cover=755.305359
				22:[f46<6.5] yes=45,no=46,missing=45,gain=21.1826172,cover=9780.85547
					45:[f39<285.5] yes=73,no=74,missing=73,gain=2.19677734,cover=3720.71362
						73:leaf=-0.113543384,cover=2721.39551
						74:leaf=-0.116546623,cover=999.318054
					46:[f39<43.5] yes=75,no=76,missing=75,gain=2.34033203,cover=6060.1416
						75:leaf=-0.116546623,cover=384.341187
						76:leaf=-0.119549863,cover=5675.80029
	2:[f38<273.5] yes=5,no=6,missing=5,gain=554.512695,cover=35671.2695
		5:[f39<298.5] yes=11,no=12,missing=11,gain=287.248047,cover=23941.5801
			11:[f3<20.9949989] yes=23,no=24,missing=23,gain=143.13501,cover=14357.5215
				23:[f15<0.679416776] yes=47,no=48,missing=47,gain=114.662598,cover=11818.627
					47:[f32<0.5] yes=77,no=78,missing=77,gain=38.8751221,cover=6144.83887
						77:[f3<15.6149998] yes=105,no=106,missing=105,gain=7.9854126,cover=4203.72949
							105:[f38<100] yes=131,no=132,missing=131,gain=1.12954712,cover=946.380981
								131:leaf=-0.0507002138,cover=211.343689
								132:[f39<40.5] yes=155,no=156,missing=155,gain=0.40536499,cover=735.037292
									155:leaf=-0.0523066148,cover=71.9351425
									156:leaf=-0.0539130159,cover=663.102112
							106:[f35<394] yes=133,no=134,missing=133,gain=1.48907471,cover=3257.34839
								133:leaf=-0.0474874116,cover=2776.31641
								134:[f37<148.5] yes=159,no=160,missing=159,gain=1.42021179,cover=481.032104
									159:leaf=-0.0490938127,cover=132.246185
									160:leaf=-0.0507002138,cover=348.785919
						78:[f46<5.5] yes=107,no=108,missing=107,gain=4.31726074,cover=1941.10962
							107:[f14<0.5] yes=135,no=136,missing=135,gain=1.33378601,cover=620.048401
								135:leaf=-0.057125818,cover=276.127533
								136:leaf=-0.0539130159,cover=343.920868
							108:[f7<0.5] yes=137,no=138,missing=137,gain=0.297973633,cover=1321.06128
								137:leaf=-0.0603386201,cover=1022.51471
								138:[f3<15.2650003] yes=163,no=164,missing=163,gain=0.566959381,cover=298.54657
									163:leaf=-0.058732219,cover=151.069046
									164:leaf=-0.057125818,cover=147.477509
					48:[f38<64] yes=79,no=80,missing=79,gain=15.8081055,cover=5673.78809
						79:leaf=-0.0603386201,cover=370.308075
						80:[f39<31.5] yes=111,no=112,missing=111,gain=2.89306641,cover=5303.47998
							111:leaf=-0.0650148019,cover=203.083725
							112:[f26<0.5] yes=139,no=140,missing=139,gain=0.524169922,cover=5100.396
								139:leaf=-0.0696909875,cover=4988.30957
								140:leaf=-0.067352891,cover=112.08651
				24:[f15<0.69345355] yes=49,no=50,missing=49,gain=23.702774,cover=2538.89453
					49:[f39<31.5] yes=81,no=82,missing=81,gain=17.6942444,cover=1833.96155
						81:[f11<0.5] yes=113,no=114,missing=113,gain=4.89310694,cover=54.058094
							113:[f9<0.5] yes=141,no=142,missing=141,gain=1.62708712,cover=46.5359688
								141:[f22<0.5] yes=167,no=168,missing=167,gain=0.993896663,cover=20.9383392
									167:leaf=0.00778440852,cover=7.70500374
									168:leaf=0.0270835962,cover=13.2333345
								142:[f27<18.0149994] yes=169,no=170,missing=169,gain=2.18209839,cover=25.5976315
									169:leaf=0.0270835962,cover=13.0288
									170:leaf=0.0760917813,cover=12.5688305
							114:leaf=0.125858426,cover=7.52212238
						82:[f47<2678.8999] yes=115,no=116,missing=115,gain=14.2498932,cover=1779.90344
							115:[f15<0.643042684] yes=143,no=144,missing=143,gain=0.997200012,cover=281.47757
								143:leaf=-0.0282696113,cover=58.6416893
								144:leaf=-0.0360383578,cover=222.835861
							116:[f46<7.5] yes=145,no=146,missing=145,gain=9.46359634,cover=1498.4259
								145:[f35<90.5] yes=175,no=176,missing=175,gain=7.17757225,cover=760.263
									175:leaf=0.00315971323,cover=305.499359
									176:leaf=-0.0196474288,cover=454.763641
								146:[f32<0.5] yes=177,no=178,missing=177,gain=1.54372406,cover=738.162903
									177:leaf=-0.021644989,cover=519.30365
									178:leaf=-0.0282696113,cover=218.859222
					50:[f14<0.5] yes=83,no=84,missing=83,gain=4.19506836,cover=704.933044
						83:[f38<95] yes=117,no=118,missing=117,gain=1.07676697,cover=458.542328
							117:leaf=-0.0417628847,cover=46.5323372
							118:leaf=-0.0474874116,cover=412.009979
						84:[f15<0.716628075] yes=119,no=120,missing=119,gain=1.05034637,cover=246.390701
							119:leaf=-0.0360383578,cover=216.523712
							120:leaf=-0.0417628847,cover=29.8669891
			12:[f38<119] yes=25,no=26,missing=25,gain=100.759277,cover=9584.05762
				25:[f36<261.5] yes=51,no=52,missing=51,gain=12.7870483,cover=3367.97192
					51:[f3<15.1499996] yes=85,no=86,missing=85,gain=1.27648926,cover=2926.47241
						85:leaf=-0.0727135614,cover=214.502655
						86:leaf=-0.0696909875,cover=2711.96973
					52:leaf=-0.0757361352,cover=441.499573
				26:[f3<23.1949997] yes=53,no=54,missing=53,gain=5.08642578,cover=6216.08594
					53:[f7<0.5] yes=87,no=88,missing=87,gain=2.71630859,cover=5745.02783
						87:leaf=-0.0817812905,cover=4883.13574
						88:[f3<15.1599998] yes=123,no=124,missing=123,gain=1.19073486,cover=861.891907
							123:leaf=-0.0802699998,cover=273.159576
							124:leaf=-0.0787587091,cover=588.732361
					54:[f44<0.5] yes=89,no=90,missing=89,gain=1.21009827,cover=471.058044
						89:leaf=-0.0757361352,cover=248.191681
						90:leaf=-0.0787587091,cover=222.866348
		6:[f7<0.5] yes=13,no=14,missing=13,gain=56.0771484,cover=11729.6904
			13:[f3<20.9949989] yes=27,no=28,missing=27,gain=28.8178711,cover=10464.8887
				27:[f39<41.5] yes=55,no=56,missing=55,gain=3.22802734,cover=8777.7041
					55:leaf=-0.0918190554,cover=347.381836
					56:[f37<139.5] yes=93,no=94,missing=93,gain=0.896972656,cover=8430.32227
						93:[f36<119] yes=127,no=128,missing=127,gain=0.483459473,cover=678.640381
							127:leaf=-0.0934920162,cover=364.539642
							128:leaf=-0.0943284929,cover=314.100708
						94:leaf=-0.0951649696,cover=7751.68213
				28:[f37<358] yes=57,no=58,missing=57,gain=4.47570801,cover=1687.18445
					57:leaf=-0.0884731263,cover=984.144348
					58:leaf=-0.0918190554,cover=703.0401
			14:[f3<15.0450001] yes=29,no=30,missing=29,gain=5.24972534,cover=1264.80188
				29:leaf=-0.0884731263,cover=440.673248
				30:leaf=-0.0817812905,cover=824.128601
booster[12]
0:[f3<12.7049999] yes=1,no=2,missing=1,gain=1613.80469,cover=88018.2266
	1:[f31<0.5] yes=3,no=4,missing=3,gain=384.335938,cover=37564.3398
		3:[f3<8.38500023] yes=7,no=8,missing=7,gain=32.8652344,cover=19092.2871
			7:[f3<7.55499983] yes=15,no=16,missing=15,gain=1.8046875,cover=7257.87744
				15:leaf=-0.13295579,cover=4025.00049
				16:[f38<276.5] yes=31,no=32,missing=31,gain=1.01489258,cover=3232.87695
					31:leaf=-0.125606969,cover=1572.21838
					32:leaf=-0.13051118,cover=1660.65857
			8:[f46<6.5] yes=17,no=18,missing=17,gain=32.6523438,cover=11834.4092
				17:[f38<276.5] yes=33,no=34,missing=33,gain=6.01147461,cover=4308.55176
					33:leaf=-0.112269811,cover=2276.36987
					34:[f37<361.5] yes=61,no=62,missing=61,gain=1.06469727,cover=2032.18176
						61:leaf=-0.115510114,cover=959.871094
						62:leaf=-0.118750423,cover=1072.31067
				18:[f38<224.5] yes=35,no=36,missing=35,gain=8.51757812,cover=7525.85791
					35:[f40<109] yes=63,no=64,missing=63,gain=1.28601074,cover=2009.79688
						63:leaf=-0.122178704,cover=996.158264
						64:leaf=-0.118750423,cover=1013.63861
					36:leaf=-0.125606969,cover=5516.06104
		4:[f38<224.5] yes=9,no=10,missing=9,gain=194.589844,cover=18472.0547
			9:[f3<7.5] yes=19,no=20,missing=19,gain=17.6201172,cover=8549.24316
				19:[f0<7762.5] yes=37,no=38,missing=37,gain=0.787353516,cover=1361.81348
					37:leaf=-0.10015443,cover=471.742523
					38:leaf=-0.10419289,cover=890.070923
				20:[f40<19] yes=39,no=40,missing=39,gain=3.21484375,cover=7187.4292
					39:leaf=-0.10015443,cover=391.113617
					40:leaf=-0.0961159766,cover=6796.31592
			10:[f38<275.5] yes=21,no=22,missing=21,gain=8.95117188,cover=9922.81152
				21:[f3<8.79999924] yes=41,no=42,missing=41,gain=10.947998,cover=3990.79541
					41:leaf=-0.109304778,cover=1209.53662
					42:[f40<172.5] yes=67,no=68,missing=67,gain=1.71765137,cover=2781.25879
						67:[f36<195] yes=89,no=90,missing=89,gain=0.883789062,cover=1336.18677
							89:leaf=-0.105470859,cover=665.547241
							90:leaf=-0.106748834,cover=670.639587
						68:leaf=-0.10419289,cover=1445.07202
				22:[f37<204] yes=43,no=44,missing=43,gain=2.04296875,cover=5932.01562
					43:leaf=-0.109304778,cover=1131.84412
					44:leaf=-0.112269811,cover=4800.17188
	2:[f31<0.5] yes=5,no=6,missing=5,gain=845.441406,cover=50453.8828
		5:[f3<18.6499996] yes=11,no=12,missing=11,gain=133.271484,cover=20912.9453
			11:[f46<3.5] yes=23,no=24,missing=23,gain=20.5,cover=16461.5332
				23:[f38<274.5] yes=45,no=46,missing=45,gain=3.91503906,cover=2581.30591
					45:leaf=-0.0887601301,cover=1476.33459
					46:leaf=-0.0924380496,cover=1104.97144
				24:[f38<73.5] yes=47,no=48,missing=47,gain=4.37890625,cover=13880.2275
					47:leaf=-0.0924380496,cover=406.17334
					48:[f40<368.5] yes=71,no=72,missing=71,gain=0.448242188,cover=13474.0537
						71:leaf=-0.0961159766,cover=13093.2627
						72:leaf=-0.0942770094,cover=380.791016
			12:[f38<276.5] yes=25,no=26,missing=25,gain=18.1168213,cover=4451.41211
				25:[f40<39.5] yes=49,no=50,missing=49,gain=2.33538818,cover=2847.82593
					49:leaf=-0.0850822106,cover=358.274963
					50:leaf=-0.0814042985,cover=2489.55078
				26:[f37<347] yes=51,no=52,missing=51,gain=4.17651367,cover=1603.5863
					51:leaf=-0.0850822106,cover=842.963562
					52:leaf=-0.0887601301,cover=760.622681
		6:[f38<224.5] yes=13,no=14,missing=13,gain=461.55957,cover=29540.9375
			13:[f38<101.5] yes=27,no=28,missing=27,gain=154.661865,cover=14416.4004
				27:[f1<0.5] yes=53,no=54,missing=53,gain=50.3100891,cover=5021.43506
					53:[f0<9650] yes=77,no=78,missing=77,gain=38.7500725,cover=1952.83215
						77:[f46<9.5] yes=91,no=92,missing=91,gain=5.26526356,cover=259.170929
							91:[f27<23.9150009] yes=115,no=116,missing=115,gain=3.60588455,cover=191.594406
								115:[f37<303] yes=147,no=148,missing=147,gain=3.46569061,cover=181.411621
									147:leaf=0.0452457406,cover=95.6114349
									148:leaf=0.0161969177,cover=85.8001938
								116:leaf=0.100050583,cover=10.1827869
							92:[f27<18.8650017] yes=117,no=118,missing=117,gain=1.80289352,cover=67.5765228
								117:leaf=-0.00126011414,cover=49.9855499
								118:[f4<119.479996] yes=151,no=152,missing=151,gain=0.337192774,cover=17.5909748
									151:leaf=0.00746840239,cover=6.47699642
									152:leaf=0.0161969177,cover=11.1139774
						78:[f38<27] yes=93,no=94,missing=93,gain=22.5161972,cover=1693.66125
							93:[f36<262] yes=119,no=120,missing=119,gain=5.5833292,cover=429.579437
								119:[f3<15.4899998] yes=153,no=154,missing=153,gain=1.32886481,cover=225.725632
									153:leaf=-0.00908939075,cover=53.9208641
									154:leaf=-0.00126011414,cover=171.804764
								120:[f38<3] yes=155,no=156,missing=155,gain=2.18206882,cover=203.853806
									155:leaf=-0.00908939075,cover=93.5581207
									156:leaf=-0.0169186667,cover=110.295685
							94:[f40<253.5] yes=121,no=122,missing=121,gain=12.6335678,cover=1264.08179
								121:[f36<116] yes=157,no=158,missing=157,gain=3.67634583,cover=864.272583
									157:leaf=-0.0243186485,cover=116.399673
									158:leaf=-0.0317186303,cover=747.872925
								122:[f42<0.5] yes=159,no=160,missing=159,gain=2.3968668,cover=399.809265
									159:leaf=-0.0169186667,cover=320.343597
									160:leaf=-0.0243186485,cover=79.4656448
					54:[f40<282.5] yes=79,no=80,missing=79,gain=12.1112366,cover=3068.60278
						79:[f38<26.5] yes=95,no=96,missing=95,gain=6.34017944,cover=2099.54419
							95:[f36<242] yes=123,no=124,missing=123,gain=1.84976196,cover=769.840332
								123:leaf=-0.0400578156,cover=463.757782
								124:leaf=-0.043751277,cover=306.082581
							96:[f36<116] yes=125,no=126,missing=125,gain=1.15216064,cover=1329.70386
								125:leaf=-0.043751277,cover=151.90274
								126:leaf=-0.0474447384,cover=1177.80115
						80:[f0<16437.5] yes=97,no=98,missing=97,gain=5.60856628,cover=969.058533
							97:[f21<0.5] yes=127,no=128,missing=127,gain=0.992759705,cover=766.191956
								127:[f4<68.9599991] yes=169,no=170,missing=169,gain=0.325227737,cover=626.459778
									169:leaf=-0.0338034295,cover=30.1428223
									170:leaf=-0.0317186303,cover=596.316956
								128:leaf=-0.0358882248,cover=139.732162
							98:leaf=-0.0400578156,cover=202.866608
				28:[f3<17.5750008] yes=55,no=56,missing=55,gain=84.7849121,cover=9394.96582
					55:[f40<253] yes=81,no=82,missing=81,gain=23.0799561,cover=5829.68701
						81:[f36<90.5] yes=99,no=100,missing=99,gain=6.41650391,cover=4088.15601
							99:[f40<17] yes=131,no=132,missing=131,gain=2.75305176,cover=988.37262
								131:leaf=-0.0639712662,cover=182.3797
								132:leaf=-0.0616103336,cover=805.99292
							100:[f9<0.5] yes=133,no=134,missing=133,gain=0.317993164,cover=3099.78345
								133:leaf=-0.0663321912,cover=3082.89331
								134:leaf=-0.0639712662,cover=16.8900967
						82:[f38<187] yes=101,no=102,missing=101,gain=3.93615723,cover=1741.53088
							101:leaf=-0.0568884648,cover=606.090881
							102:[f12<0.5] yes=135,no=136,missing=135,gain=1.58566284,cover=1135.44006
								135:leaf=-0.0592493974,cover=660.271912
								136:leaf=-0.0616103336,cover=475.168152
					56:[f40<131] yes=83,no=84,missing=83,gain=20.3416138,cover=3565.27881
						83:[f36<90.5] yes=103,no=104,missing=103,gain=11.0696106,cover=1557.93555
							103:[f40<17] yes=137,no=138,missing=137,gain=1.66443825,cover=672.679382
								137:leaf=-0.0545275323,cover=103.65715
								138:leaf=-0.0521666035,cover=569.022278
							104:leaf=-0.0568884648,cover=885.256165
						84:[f47<1921.73999] yes=105,no=106,missing=105,gain=3.54566956,cover=2007.34314
							105:leaf=-0.0521666035,cover=309.990387
							106:leaf=-0.0474447384,cover=1697.35278
			14:[f3<18.5799999] yes=29,no=30,missing=29,gain=131.650879,cover=15124.5371
				29:[f10<0.5] yes=57,no=58,missing=57,gain=2.57958984,cover=11270.9463
					57:[f38<273.5] yes=85,no=86,missing=85,gain=0.81640625,cover=11260.877
						85:[f40<172.5] yes=107,no=108,missing=107,gain=9.66650391,cover=4944.66553
							107:[f36<118.5] yes=143,no=144,missing=143,gain=1.76342773,cover=2172.64966
								143:leaf=-0.0790396556,cover=725.444397
								144:leaf=-0.0804430395,cover=1447.2052
							108:leaf=-0.0776362643,cover=2772.01611
						86:leaf=-0.0814042985,cover=6316.21094
					58:leaf=-0.0738682449,cover=10.0697823
				30:[f36<449.5] yes=59,no=60,missing=59,gain=8.82733154,cover=3853.59058
					59:[f40<40] yes=87,no=88,missing=87,gain=2.77453613,cover=3624.35596
						87:[f36<50] yes=111,no=112,missing=111,gain=0.406417847,cover=287.984436
							111:leaf=-0.0682162046,cover=46.7757568
							112:leaf=-0.0701002255,cover=241.208679
						88:leaf=-0.0663321912,cover=3336.37158
					60:leaf=-0.0738682449,cover=229.23465
booster[13]
0:[f3<12.7049999] yes=1,no=2,missing=1,gain=1596.5625,cover=82459.8438
	1:[f38<211.5] yes=3,no=4,missing=3,gain=417.333984,cover=34475.6562
		3:[f31<0.5] yes=7,no=8,missing=7,gain=112.130859,cover=11213.5293
			7:[f40<329] yes=15,no=16,missing=15,gain=2.30566406,cover=3855.44604
				15:[f38<71.5] yes=31,no=32,missing=31,gain=0.596923828,cover=3545.99536
					31:leaf=-0.101107366,cover=337.447723
					32:leaf=-0.104360804,cover=3208.54785
				16:[f3<10.1549997] yes=33,no=34,missing=33,gain=0.345489502,cover=309.450592
					33:leaf=-0.101107366,cover=162.247971
					34:leaf=-0.0978539139,cover=147.202621
			8:[f3<7.40999985] yes=17,no=18,missing=17,gain=11.5664062,cover=7358.08301
				17:[f15<0.666689277] yes=35,no=36,missing=35,gain=1.87585449,cover=1096.45483
					35:leaf=-0.0946004689,cover=222.106049
					36:leaf=-0.0978539139,cover=874.348816
				18:[f40<17.5] yes=37,no=38,missing=37,gain=2.89648438,cover=6261.62842
					37:leaf=-0.0946004689,cover=368.868225
					38:[f39<422.5] yes=63,no=64,missing=63,gain=0.599121094,cover=5892.75977
						63:leaf=-0.0913470238,cover=5517.71777
						64:leaf=-0.0929737464,cover=375.042114
		4:[f31<0.5] yes=9,no=10,missing=9,gain=79.9082031,cover=23262.127
			9:[f3<8.38500023] yes=19,no=20,missing=19,gain=17.9345703,cover=13477.5977
				19:[f38<276.5] yes=39,no=40,missing=39,gain=0.318847656,cover=5207.06836
					39:[f39<296.5] yes=65,no=66,missing=65,gain=0.590698242,cover=1807.73328
						65:leaf=-0.124409236,cover=842.327515
						66:leaf=-0.128343418,cover=965.405762
					40:leaf=-0.130461589,cover=3399.33496
				20:[f38<276.5] yes=41,no=42,missing=41,gain=14.1240234,cover=8270.5293
					41:[f39<390.5] yes=67,no=68,missing=67,gain=4.85791016,cover=3153.40747
						67:leaf=-0.116236947,cover=2282.85449
						68:leaf=-0.120192364,cover=870.553162
					42:[f37<358] yes=69,no=70,missing=69,gain=3.92285156,cover=5117.12207
						69:leaf=-0.120192364,cover=2338.85205
						70:leaf=-0.124409236,cover=2778.26978
			10:[f3<9.5] yes=21,no=22,missing=21,gain=36.8110352,cover=9784.5293
				21:[f39<43.5] yes=43,no=44,missing=43,gain=2.12451172,cover=4001.94702
					43:leaf=-0.110298879,cover=352.180786
					44:leaf=-0.116236947,cover=3649.76611
				22:[f17<0.5] yes=45,no=46,missing=45,gain=9.35595703,cover=5782.58301
					45:[f36<449.5] yes=73,no=74,missing=73,gain=1.43383789,cover=3677.26514
						73:leaf=-0.104360804,cover=3376.32227
						74:leaf=-0.107329845,cover=300.943024
					46:[f38<276.5] yes=75,no=76,missing=75,gain=0.544555664,cover=2105.31763
						75:leaf=-0.107329845,cover=869.375183
						76:leaf=-0.110298879,cover=1235.94238
	2:[f31<0.5] yes=5,no=6,missing=5,gain=816.527344,cover=47984.1836
		5:[f3<18.6499996] yes=11,no=12,missing=11,gain=131.813477,cover=19634.4219
			11:[f39<43.5] yes=23,no=24,missing=23,gain=13.8857422,cover=15406.2988
				23:[f15<0.687210381] yes=47,no=48,missing=47,gain=1.26119995,cover=1045.01074
					47:leaf=-0.0838795826,cover=674.920227
					48:leaf=-0.0876133069,cover=370.090576
				24:[f38<206.5] yes=49,no=50,missing=49,gain=11.0117188,cover=14361.2881
					49:[f40<109] yes=77,no=78,missing=77,gain=3.82275391,cover=3905.06226
						77:[f39<300.5] yes=107,no=108,missing=107,gain=0.780151367,cover=1599.61719
							107:leaf=-0.0885467306,cover=937.539124
							108:leaf=-0.0894801617,cover=662.078003
						78:leaf=-0.0876133069,cover=2305.44507
					50:leaf=-0.0913470238,cover=10456.2256
			12:[f38<276.5] yes=25,no=26,missing=25,gain=20.0786133,cover=4228.12305
				25:[f39<424] yes=51,no=52,missing=51,gain=2.82525635,cover=2711.33765
					51:[f40<39.5] yes=81,no=82,missing=81,gain=1.02346802,cover=2542.93164
						81:leaf=-0.0782790035,cover=342.192749
						82:leaf=-0.0764121413,cover=2200.73877
					52:leaf=-0.0801458657,cover=168.406082
				26:[f37<347] yes=53,no=54,missing=53,gain=3.52880859,cover=1516.78552
					53:[f39<354] yes=83,no=84,missing=83,gain=1.03955078,cover=797.599487
						83:leaf=-0.0801458657,cover=672.183716
						84:leaf=-0.0820127279,cover=125.415779
					54:leaf=-0.0838795826,cover=719.186035
		6:[f38<224.5] yes=13,no=14,missing=13,gain=406.859863,cover=28349.7617
			13:[f39<296.5] yes=27,no=28,missing=27,gain=149.571045,cover=13973.6035
				27:[f15<0.682909489] yes=55,no=56,missing=55,gain=84.6356201,cover=7834.13135
					55:[f39<36.5] yes=85,no=86,missing=85,gain=41.5825958,cover=4554.6958
						85:[f26<0.5] yes=111,no=112,missing=111,gain=25.7256279,cover=524.105652
							111:[f1<0.5] yes=131,no=132,missing=131,gain=10.9985018,cover=508.091278
								131:[f3<18.7700005] yes=155,no=156,missing=155,gain=5.66900444,cover=169.209686
									155:leaf=0.00973729324,cover=108.835152
									156:leaf=0.05526191,cover=60.3745384
								132:[f15<0.661860645] yes=157,no=158,missing=157,gain=6.01416111,cover=338.881592
									157:leaf=0.00760715269,cover=121.154022
									158:leaf=-0.0116170207,cover=217.727554
							112:[f44<0.5] yes=133,no=134,missing=133,gain=0.915197372,cover=16.0143929
								133:leaf=0.176830769,cover=10.1315985
								134:leaf=0.086721465,cover=5.8827939
						86:[f38<64.5] yes=113,no=114,missing=113,gain=23.012085,cover=4030.59033
							113:[f42<0.5] yes=135,no=136,missing=135,gain=3.57523727,cover=608.423584
								135:[f21<0.5] yes=159,no=160,missing=159,gain=0.869155884,cover=468.427094
									159:leaf=-0.0116170207,cover=421.168213
									160:leaf=-0.0170515999,cover=47.2588768
								136:[f39<152.5] yes=161,no=162,missing=161,gain=1.20980549,cover=139.996521
									161:leaf=-0.0170515999,cover=16.166254
									162:leaf=-0.0224861801,cover=123.830261
							114:[f14<0.5] yes=137,no=138,missing=137,gain=21.2169495,cover=3422.16675
								137:[f47<8661.69922] yes=163,no=164,missing=163,gain=2.35546875,cover=1548.24756
									163:leaf=-0.036921721,cover=1237.24719
									164:leaf=-0.0301122945,cover=311.000397
								138:[f47<2840.24023] yes=165,no=166,missing=165,gain=10.3336487,cover=1873.91907
									165:leaf=-0.0301122945,cover=1025.11707
									166:leaf=-0.0224861801,cover=848.802002
					56:[f3<19.7299995] yes=87,no=88,missing=87,gain=22.7614746,cover=3279.4353
						87:[f38<61.5] yes=115,no=116,missing=115,gain=5.50585938,cover=2541.75684
							115:[f30<41.5] yes=139,no=140,missing=139,gain=0.35849762,cover=417.306854
								139:leaf=-0.0426913388,cover=367.14444
								140:leaf=-0.045576144,cover=50.1624184
							116:[f26<0.5] yes=141,no=142,missing=141,gain=1.11450195,cover=2124.44995
								141:[f39<30.5] yes=169,no=170,missing=169,gain=0.48638916,cover=2072.46777
									169:leaf=-0.0470185503,cover=173.727692
									170:leaf=-0.0484609529,cover=1898.73999
								142:leaf=-0.045576144,cover=51.9822845
						88:[f15<0.716628075] yes=117,no=118,missing=117,gain=0.920598984,cover=737.678406
							117:[f47<6954] yes=143,no=144,missing=143,gain=0.381503105,cover=679.786133
								143:leaf=-0.0398065299,cover=92.6815948
								144:leaf=-0.036921721,cover=587.104492
							118:leaf=-0.0426913388,cover=57.8923073
				28:[f40<136.5] yes=57,no=58,missing=57,gain=77.8164062,cover=6139.47217
					57:[f38<57] yes=89,no=90,missing=89,gain=7.87475586,cover=2994.0332
						89:[f15<0.702378273] yes=119,no=120,missing=119,gain=0.778354645,cover=480.637878
							119:leaf=-0.0548663773,cover=403.569092
							120:leaf=-0.0580690876,cover=77.0688019
						90:[f36<90.5] yes=121,no=122,missing=121,gain=3.01135254,cover=2513.39526
							121:leaf=-0.0580690876,cover=242.760162
							122:leaf=-0.0612718016,cover=2270.63501
					58:[f36<237] yes=91,no=92,missing=91,gain=24.3820801,cover=3145.43921
						91:[f15<0.720294595] yes=123,no=124,missing=123,gain=0.439052582,cover=2036.88721
							123:leaf=-0.0484609529,cover=1988.67566
							124:leaf=-0.051663667,cover=48.211544
						92:[f3<22.0699997] yes=125,no=126,missing=125,gain=1.11251831,cover=1108.552
							125:leaf=-0.0548663773,cover=1002.74469
							126:leaf=-0.051663667,cover=105.807335
			14:[f3<18.6300011] yes=29,no=30,missing=29,gain=141.636719,cover=14376.1592
				29:[f39<43.5] yes=59,no=60,missing=59,gain=34.7558594,cover=10669.1094
					59:leaf=-0.0688419789,cover=1343.75525
					60:[f40<392.5] yes=95,no=96,missing=95,gain=0.963378906,cover=9325.35449
						95:[f36<99.5] yes=127,no=128,missing=127,gain=0.750976562,cover=9188.25195
